{"learner":{"attributes":{"best_iteration":"3","best_score":"0.6084116490222304"},"feature_names":["scanner_score","dir_obi","obi_1","obi_5","obi_20","obi_shock","obi_zscore","obi_slope_5","ob_spread_bps","spread_bps_ratio","ob_depth_bid_1","ob_depth_ask_1","ob_depth_bid_5","ob_depth_ask_5","ob_depth_bid_20","ob_depth_ask_20","depth_ratio_5","depth_delta_5","ob_ask_wall_size_20","ob_bid_wall_size_20","ob_ask_wall_conc_20","ob_bid_wall_conc_20","ob_ask_wall_levels_20","ob_bid_wall_levels_20","ob_microprice_dev_bps","ob_mid_close_dist","ob_quote_count","trade_gini","dir_aggressor","dir_net_taker","large_trade_vol_ratio","volume_pressure_5","signed_flow_accel","trade_intensity","rvol","vol_change_rate","natr_20","dir_ema20_dist","dir_ema50_dist","ema_trend","dir_z_vwap","bb_percent_b","bb_width","rsi_7","adx_14","dir_ret_1","dir_ret_5","dir_ret_20","realized_vol_5","realized_vol_20","ret_vol_ratio","range_pos_20","price_efficiency_20","price_velocity_1","price_velocity_3","price_accel_1","price_accel_3","ema_spread","ema_spread_slope","rsi_slope_3","upper_wick_frac","lower_wick_frac","time_sin","time_cos","event_dir","breakout_strength","range_compression","vol_regime","data_from_orderbook","rsi_7_5m","range_pos_20_5m","ema_trend_15m","tf_alignment","momentum_divergence_5m","obi_momentum_3","depth_absorption_rate","depth_divergence","flow_persistence_5","spread_vol_10","quote_intensity_change","price_impact"],"feature_types":["float","float","float","float","float","float","float","float","float","float","float","float","float","float","float","float","float","float","float","float","float","float","float","float","float","float","float","float","float","float","float","float","float","float","float","float","float","float","float","float","float","float","float","float","float","float","float","float","float","float","float","float","float","float","float","float","float","float","float","float","float","float","float","float","float","float","float","float","float","float","float","float","float","float","float","float","float","float","float","float","float"],"gradient_booster":{"model":{"cats":{"enc":[],"feature_segments":[],"sorted_idx":[]},"gbtree_model_param":{"num_parallel_tree":"1","num_trees":"124"},"iteration_indptr":[0,1,2,3,4,5,6,7,8,9,10,11,12,13,14,15,16,17,18,19,20,21,22,23,24,25,26,27,28,29,30,31,32,33,34,35,36,37,38,39,40,41,42,43,44,45,46,47,48,49,50,51,52,53,54,55,56,57,58,59,60,61,62,63,64,65,66,67,68,69,70,71,72,73,74,75,76,77,78,79,80,81,82,83,84,85,86,87,88,89,90,91,92,93,94,95,96,97,98,99,100,101,102,103,104,105,106,107,108,109,110,111,112,113,114,115,116,117,118,119,120,121,122,123,124],"tree_info":[0,0,0,0,0,0,0,0,0,0,0,0,0,0,0,0,0,0,0,0,0,0,0,0,0,0,0,0,0,0,0,0,0,0,0,0,0,0,0,0,0,0,0,0,0,0,0,0,0,0,0,0,0,0,0,0,0,0,0,0,0,0,0,0,0,0,0,0,0,0,0,0,0,0,0,0,0,0,0,0,0,0,0,0,0,0,0,0,0,0,0,0,0,0,0,0,0,0,0,0,0,0,0,0,0,0,0,0,0,0,0,0,0,0,0,0,0,0,0,0,0,0,0,0],"trees":[{"base_weights":[8.1182765E-3,-3.3086855E-2,2.5681314E-1,-5.887026E-1,1.8294138E-1,6.204043E-1,-1.7442514E-1,-7.3282456E-1,-3.5632815E-2,3.8616237E-1,-5.754274E-1,-2.9329685E-4,9.1032195E-1,2.7389414E-4,-1.3468356E-3,-1.7800159E-3,-3E-3,7.1046845E-4,-7.8668207E-4,-6.216605E-4,1.3132321E-3,-1.2874652E-3,-3E-3,3E-3,1.5393938E-3],"categories":[],"categories_nodes":[],"categories_segments":[],"categories_sizes":[],"default_left":[0,0,0,0,0,0,0,0,0,0,0,0,0,0,0,0,0,0,0,0,0,0,0,0,0],"id":0,"left_children":[1,3,5,7,9,11,13,15,17,19,21,-1,23,-1,-1,-1,-1,-1,-1,-1,-1,-1,-1,-1,-1],"loss_changes":[2.3843351E1,2.3661757E2,5.2244667E1,4.3608826E1,2.189545E2,3.8130737E1,1.1605297E1,2.4654053E1,7.7976065E0,3.4725876E1,1.9365578E1,0E0,1.4809273E1,0E0,0E0,0E0,0E0,0E0,0E0,0E0,0E0,0E0,0E0,0E0,0E0],"parents":[2147483647,0,0,1,1,2,2,3,3,4,4,5,5,6,6,7,7,8,8,9,9,10,10,12,12],"right_children":[2,4,6,8,10,12,14,16,18,20,22,-1,24,-1,-1,-1,-1,-1,-1,-1,-1,-1,-1,-1,-1],"split_conditions":[1.6171949E-3,2.2248381E-1,8.135571E1,2.0819765E1,8.6621185E1,7.1059215E-1,2.24E2,-3.748328E-5,2.2960714E-5,1.1528E1,-1.124892E-3,-2.9329685E-4,4.9695263E1,2.7389414E-4,-1.3468356E-3,-1.7800159E-3,-3E-3,7.1046845E-4,-7.8668207E-4,-6.216605E-4,1.3132321E-3,-1.2874652E-3,-3E-3,3E-3,1.5393938E-3],"split_indices":[73,70,69,69,69,41,11,73,80,69,47,0,69,0,0,0,0,0,0,0,0,0,0,0,0],"split_type":[0,0,0,0,0,0,0,0,0,0,0,0,0,0,0,0,0,0,0,0,0,0,0,0,0],"sum_hessian":[2.2846748E3,1.9597037E3,3.2497107E2,5.4831757E2,1.4113861E3,1.7646759E2,1.485035E2,4.3373776E2,1.1457983E2,1.1144E3,2.9698618E2,5.0635853E1,1.2583173E2,7.5213585E1,7.32899E1,3.4810242E2,8.563535E1,5.098226E1,6.359757E1,8.786741E1,1.0265326E3,2.2940846E2,6.757771E1,5.0906185E1,7.4925545E1],"tree_param":{"num_deleted":"0","num_feature":"81","num_nodes":"25","size_leaf_vector":"1"}},{"base_weights":[-2.1084324E-2,-6.5223086E-1,1.21303916E-1,-4.7770673E-1,-3E-3,3.1080398E-1,-5.113853E-1,-2.1734041E-1,-6.2634E-1,7.404586E-4,4.3035963E-1,-9.60442E-1,-3.4266353E-1,-1.4521935E-3,4.6539964E-4,-2.6697984E-3,-1.3770479E-3,3E-3,-6.05719E-4,1.9096794E-3,6.7094003E-4,-3E-3,-1.9973686E-3,-7.3437486E-4,-2.4073601E-3],"categories":[],"categories_nodes":[],"categories_segments":[],"categories_sizes":[],"default_left":[0,0,0,0,0,0,0,0,0,0,0,0,0,0,0,0,0,0,0,0,0,0,0,0,0],"id":1,"left_children":[1,3,5,7,-1,9,11,13,15,17,19,21,23,-1,-1,-1,-1,-1,-1,-1,-1,-1,-1,-1,-1],"loss_changes":[2.0597629E2,4.027614E1,2.23977E2,1.2907944E1,0E0,5.304393E1,3.1981628E1,1.3510595E1,8.733475E0,1.01183975E2,4.376367E1,3.363411E0,1.3995548E1,0E0,0E0,0E0,0E0,0E0,0E0,0E0,0E0,0E0,0E0,0E0,0E0],"parents":[2147483647,0,0,1,1,2,2,3,3,5,5,6,6,7,7,8,8,9,9,10,10,11,11,12,12],"right_children":[2,4,6,8,-1,10,12,14,16,18,20,22,24,-1,-1,-1,-1,-1,-1,-1,-1,-1,-1,-1,-1],"split_conditions":[1.1528E1,-3.748328E-5,8.622677E1,-4.5562613E-1,-3E-3,3.1744108E1,2.6815484E-4,1.2074392E-1,3.3134475E0,6.8564937E-3,7.043702E-1,-2.3323803E-1,-7.8643864E-4,-1.4521935E-3,4.6539964E-4,-2.6697984E-3,-1.3770479E-3,3E-3,-6.05719E-4,1.9096794E-3,6.7094003E-4,-3E-3,-1.9973686E-3,-7.3437486E-4,-2.4073601E-3],"split_indices":[69,73,69,76,0,69,73,28,69,53,51,32,37,0,0,0,0,0,0,0,0,0,0,0,0],"split_type":[0,0,0,0,0,0,0,0,0,0,0,0,0,0,0,0,0,0,0,0,0,0,0,0,0],"sum_hessian":[2.276903E3,4.1844858E2,1.8584545E3,3.4002524E2,7.842335E1,1.4315049E3,4.269497E2,1.2657959E2,2.1344565E2,4.0008707E2,1.0314177E3,1.1323198E2,3.137177E2,7.4193596E1,5.238599E1,7.836631E1,1.3507933E2,5.4252365E1,3.458347E2,5.130564E2,5.183614E2,6.2962025E1,5.026996E1,2.620825E2,5.163522E1],"tree_param":{"num_deleted":"0","num_feature":"81","num_nodes":"25","size_leaf_vector":"1"}},{"base_weights":[-1.9951591E-2,-6.5423626E-1,1.3985428E-1,-5.127215E-1,-9.510777E-1,3.423683E-1,-7.5046057E-3,-2.8266741E-3,-3.6104882E-1,-3E-3,-1.8234503E-3,7.770288E-2,1E0,7.1069074E-1,-2.9274237E-1,-3.005366E-4,-1.7212783E-3,-3.919281E-4,1.1396657E-3,3E-3,1.8480436E-3,3.0291892E-4,2.7229104E-3,-0E0,-1.588156E-3],"categories":[],"categories_nodes":[],"categories_segments":[],"categories_sizes":[],"default_left":[0,0,0,0,0,0,0,0,0,0,0,0,0,0,0,0,0,0,0,0,0,0,0,0,0],"id":2,"left_children":[1,3,5,7,9,11,13,-1,15,-1,-1,17,19,21,23,-1,-1,-1,-1,-1,-1,-1,-1,-1,-1],"loss_changes":[2.3228902E2,1.8415558E1,5.475314E1,2.0096893E1,6.4052734E0,1.379012E2,2.1734756E2,0E0,1.3080568E1,0E0,0E0,3.5641068E1,7.7985687E0,3.5636047E1,5.2657272E1,0E0,0E0,0E0,0E0,0E0,0E0,0E0,0E0,0E0,0E0],"parents":[2147483647,0,0,1,1,2,2,3,3,4,4,5,5,6,6,8,8,11,11,12,12,13,13,14,14],"right_children":[2,4,6,8,10,12,14,-1,16,-1,-1,18,20,22,24,-1,-1,-1,-1,-1,-1,-1,-1,-1,-1],"split_conditions":[1.3163383E1,2.2823147E-1,3.4210527E-1,2.3356247E0,1.0282884E0,5.4602352E1,5.9663197E1,-2.8266741E-3,9.1561127E-1,-3E-3,-1.8234503E-3,3.3353264E1,4.7346214E1,5.310419E1,8.583362E1,-3.005366E-4,-1.7212783E-3,-3.919281E-4,1.1396657E-3,3E-3,1.8480436E-3,3.0291892E-4,2.7229104E-3,-0E0,-1.588156E-3],"split_indices":[69,41,51,69,34,69,69,0,55,0,0,69,43,43,69,0,0,0,0,0,0,0,0,0,0],"split_type":[0,0,0,0,0,0,0,0,0,0,0,0,0,0,0,0,0,0,0,0,0,0,0,0,0],"sum_hessian":[2.2776882E3,4.577552E2,1.819933E3,3.1481207E2,1.4294312E2,7.668307E2,1.0531023E3,7.857739E1,2.3623468E2,8.5807884E1,5.713524E1,5.5366846E2,2.1316223E2,2.9801053E2,7.5509174E2,1.0848293E2,1.2775175E2,3.274114E2,2.2625703E2,1.4610225E2,6.705998E1,7.411741E1,2.2389311E2,3.3852817E2,4.165636E2],"tree_param":{"num_deleted":"0","num_feature":"81","num_nodes":"25","size_leaf_vector":"1"}},{"base_weights":[2.1330991E-3,-6.776121E-1,1.8059683E-1,-5.2534354E-1,-1E0,1.26092145E-2,3.759776E-1,-6.430581E-1,4.1179974E-5,-3E-3,-1.7467095E-3,6.7285025E-1,-4.0396845E-1,7.331548E-2,8.579399E-1,-2.9961874E-3,-1.3591613E-3,3E-3,1.5977873E-3,-6.3086965E-4,-3E-3,-1.9340611E-4,1.4849327E-3,2.0490738E-3,3E-3],"categories":[],"categories_nodes":[],"categories_segments":[],"categories_sizes":[],"default_left":[0,0,0,0,0,0,0,0,0,0,0,0,0,0,0,0,0,0,0,0,0,0,0,0,0],"id":3,"left_children":[1,3,5,7,9,11,13,15,-1,-1,-1,17,19,21,23,-1,-1,-1,-1,-1,-1,-1,-1,-1,-1],"loss_changes":[2.7716E2,2.6400223E1,5.9287067E1,2.2366234E1,6.85907E0,2.698079E2,1.2155978E2,1.8376984E1,0E0,0E0,0E0,2.7169342E1,8.547284E1,3.0677637E1,9.046097E0,0E0,0E0,0E0,0E0,0E0,0E0,0E0,0E0,0E0,0E0],"parents":[2147483647,0,0,1,1,2,2,3,3,4,4,5,5,6,6,7,7,11,11,12,12,13,13,14,14],"right_children":[2,4,6,8,10,12,14,16,-1,-1,-1,18,20,22,24,-1,-1,-1,-1,-1,-1,-1,-1,-1,-1],"split_conditions":[1.98834E-1,-1.20079436E-4,-2.235897E-2,1E0,1.3416009E-1,7.5E-1,3.5037595E-1,9.518828E-2,4.1179974E-5,-3E-3,-1.7467095E-3,5.0969267E-1,9.1884816E-1,1E0,4.8764628E-1,-2.9961874E-3,-1.3591613E-3,3E-3,1.5977873E-3,-6.3086965E-4,-3E-3,-1.9340611E-4,1.4849327E-3,2.0490738E-3,3E-3],"split_indices":[70,73,32,71,70,70,70,70,0,0,0,70,70,71,70,0,0,0,0,0,0,0,0,0,0],"split_type":[0,0,0,0,0,0,0,0,0,0,0,0,0,0,0,0,0,0,0,0,0,0,0,0,0],"sum_hessian":[2.2757017E3,4.7148416E2,1.8042175E3,3.4315756E2,1.2832658E2,9.726366E2,8.3158093E2,2.8209854E2,6.1059006E1,7.7172356E1,5.1154232E1,3.7626218E2,5.963744E2,5.128584E2,3.1872253E2,9.43464E1,1.8775217E2,5.879086E1,3.174713E2,4.7943192E2,1.1694249E2,3.869314E2,1.25926994E2,1.7410187E2,1.4462068E2],"tree_param":{"num_deleted":"0","num_feature":"81","num_nodes":"25","size_leaf_vector":"1"}},{"base_weights":[-4.0987814E-3,4.960393E-2,-1.832821E-1,-6.7997193E-1,2.0597681E-1,-8.885198E-1,1.0535832E-2,-7.176194E-4,-7.993283E-1,9.02673E-2,3.6801E-1,-1.9902338E-3,-3E-3,-1.2361618E-1,1.3354247E-3,-6.4254313E-4,-2.8726154E-3,1.2662824E-3,-1.4773437E-3,2.104596E-4,2.7772305E-3,3.9131846E-4,-2.328744E-3],"categories":[],"categories_nodes":[],"categories_segments":[],"categories_sizes":[],"default_left":[0,0,0,0,0,0,0,0,0,0,0,0,0,0,0,0,0,0,0,0,0,0,0],"id":4,"left_children":[1,3,5,7,9,11,13,-1,15,17,19,-1,-1,21,-1,-1,-1,-1,-1,-1,-1,-1,-1],"loss_changes":[2.2250282E1,2.009196E2,7.3379906E1,1.57330475E1,2.706808E1,2.99086E0,2.5071348E1,0E0,2.1753021E1,1.6518535E2,9.967102E1,0E0,0E0,5.410236E1,0E0,0E0,0E0,0E0,0E0,0E0,0E0,0E0,0E0],"parents":[2147483647,0,0,1,1,2,2,3,3,4,4,5,5,6,6,8,8,9,9,10,10,13,13],"right_children":[2,4,6,8,10,12,14,-1,16,18,20,-1,-1,22,-1,-1,-1,-1,-1,-1,-1,-1,-1],"split_conditions":[2.4657887E1,1.8162839E-1,1.9266917E-1,3.669017E-1,7.899751E-2,2.896502E-1,9.0037286E-1,-7.176194E-4,1.3001606E-1,8.163796E-1,3.5037595E-1,-1.9902338E-3,-3E-3,8.2546264E-1,1.3354247E-3,-6.4254313E-4,-2.8726154E-3,1.2662824E-3,-1.4773437E-3,2.104596E-4,2.7772305E-3,3.9131846E-4,-2.328744E-3],"split_indices":[75,70,70,0,53,56,55,0,51,70,70,0,0,70,0,0,0,0,0,0,0,0,0],"split_type":[0,0,0,0,0,0,0,0,0,0,0,0,0,0,0,0,0,0,0,0,0,0,0],"sum_hessian":[2.2776753E3,1.7514171E3,5.262582E2,3.0738455E2,1.4440326E3,1.124612E2,4.13797E2,6.767355E1,2.3971098E2,8.460557E2,5.979768E2,5.659617E1,5.586503E1,3.164098E2,9.738719E1,5.2692673E1,1.8701831E2,5.39976E2,3.060797E2,3.9185516E2,2.0612167E2,2.2835155E2,8.805825E1],"tree_param":{"num_deleted":"0","num_feature":"81","num_nodes":"23","size_leaf_vector":"1"}},{"base_weights":[-2.320991E-3,-6.3980263E-1,1.4342155E-1,-4.3048152E-1,-9.1430473E-1,3.2172298E-1,-2.4975461E-3,-2.304882E-3,-2.1362032E-1,-3E-3,-1.8296875E-3,-5.9881542E-2,7.7150226E-1,5.2720267E-1,-4.5060593E-1,-1.8810269E-3,-0E0,-1.4661526E-3,4.4485452E-4,1.3065998E-3,3E-3,1.955844E-3,-8.5574604E-5,-8.346159E-4,-3E-3],"categories":[],"categories_nodes":[],"categories_segments":[],"categories_sizes":[],"default_left":[0,0,0,0,0,0,0,0,0,0,0,0,0,0,0,0,0,0,0,0,0,0,0,0,0],"id":5,"left_children":[1,3,5,7,9,11,13,-1,15,-1,-1,17,19,21,23,-1,-1,-1,-1,-1,-1,-1,-1,-1,-1],"loss_changes":[2.152796E2,2.3938248E1,4.915943E1,1.7946774E1,9.51152E0,1.4616656E2,2.4644337E2,0E0,1.4157089E1,0E0,0E0,4.1862484E1,3.4416E1,3.3326843E1,6.6018845E1,0E0,0E0,0E0,0E0,0E0,0E0,0E0,0E0,0E0,0E0],"parents":[2147483647,0,0,1,1,2,2,3,3,4,4,5,5,6,6,8,8,11,11,12,12,13,13,14,14],"right_children":[2,4,6,8,10,12,14,-1,16,-1,-1,18,20,22,24,-1,-1,-1,-1,-1,-1,-1,-1,-1,-1],"split_conditions":[1.1528E1,3.603785E1,3.4398496E-1,3.0363743E0,5.901835E0,3.9792294E1,7.721901E1,-2.304882E-3,2.6165557E-1,-3E-3,-1.8296875E-3,1.8162839E-1,3.745547E-1,7.829282E-1,9.235642E-1,-1.8810269E-3,-0E0,-1.4661526E-3,4.4485452E-4,1.3065998E-3,3E-3,1.955844E-3,-8.5574604E-5,-8.346159E-4,-3E-3],"split_indices":[69,43,51,69,69,69,69,0,52,0,0,70,70,70,70,0,0,0,0,0,0,0,0,0,0],"split_type":[0,0,0,0,0,0,0,0,0,0,0,0,0,0,0,0,0,0,0,0,0,0,0,0,0],"sum_hessian":[2.30207E3,4.2774652E2,1.8743236E3,2.4663406E2,1.8111247E2,8.4401807E2,1.0303055E3,9.353696E1,1.530971E2,9.663241E1,8.4480064E1,4.56951E2,3.870671E2,4.7149347E2,5.588121E2,5.0961624E1,1.0213548E2,1.4923135E2,3.077196E2,1.7710097E2,2.0996614E2,3.8551056E2,8.598292E1,4.5379462E2,1.0501747E2],"tree_param":{"num_deleted":"0","num_feature":"81","num_nodes":"25","size_leaf_vector":"1"}},{"base_weights":[-1.5797782E-3,-3.9597385E-2,1.743706E-1,-6.263631E-1,1.6104536E-1,-2.0809432E-3,3.289959E-1,-1E0,-4.8179007E-1,4.0045846E-1,-4.001386E-1,6.436119E-1,-1.9477214E-1,-1.9518642E-3,-3E-3,-1.7812675E-4,-1.8445484E-3,2.153962E-4,1.7493321E-3,-8.2119316E-4,-3E-3,9.672723E-4,2.7614906E-3,-1.7558013E-3,3.6190002E-4],"categories":[],"categories_nodes":[],"categories_segments":[],"categories_sizes":[],"default_left":[0,0,0,0,0,0,0,0,0,0,0,0,0,0,0,0,0,0,0,0,0,0,0,0,0],"id":6,"left_children":[1,3,5,7,9,-1,11,13,15,17,19,21,23,-1,-1,-1,-1,-1,-1,-1,-1,-1,-1,-1,-1],"loss_changes":[1.54304E1,2.2267291E2,5.5302994E1,2.7887451E1,1.8944708E2,0E0,5.7750984E1,4.000229E0,2.0106155E1,5.8973236E1,3.8290146E1,1.8617935E1,1.6922184E1,0E0,0E0,0E0,0E0,0E0,0E0,0E0,0E0,0E0,0E0,0E0,0E0],"parents":[2147483647,0,0,1,1,2,2,3,3,4,4,6,6,7,7,8,8,9,9,10,10,11,11,12,12],"right_children":[2,4,6,8,10,-1,12,14,16,18,20,22,24,-1,-1,-1,-1,-1,-1,-1,-1,-1,-1,-1,-1],"split_conditions":[1.48783E5,2.2248381E-1,1.754386E-1,7.900789E-2,7.829282E-1,-2.0809432E-3,7.5E-1,1.5913922E-5,6.6124095E-4,3.5037595E-1,9.4809014E-1,3.745547E-1,3.2443255E-1,-1.9518642E-3,-3E-3,-1.7812675E-4,-1.8445484E-3,2.153962E-4,1.7493321E-3,-8.2119316E-4,-3E-3,9.672723E-4,2.7614906E-3,-1.7558013E-3,3.6190002E-4],"split_indices":[15,70,70,70,70,0,70,80,36,70,70,70,17,0,0,0,0,0,0,0,0,0,0,0,0],"split_type":[0,0,0,0,0,0,0,0,0,0,0,0,0,0,0,0,0,0,0,0,0,0,0,0,0],"sum_hessian":[2.2810178E3,1.8793403E3,4.0167752E2,4.78436E2,1.4009043E3,5.9191162E1,3.4248636E2,1.1884179E2,3.595942E2,9.8299945E2,4.1790485E2,2.1427379E2,1.2821257E2,5.0017967E1,6.882382E1,8.773095E1,2.7186325E2,3.531229E2,6.298765E2,3.6107983E2,5.6825005E1,1.0204078E2,1.12233E2,5.723077E1,7.0981804E1],"tree_param":{"num_deleted":"0","num_feature":"81","num_nodes":"25","size_leaf_vector":"1"}},{"base_weights":[-3.8287856E-2,-6.03108E-1,9.5196374E-2,-4.2405248E-1,-3E-3,2.4952973E-1,-3.0663488E-2,-1.41929E-1,-5.4304016E-1,3.3317494E-1,3.6248032E-2,1.563056E-1,-1.13541864E-1,-1.1869298E-3,3.619815E-4,-1.3317023E-3,-2.6793103E-3,1.5152669E-4,2.6846412E-3,-7.109359E-4,1.6881163E-3,2.2123035E-3,-6.418707E-4,1.8356788E-3,-1.2816753E-3],"categories":[],"categories_nodes":[],"categories_segments":[],"categories_sizes":[],"default_left":[0,0,0,0,0,0,0,0,0,0,0,0,0,0,0,0,0,0,0,0,0,0,0,0,0],"id":7,"left_children":[1,3,5,7,-1,9,11,13,15,17,19,21,23,-1,-1,-1,-1,-1,-1,-1,-1,-1,-1,-1,-1],"loss_changes":[1.75482E2,4.696054E1,3.66833E1,1.180381E1,0E0,1.4952698E1,1.6236012E1,7.9588437E0,8.019318E0,9.5901535E1,3.5922867E1,6.9317116E1,1.646639E2,0E0,0E0,0E0,0E0,0E0,0E0,0E0,0E0,0E0,0E0,0E0,0E0],"parents":[2147483647,0,0,1,1,2,2,3,3,5,5,6,6,7,7,8,8,9,9,10,10,11,11,12,12],"right_children":[2,4,6,8,-1,10,12,14,16,18,20,22,24,-1,-1,-1,-1,-1,-1,-1,-1,-1,-1,-1,-1],"split_conditions":[1.1528E1,-4.8543374E-5,5.110105E1,-1.2473488E0,-3E-3,3.377819E-2,-2.7223915E-1,2.012626E-1,8.261026E-1,4.8665558E1,4.6899696E1,7.335462E1,6.2649727E1,-1.1869298E-3,3.619815E-4,-1.3317023E-3,-2.6793103E-3,1.5152669E-4,2.6846412E-3,-7.109359E-4,1.6881163E-3,2.2123035E-3,-6.418707E-4,1.8356788E-3,-1.2816753E-3],"split_indices":[69,73,43,76,0,8,5,29,79,69,69,69,69,0,0,0,0,0,0,0,0,0,0,0,0],"split_type":[0,0,0,0,0,0,0,0,0,0,0,0,0,0,0,0,0,0,0,0,0,0,0,0,0],"sum_hessian":[2.311869E3,4.4129578E2,1.8705731E3,3.5664764E2,8.464814E1,8.4114355E2,1.0294294E3,1.0834529E2,2.4830235E2,6.016994E2,2.3944418E2,3.1377203E2,7.156575E2,5.555689E1,5.2788403E1,1.9814993E2,5.0152428E1,4.0231372E2,1.9938565E2,1.5773244E2,8.171174E1,1.21867485E2,1.9190456E2,2.149836E2,5.0067386E2],"tree_param":{"num_deleted":"0","num_feature":"81","num_nodes":"25","size_leaf_vector":"1"}},{"base_weights":[2.3861572E-2,-4.385949E-1,1.9517075E-1,-2.5450405E-1,-6.364909E-1,4.9563193E-1,-1.1510461E-2,-1.4858796E-1,-2.1989373E-3,-1.6798424E-4,-7.849489E-1,3.5437632E-1,7.3600954E-1,-1.984626E-1,2.6250532E-1,6.061737E-4,-7.6039304E-4,-1.8494609E-3,-3E-3,-7.216955E-4,1.8620252E-3,3E-3,1.3970357E-3,1.1541491E-3,-1.7866684E-3,3E-3,-1.6317936E-4],"categories":[],"categories_nodes":[],"categories_segments":[],"categories_sizes":[],"default_left":[0,0,0,0,0,0,0,0,0,0,0,0,0,0,0,0,0,0,0,0,0,0,0,0,0,0,0],"id":8,"left_children":[1,3,5,7,9,11,13,15,-1,-1,17,19,21,23,25,-1,-1,-1,-1,-1,-1,-1,-1,-1,-1,-1,-1],"loss_changes":[1.824771E2,2.227649E1,1.046963E2,1.6486334E1,2.5225815E1,2.276683E1,5.1463844E1,1.0372534E1,0E0,0E0,8.976685E0,7.011211E1,2.5965393E1,1.3875027E2,1.03628876E2,0E0,0E0,0E0,0E0,0E0,0E0,0E0,0E0,0E0,0E0,0E0,0E0],"parents":[2147483647,0,0,1,1,2,2,3,3,4,4,5,5,6,6,7,7,10,10,11,11,12,12,13,13,14,14],"right_children":[2,4,6,8,10,12,14,16,-1,-1,18,20,22,24,26,-1,-1,-1,-1,-1,-1,-1,-1,-1,-1,-1,-1],"split_conditions":[1.9042368E1,3.603785E1,7.015192E-1,-4.4568954E-4,8.9573756E-2,1E0,1.0451297E-3,2.4355835E-1,-2.1989373E-3,-1.6798424E-4,-7.6791E-4,3.3718803E1,-1.7380799E-4,7.335462E1,6.11183E1,6.061737E-4,-7.6039304E-4,-1.8494609E-3,-3E-3,-7.216955E-4,1.8620252E-3,3E-3,1.3970357E-3,1.1541491E-3,-1.7866684E-3,3E-3,-1.6317936E-4],"split_indices":[69,43,51,73,55,71,73,30,0,0,38,69,38,69,69,0,0,0,0,0,0,0,0,0,0,0,0],"split_type":[0,0,0,0,0,0,0,0,0,0,0,0,0,0,0,0,0,0,0,0,0,0,0,0,0,0,0],"sum_hessian":[2.2930107E3,6.1817676E2,1.6748339E3,3.2393655E2,2.942402E2,6.824095E2,9.924244E2,2.6822733E2,5.57092E1,6.11715E1,2.3306871E2,4.3425323E2,2.4815625E2,5.91345E2,4.0107944E2,6.0230537E1,2.079968E2,1.4768732E2,8.538139E1,1.3375197E2,3.0050128E2,9.019317E1,1.5796307E2,2.3906006E2,3.5228488E2,1.1248106E2,2.885984E2],"tree_param":{"num_deleted":"0","num_feature":"81","num_nodes":"27","size_leaf_vector":"1"}},{"base_weights":[2.1880932E-2,-5.377281E-1,2.0486312E-1,-2.5926137E-1,-8.840718E-1,5.0038475E-1,-2.6848158E-1,-2.4200063E-3,-6.4543955E-2,-1E0,-1.0723346E-3,1.3624014E-1,7.1042377E-1,-1.4541759E-1,-3E-3,2.3682429E-4,-1.1476934E-3,-3E-3,-2.139091E-3,-2.8255725E-5,1.5773546E-3,2.400687E-3,1.1766423E-3,2.69723E-4,-1.045737E-3],"categories":[],"categories_nodes":[],"categories_segments":[],"categories_sizes":[],"default_left":[0,0,0,0,0,0,0,0,0,0,0,0,0,0,0,0,0,0,0,0,0,0,0,0,0],"id":9,"left_children":[1,3,5,7,9,11,13,-1,15,17,-1,19,21,23,-1,-1,-1,-1,-1,-1,-1,-1,-1,-1,-1],"loss_changes":[2.3678261E2,5.43376E1,2.4420555E2,3.400771E1,2.7719925E1,8.171649E1,6.8799805E1,0E0,1.1455176E1,4.79982E0,0E0,2.3106085E1,1.864685E1,2.8565514E1,0E0,0E0,0E0,0E0,0E0,0E0,0E0,0E0,0E0,0E0,0E0],"parents":[2147483647,0,0,1,1,2,2,3,3,4,4,5,5,6,6,8,8,9,9,11,11,12,12,13,13],"right_children":[2,4,6,8,10,12,14,-1,16,18,-1,20,22,24,-1,-1,-1,-1,-1,-1,-1,-1,-1,-1,-1],"split_conditions":[2.2248381E-1,1.9976498E-1,7.4765843E-1,7.900789E-2,1.8401487E-1,3.4032732E-1,9.4809014E-1,-2.4200063E-3,1.2344895E1,8.977157E0,-1.0723346E-3,1E0,6.9890326E-1,8.622677E1,-3E-3,2.3682429E-4,-1.1476934E-3,-3E-3,-2.139091E-3,-2.8255725E-5,1.5773546E-3,2.400687E-3,1.1766423E-3,2.69723E-4,-1.045737E-3],"split_indices":[70,51,70,70,70,70,70,0,33,69,0,71,70,69,0,0,0,0,0,0,0,0,0,0,0],"split_type":[0,0,0,0,0,0,0,0,0,0,0,0,0,0,0,0,0,0,0,0,0,0,0,0,0],"sum_hessian":[2.3028E3,5.658051E2,1.736995E3,3.163748E2,2.4943033E2,1.0699431E3,6.670518E2,8.068694E1,2.3568785E2,1.6998811E2,7.944223E1,3.934671E2,6.764761E2,5.85346E2,8.1705795E1,1.6236354E2,7.332432E1,8.593298E1,8.405512E1,2.8686902E2,1.06598076E2,5.2399365E2,1.5248239E2,2.7058118E2,3.1476486E2],"tree_param":{"num_deleted":"0","num_feature":"81","num_nodes":"25","size_leaf_vector":"1"}},{"base_weights":[9.830314E-3,-5.629301E-1,1.992795E-1,-8.8240683E-1,-3.216263E-1,4.9747163E-1,-3.201706E-1,-7.57666E-4,-1E0,-1.4020792E-1,-6.5300554E-1,1.709874E-1,7.076757E-1,-1.6890073E-1,-9.836143E-1,-3E-3,-2.0305254E-3,-8.1331196E-4,4.3399193E-4,-2.655274E-3,-1.1346593E-3,-1.5135082E-5,1.9691095E-3,2.5909003E-3,1.0471337E-3,1.3283364E-3,-7.353932E-4,-3E-3,-2.068612E-3],"categories":[],"categories_nodes":[],"categories_segments":[],"categories_sizes":[],"default_left":[0,0,0,0,0,0,0,0,0,0,0,0,0,0,0,0,0,0,0,0,0,0,0,0,0,0,0,0,0],"id":10,"left_children":[1,3,5,7,9,11,13,-1,15,17,19,21,23,25,27,-1,-1,-1,-1,-1,-1,-1,-1,-1,-1,-1,-1,-1,-1],"loss_changes":[2.4859949E2,4.3220016E1,2.6717258E2,3.4781372E1,1.957093E1,7.471002E1,6.287303E1,0E0,6.771881E0,8.436297E0,6.597515E0,3.7705006E1,3.639676E1,2.4595337E1,3.1741562E0,0E0,0E0,0E0,0E0,0E0,0E0,0E0,0E0,0E0,0E0,0E0,0E0,0E0,0E0],"parents":[2147483647,0,0,1,1,2,2,3,3,4,4,5,5,6,6,8,8,9,9,10,10,11,11,12,12,13,13,14,14],"right_children":[2,4,6,8,10,12,14,-1,16,18,20,22,24,26,28,-1,-1,-1,-1,-1,-1,-1,-1,-1,-1,-1,-1,-1,-1],"split_conditions":[2.2535211E-1,1.2337662E-1,7.5449103E-1,1.18910745E-1,2.2096318E-1,3.5037595E-1,9.285487E-1,-7.57666E-4,7.2570276E0,3.253012E-1,1.8401487E-1,1E0,6.791745E-1,3.3238444E-5,8.48087E-1,-3E-3,-2.0305254E-3,-8.1331196E-4,4.3399193E-4,-2.655274E-3,-1.1346593E-3,-1.5135082E-5,1.9691095E-3,2.5909003E-3,1.0471337E-3,1.3283364E-3,-7.353932E-4,-3E-3,-2.068612E-3],"split_indices":[70,70,70,51,51,70,70,0,69,61,70,71,70,58,51,0,0,0,0,0,0,0,0,0,0,0,0,0,0],"split_type":[0,0,0,0,0,0,0,0,0,0,0,0,0,0,0,0,0,0,0,0,0,0,0,0,0,0,0,0,0],"sum_hessian":[2.2817239E3,5.6549243E2,1.7162313E3,2.4015326E2,3.2533917E2,1.0909912E3,6.252401E2,7.095807E1,1.6919519E2,2.1305446E2,1.1228471E2,4.2965942E2,6.6133185E2,5.1180725E2,1.1343287E2,8.410384E1,8.509135E1,1.4724744E2,6.580703E1,5.7477345E1,5.480737E1,3.160041E2,1.1365532E2,4.5796597E2,2.0336588E2,5.4923084E1,4.5688416E2,5.8379402E1,5.5053463E1],"tree_param":{"num_deleted":"0","num_feature":"81","num_nodes":"29","size_leaf_vector":"1"}},{"base_weights":[-2.0978808E-2,-6.484578E-1,1.2298594E-1,-1E0,-4.6874627E-1,3.0661437E-1,-5.952863E-1,-1.6062064E-3,-3E-3,-7.027056E-1,-1.9013175E-1,-1.3814457E-1,3.9888662E-1,-8.4054846E-1,-2.6619387E-1,-2.8841097E-3,-1.4208658E-3,5.884945E-4,-1.4323837E-3,-1.3016608E-3,9.234099E-5,1.3863794E-3,1.8505321E-5,-1.8279027E-3,-3E-3,4.928139E-4,-1.9076486E-3],"categories":[],"categories_nodes":[],"categories_segments":[],"categories_sizes":[],"default_left":[0,0,0,0,0,0,0,0,0,0,0,0,0,0,0,0,0,0,0,0,0,0,0,0,0,0,0],"id":11,"left_children":[1,3,5,7,9,11,13,-1,-1,15,17,19,21,23,25,-1,-1,-1,-1,-1,-1,-1,-1,-1,-1,-1,-1],"loss_changes":[2.0896594E2,2.7263779E1,2.479102E2,9.99559E0,1.8790817E1,6.1731827E1,3.028453E1,0E0,0E0,8.430405E0,1.6053608E1,1.33959255E1,3.0568634E1,1.1953491E1,2.7492561E1,0E0,0E0,0E0,0E0,0E0,0E0,0E0,0E0,0E0,0E0,0E0,0E0],"parents":[2147483647,0,0,1,1,2,2,3,3,4,4,5,5,6,6,9,9,10,10,11,11,12,12,13,13,14,14],"right_children":[2,4,6,8,10,12,14,-1,-1,16,18,20,22,24,26,-1,-1,-1,-1,-1,-1,-1,-1,-1,-1,-1,-1],"split_conditions":[1.7958412E-1,7.900789E-2,8.2546264E-1,3.3721256E1,9.818981E0,1.9042368E1,-2.4737762E-1,-1.6062064E-3,-3E-3,2.7467175E1,2.4164195E-1,5.901835E0,8.472152E1,-5.6963987E0,8.97848E1,-2.8841097E-3,-1.4208658E-3,5.884945E-4,-1.4323837E-3,-1.3016608E-3,9.234099E-5,1.3863794E-3,1.8505321E-5,-1.8279027E-3,-3E-3,4.928139E-4,-1.9076486E-3],"split_indices":[70,70,70,43,69,69,53,0,0,44,53,69,69,65,69,0,0,0,0,0,0,0,0,0,0,0,0],"split_type":[0,0,0,0,0,0,0,0,0,0,0,0,0,0,0,0,0,0,0,0,0,0,0,0,0,0,0],"sum_hessian":[2.2982554E3,4.282344E2,1.870021E3,1.3752097E2,2.9071344E2,1.490749E3,3.79272E2,5.572577E1,8.179519E1,1.5538991E2,1.3532355E2,2.5503743E2,1.2357115E3,2.1466293E2,1.6460909E2,6.8955124E1,8.643478E1,5.7249527E1,7.807402E1,9.265178E1,1.6238565E2,1.0629216E3,1.7278996E2,1.2701331E2,8.764962E1,7.594162E1,8.866746E1],"tree_param":{"num_deleted":"0","num_feature":"81","num_nodes":"27","size_leaf_vector":"1"}},{"base_weights":[-6.068258E-3,-2.4796875E-2,1.5027203E-3,-1.7603248E-1,1.3380661E-2,-2.312051E-3,-1.8416462E-2,-5.200877E-1,1.717104E-1,6.8045064E-4,-1.4086664E-3,-2.5729118E-3,-7.50746E-4,1.266063E-3,-1.3295406E-3],"categories":[],"categories_nodes":[],"categories_segments":[],"categories_sizes":[],"default_left":[0,0,0,0,0,0,0,0,0,0,0,0,0,0,0],"id":12,"left_children":[1,3,-1,5,7,-1,9,11,13,-1,-1,-1,-1,-1,-1],"loss_changes":[2.198889E1,1.2982369E1,0E0,4.2107536E1,1.4932687E2,0E0,4.042471E1,3.627012E1,2.1027278E2,0E0,0E0,0E0,0E0,0E0,0E0],"parents":[2147483647,0,0,1,1,3,3,4,4,6,6,7,7,8,8],"right_children":[2,4,-1,6,8,-1,10,12,14,-1,-1,-1,-1,-1,-1],"split_conditions":[4.0212716E-3,1.016E3,1.5027203E-3,1.7761557E-1,1.5371943E1,-2.312051E-3,7.4765843E-1,1.368804E-1,7.802703E-1,6.8045064E-4,-1.4086664E-3,-2.5729118E-3,-7.50746E-4,1.266063E-3,-1.3295406E-3],"split_indices":[73,12,0,70,69,0,70,70,70,0,0,0,0,0,0],"split_type":[0,0,0,0,0,0,0,0,0,0,0,0,0,0,0],"sum_hessian":[2.281581E3,2.2030833E3,7.849764E1,4.452309E2,1.7578524E3,9.099079E1,3.5424008E2,4.0054578E2,1.3573066E3,2.2941774E2,1.24822365E2,1.7518817E2,2.253576E2,9.6564923E2,3.916574E2],"tree_param":{"num_deleted":"0","num_feature":"81","num_nodes":"15","size_leaf_vector":"1"}},{"base_weights":[-1.2235519E-2,-8.523976E-1,1.1225283E-1,-4.976871E-4,-1E0,2.876744E-1,-3.6891904E-1,-3E-3,-1.8369284E-3,-2.2146869E-1,4.340655E-1,-4.4901022E-1,1.1415222E-3,1.12150745E-4,-1.1563619E-3,4.6825322E-4,1.7406539E-3,-6.877324E-4,-3E-3],"categories":[],"categories_nodes":[],"categories_segments":[],"categories_sizes":[],"default_left":[0,0,0,0,0,0,0,0,0,0,0,0,0,0,0,0,0,0,0],"id":13,"left_children":[1,3,5,-1,7,9,11,-1,-1,13,15,17,-1,-1,-1,-1,-1,-1,-1],"loss_changes":[2.4168777E2,4.670874E1,1.6963614E2,0E0,1.254892E1,1.1011607E2,3.2935562E1,0E0,0E0,1.4347956E1,4.6148193E1,7.546627E1,0E0,0E0,0E0,0E0,0E0,0E0,0E0],"parents":[2147483647,0,0,1,1,2,2,4,4,5,5,6,6,9,9,10,10,11,11],"right_children":[2,4,6,-1,8,10,12,-1,-1,14,16,18,-1,-1,-1,-1,-1,-1,-1],"split_conditions":[1.4040174E-1,1.15602836E-1,8.135571E1,-4.976871E-4,8.088466E0,1.8298729E1,1.7021474E-1,-3E-3,-1.8369284E-3,1.0100216E-1,3.5037595E-1,9.235642E-1,1.1415222E-3,1.12150745E-4,-1.1563619E-3,4.6825322E-4,1.7406539E-3,-6.877324E-4,-3E-3],"split_indices":[70,51,69,0,69,69,55,0,0,59,70,70,0,0,0,0,0,0,0],"split_type":[0,0,0,0,0,0,0,0,0,0,0,0,0,0,0,0,0,0,0],"sum_hessian":[2.2943286E3,2.9509277E2,1.999236E3,7.8301056E1,2.1679172E2,1.4664525E3,5.3278345E2,1.1941581E2,9.73759E1,3.2649008E2,1.1399624E3,4.8266946E2,5.0113964E1,1.2603604E2,2.0045404E2,3.9542447E2,7.445379E2,3.7645502E2,1.0621443E2],"tree_param":{"num_deleted":"0","num_feature":"81","num_nodes":"19","size_leaf_vector":"1"}},{"base_weights":[-8.769753E-3,-6.6840464E-1,1.4240839E-1,-3.373381E-1,-9.612605E-1,3.1860045E-1,-4.6552905E-1,-1.812486E-3,-1.9042198E-1,-1.5636364E-3,-1E0,-2.3975283E-4,3.390703E-1,-2.5074226E-3,-3.506492E-1,-1.4674391E-3,2.2778506E-4,-3E-3,-1.8711573E-3,-5.522155E-4,1.2297446E-3,-1.953911E-3,-6.6695374E-4],"categories":[],"categories_nodes":[],"categories_segments":[],"categories_sizes":[],"default_left":[0,0,0,0,0,0,0,0,0,0,0,0,0,0,0,0,0,0,0,0,0,0,0],"id":14,"left_children":[1,3,5,7,9,11,13,-1,15,-1,17,-1,19,-1,21,-1,-1,-1,-1,-1,-1,-1,-1],"loss_changes":[2.2996843E2,4.088684E1,2.008357E2,7.8682365E0,1.0339203E1,1.2106461E1,1.7392998E1,0E0,1.1505991E1,0E0,5.002243E0,0E0,5.1664383E1,0E0,1.2327221E1,0E0,0E0,0E0,0E0,0E0,0E0,0E0,0E0],"parents":[2147483647,0,0,1,1,2,2,3,3,4,4,5,5,6,6,8,8,10,10,12,12,14,14],"right_children":[2,4,6,8,10,12,14,-1,16,-1,18,-1,20,-1,22,-1,-1,-1,-1,-1,-1,-1,-1],"split_conditions":[1.8401487E-1,1.7014389E-1,8.6621185E1,4.28129E-1,2.050346E-1,-9.8768836E-1,-1.036422E-1,-1.812486E-3,6.9899073E0,-1.5636364E-3,1.4570989E1,-2.3975283E-4,1.3163383E1,-2.5074226E-3,1.1271299E1,-1.4674391E-3,2.2778506E-4,-3E-3,-1.8711573E-3,-5.522155E-4,1.2297446E-3,-1.953911E-3,-6.6695374E-4],"split_indices":[70,51,69,66,53,62,31,0,69,0,69,0,69,0,33,0,0,0,0,0,0,0,0],"split_type":[0,0,0,0,0,0,0,0,0,0,0,0,0,0,0,0,0,0,0,0,0,0,0],"sum_hessian":[2.2914978E3,4.265964E2,1.8649014E3,2.0305675E2,2.2353964E2,1.447238E3,4.1766333E2,6.868521E1,1.3437154E2,5.52233E1,1.6831635E2,6.922833E1,1.3780096E3,9.489531E1,3.2276804E2,6.343287E1,7.093867E1,1.1820361E2,5.0112724E1,1.6313171E2,1.2148779E3,9.295251E1,2.2981552E2],"tree_param":{"num_deleted":"0","num_feature":"81","num_nodes":"23","size_leaf_vector":"1"}},{"base_weights":[1.3402054E-2,-5.360235E-1,1.8976048E-1,-2.6465714E-1,-8.3827627E-1,4.757383E-1,-4.4676012E-1,-5.02209E-1,5.5686392E-2,-5.173224E-4,-1E0,2.2294937E-1,6.161566E-1,-2.502144E-1,-1E0,-7.615735E-4,-2.610217E-3,1.0914754E-3,-6.122004E-4,-3E-3,-1.9823734E-3,4.7236402E-4,2.0384553E-3,2.4150712E-3,7.2466297E-4,-1.0371598E-3,1.0680248E-3,-3E-3,-1.5752771E-3],"categories":[],"categories_nodes":[],"categories_segments":[],"categories_sizes":[],"default_left":[0,0,0,0,0,0,0,0,0,0,0,0,0,0,0,0,0,0,0,0,0,0,0,0,0,0,0,0,0],"id":15,"left_children":[1,3,5,7,9,11,13,15,17,-1,19,21,23,25,27,-1,-1,-1,-1,-1,-1,-1,-1,-1,-1,-1,-1,-1,-1],"loss_changes":[2.2467136E2,4.561769E1,3.2002365E2,2.3371733E1,2.9348373E1,4.2624176E1,6.735406E1,1.5434887E1,1.1023747E1,0E0,9.945221E0,1.3034868E1,5.439029E1,2.498767E1,1.0487076E1,0E0,0E0,0E0,0E0,0E0,0E0,0E0,0E0,0E0,0E0,0E0,0E0,0E0,0E0],"parents":[2147483647,0,0,1,1,2,2,3,3,4,4,5,5,6,6,7,7,8,8,10,10,11,11,12,12,13,13,14,14],"right_children":[2,4,6,8,10,12,14,16,18,-1,20,22,24,26,28,-1,-1,-1,-1,-1,-1,-1,-1,-1,-1,-1,-1,-1,-1],"split_conditions":[2.2248381E-1,1.9188192E-1,7.802703E-1,1.3416009E-1,1.1813346E-1,3.5037595E-1,9.235642E-1,1.3300492E-1,6.3262E-2,-5.173224E-4,1.521911E-1,4.020057E-1,7.0240295E-1,-9.452172E-4,-2.3607132E-1,-7.615735E-4,-2.610217E-3,1.0914754E-3,-6.122004E-4,-3E-3,-1.9823734E-3,4.7236402E-4,2.0384553E-3,2.4150712E-3,7.2466297E-4,-1.0371598E-3,1.0680248E-3,-3E-3,-1.5752771E-3],"split_indices":[70,51,70,70,32,70,70,51,56,0,70,41,70,55,53,0,0,0,0,0,0,0,0,0,0,0,0,0,0],"split_type":[0,0,0,0,0,0,0,0,0,0,0,0,0,0,0,0,0,0,0,0,0,0,0,0,0,0,0,0,0],"sum_hessian":[2.3090251E3,5.5939056E2,1.7496345E3,2.9760367E2,2.6178687E2,1.2081322E3,5.415024E2,1.7112827E2,1.2647541E2,5.4820057E1,2.0696681E2,4.345561E2,7.7357605E2,4.1762253E2,1.2387986E2,1.049882E2,6.614007E1,5.8363655E1,6.8111755E1,1.0220383E2,1.04762985E2,3.8334616E2,5.1209923E1,5.1186896E2,2.6170712E2,3.622389E2,5.5383633E1,6.840818E1,5.547168E1],"tree_param":{"num_deleted":"0","num_feature":"81","num_nodes":"29","size_leaf_vector":"1"}},{"base_weights":[-1.028952E-2,-5.8615726E-1,1.3753746E-1,-1E0,-3.637361E-1,3.4514886E-1,-5.089877E-1,-1.4724798E-3,-3E-3,-1.5561187E-1,-5.0009185E-1,-1.5094584E-1,4.3919176E-1,-2.7153048E-1,-1E0,-1.0185799E-3,3.4592184E-4,-2.592488E-3,-8.2763215E-4,3.8727937E-4,-1.7946674E-3,1.7837901E-3,3.5738543E-4,-1.7649304E-3,-1.2348425E-4,-3E-3,-1.2661665E-3],"categories":[],"categories_nodes":[],"categories_segments":[],"categories_sizes":[],"default_left":[0,0,0,0,0,0,0,0,0,0,0,0,0,0,0,0,0,0,0,0,0,0,0,0,0,0,0],"id":16,"left_children":[1,3,5,7,9,11,13,-1,-1,15,17,19,21,23,25,-1,-1,-1,-1,-1,-1,-1,-1,-1,-1,-1,-1],"loss_changes":[1.9329828E2,4.934169E1,2.4225638E2,1.1343903E1,8.972904E0,6.408154E1,5.3485497E1,0E0,0E0,7.075673E0,1.5327259E1,2.823886E1,5.6808136E1,2.215059E1,1.5648819E1,0E0,0E0,0E0,0E0,0E0,0E0,0E0,0E0,0E0,0E0,0E0,0E0],"parents":[2147483647,0,0,1,1,2,2,3,3,4,4,5,5,6,6,9,9,10,10,11,11,12,12,13,13,14,14],"right_children":[2,4,6,8,10,12,14,-1,-1,16,18,20,22,24,26,-1,-1,-1,-1,-1,-1,-1,-1,-1,-1,-1,-1],"split_conditions":[1.3163383E1,9.518828E-2,8.138138E-1,1.3905326E-1,1.9188192E-1,2.2535211E-1,9.1884816E-1,-1.4724798E-3,-3E-3,4.080994E-1,1.98834E-1,2.1594068E-1,6.8966943E-1,8.1928396E-1,-1.9754902E-1,-1.0185799E-3,3.4592184E-4,-2.592488E-3,-8.2763215E-4,3.8727937E-4,-1.7946674E-3,1.7837901E-3,3.5738543E-4,-1.7649304E-3,-1.2348425E-4,-3E-3,-1.2661665E-3],"split_indices":[69,70,70,51,51,70,70,0,0,20,70,51,70,51,53,0,0,0,0,0,0,0,0,0,0,0,0],"split_type":[0,0,0,0,0,0,0,0,0,0,0,0,0,0,0,0,0,0,0,0,0,0,0,0,0,0,0],"sum_hessian":[2.255748E3,4.6025452E2,1.7954935E3,1.39324E2,3.209305E2,1.3603615E3,4.3513202E2,5.143361E1,8.789039E1,1.3018074E2,1.9074979E2,2.1574379E2,1.1446177E3,3.0160318E2,1.3352884E2,7.833901E1,5.184173E1,6.9675316E1,1.2107446E2,1.3286327E2,8.288052E1,7.682975E2,3.7632016E2,1.24763435E2,1.7683974E2,8.096091E1,5.256794E1],"tree_param":{"num_deleted":"0","num_feature":"81","num_nodes":"27","size_leaf_vector":"1"}},{"base_weights":[1.0110889E-2,-6.243038E-1,1.61499E-1,-2.9239094E-1,-1E0,3.2561502E-1,-5.5715495E-1,-1.9771382E-3,-1.6153163E-1,-3E-3,-1.966759E-3,2.954396E-1,2.7081065E-3,-8.616943E-1,-2.3502031E-1,-2.031198E-3,1.2314784E-4,-7.775187E-5,1.1741391E-3,-3E-3,-8.894073E-4,6.803379E-5,-2.1976358E-3],"categories":[],"categories_nodes":[],"categories_segments":[],"categories_sizes":[],"default_left":[0,0,0,0,0,0,0,0,0,0,0,0,0,0,0,0,0,0,0,0,0,0,0],"id":17,"left_children":[1,3,5,7,9,11,13,-1,15,-1,-1,17,-1,19,21,-1,-1,-1,-1,-1,-1,-1,-1],"loss_changes":[2.1845892E2,6.3731873E1,2.170797E2,1.2139179E1,4.1736145E0,2.5748016E1,3.3021797E1,0E0,2.093735E1,0E0,0E0,4.4200554E1,0E0,2.0152664E1,2.2598469E1,0E0,0E0,0E0,0E0,0E0,0E0,0E0,0E0],"parents":[2147483647,0,0,1,1,2,2,3,3,4,4,5,5,6,6,8,8,11,11,13,13,14,14],"right_children":[2,4,6,8,10,12,14,-1,16,-1,-1,18,-1,20,22,-1,-1,-1,-1,-1,-1,-1,-1],"split_conditions":[1.8401487E-1,1.9188192E-1,8.406994E-1,-3.223404E-5,4.502917E1,3.6361753E-3,8.4396124E-1,-1.9771382E-3,7.489879E-2,-3E-3,-1.966759E-3,2.7843988E-1,2.7081065E-3,-1.6657461E-1,9.235642E-1,-2.031198E-3,1.2314784E-4,-7.775187E-5,1.1741391E-3,-3E-3,-8.894073E-4,6.803379E-5,-2.1976358E-3],"split_indices":[70,51,70,25,43,73,51,0,70,0,0,70,0,32,70,0,0,0,0,0,0,0,0],"split_type":[0,0,0,0,0,0,0,0,0,0,0,0,0,0,0,0,0,0,0,0,0,0,0],"sum_hessian":[2.2648323E3,4.3448923E2,1.8303431E3,2.5298405E2,1.8150516E2,1.4915204E3,3.3882278E2,6.3413128E1,1.8957092E2,1.2855678E2,5.2948376E1,1.4211023E3,7.041799E1,1.7164815E2,1.6717464E2,5.285291E1,1.3671802E2,3.258608E2,1.0952416E3,1.21038315E2,5.0609837E1,1.1072654E2,5.6448105E1],"tree_param":{"num_deleted":"0","num_feature":"81","num_nodes":"23","size_leaf_vector":"1"}},{"base_weights":[7.25927E-5,-5.537966E-1,1.4473586E-1,-6.349279E-1,1.14701856E-4,3.6359477E-1,6.684103E-3,-1E0,-4.2310885E-1,2.6564976E-2,1E0,5.0742275E-1,-4.117275E-1,-2.1517565E-3,-3E-3,-9.3537086E-4,-2.3808973E-3,-1.864294E-3,5.210737E-4,2.0693773E-3,3E-3,2.1033452E-4,2.027894E-3,-6.138407E-4,-3E-3],"categories":[],"categories_nodes":[],"categories_segments":[],"categories_sizes":[],"default_left":[0,0,0,0,0,0,0,0,0,0,0,0,0,0,0,0,0,0,0,0,0,0,0,0,0],"id":18,"left_children":[1,3,5,7,-1,9,11,13,15,17,19,21,23,-1,-1,-1,-1,-1,-1,-1,-1,-1,-1,-1,-1],"loss_changes":[1.8560382E2,2.3412842E1,5.5403755E1,4.303444E1,0E0,1.5704105E2,2.3753505E2,1.8919525E0,1.2196529E1,4.5620968E1,5.458832E0,3.769522E1,7.813219E1,0E0,0E0,0E0,0E0,0E0,0E0,0E0,0E0,0E0,0E0,0E0,0E0],"parents":[2147483647,0,0,1,1,2,2,3,3,5,5,6,6,7,7,8,8,9,9,10,10,11,11,12,12],"right_children":[2,4,6,8,-1,10,12,14,16,18,20,22,24,-1,-1,-1,-1,-1,-1,-1,-1,-1,-1,-1,-1],"split_conditions":[1.3163383E1,1E0,3.2822758E-1,9.518828E-2,1.14701856E-4,3.5037595E-1,7.4765843E-1,1.5314794E-1,6.6978025E-1,1.6044776E-1,4.2014742E-1,7.10882E-1,9.0726256E-1,-2.1517565E-3,-3E-3,-9.3537086E-4,-2.3808973E-3,-1.864294E-3,5.210737E-4,2.0693773E-3,3E-3,2.1033452E-4,2.027894E-3,-6.138407E-4,-3E-3],"split_indices":[69,71,51,70,0,70,70,51,40,70,70,51,70,0,0,0,0,0,0,0,0,0,0,0,0],"split_type":[0,0,0,0,0,0,0,0,0,0,0,0,0,0,0,0,0,0,0,0,0,0,0,0,0],"sum_hessian":[2.3062769E3,4.7573346E2,1.8305435E3,4.190121E2,5.6721394E1,7.0538275E2,1.1251606E3,1.16454636E2,3.0255743E2,4.6854425E2,2.3683853E2,5.125411E2,6.1261957E2,5.0218662E1,6.623597E1,2.3652827E2,6.6029175E1,8.487565E1,3.8366858E2,7.873536E1,1.5810318E2,1.4419661E2,3.6834445E2,4.6119797E2,1.5142163E2],"tree_param":{"num_deleted":"0","num_feature":"81","num_nodes":"25","size_leaf_vector":"1"}},{"base_weights":[2.1923227E-2,-7.1730506E-1,1.8034342E-1,-1E0,-4.4433585E-1,3.5318986E-1,-4.1983676E-1,-1E0,-1.381216E-3,1.5864543E-6,-7.085322E-1,-3.5179365E-2,4.868496E-1,-1.6819684E-1,-1E0,-1.8836898E-3,-3E-3,-8.061069E-4,-2.9380415E-3,1.2862573E-3,-5.4184307E-4,1.9685396E-3,3.3920613E-4,-1.2833594E-3,4.5547754E-4,-1.6654031E-3,-3E-3],"categories":[],"categories_nodes":[],"categories_segments":[],"categories_sizes":[],"default_left":[0,0,0,0,0,0,0,0,0,0,0,0,0,0,0,0,0,0,0,0,0,0,0,0,0,0,0],"id":19,"left_children":[1,3,5,7,9,11,13,15,-1,-1,17,19,21,23,25,-1,-1,-1,-1,-1,-1,-1,-1,-1,-1,-1,-1],"loss_changes":[2.6974396E2,3.0791382E1,1.9722592E2,1.540773E1,2.552723E1,7.680858E1,6.657341E1,4.94606E0,0E0,0E0,1.5310669E1,2.6085377E1,6.910269E1,2.6058897E1,7.9037476E0,0E0,0E0,0E0,0E0,0E0,0E0,0E0,0E0,0E0,0E0,0E0,0E0],"parents":[2147483647,0,0,1,1,2,2,3,3,4,4,5,5,6,6,7,7,10,10,11,11,12,12,13,13,14,14],"right_children":[2,4,6,8,10,12,14,16,-1,-1,18,20,22,24,26,-1,-1,-1,-1,-1,-1,-1,-1,-1,-1,-1,-1],"split_conditions":[1.754386E-1,7.4821076E0,8.6621185E1,1.256E-1,-6.169827E0,2.8336865E-1,9.1132027E-1,1.3001606E-1,-1.381216E-3,1.5864543E-6,1.5491803E-1,1.8445568E-1,7.203792E-1,1.0451297E-3,1.8379976E-4,-1.8836898E-3,-3E-3,-8.061069E-4,-2.9380415E-3,1.2862573E-3,-5.4184307E-4,1.9685396E-3,3.3920613E-4,-1.2833594E-3,4.5547754E-4,-1.6654031E-3,-3E-3],"split_indices":[70,69,69,70,65,70,70,51,0,0,51,51,70,73,45,0,0,0,0,0,0,0,0,0,0,0,0],"split_type":[0,0,0,0,0,0,0,0,0,0,0,0,0,0,0,0,0,0,0,0,0,0,0,0,0,0,0],"sum_hessian":[2.2939695E3,4.0304562E2,1.8909237E3,1.9312181E2,2.0992383E2,1.4694047E3,4.2151904E2,1.3348155E2,5.9640255E1,7.825624E1,1.3166759E2,3.7564432E2,1.0937604E3,3.0350388E2,1.1801517E2,5.085363E1,8.262793E1,5.23983E1,7.926929E1,8.790303E1,2.8774127E2,7.5078906E2,3.429713E2,1.6806511E2,1.3543878E2,5.0290665E1,6.7724495E1],"tree_param":{"num_deleted":"0","num_feature":"81","num_nodes":"27","size_leaf_vector":"1"}},{"base_weights":[-7.856393E-3,-9.767553E-2,8.215461E-2,-5.17776E-1,4.1052467E-1,4.7694436E-1,-4.8845363E-1,1.3314532E-3,-6.0639846E-1,2.2356807E-1,5.33753E-1,7.989819E-1,4.061847E-1,-5.7076174E-1,3.7149893E-4,-1.4520758E-3,-3E-3,1.826186E-3,-7.761108E-4,1.2421582E-3,2.7904497E-3,3E-3,1.853098E-4,2.0455695E-3,1.996287E-4,-1.1397528E-3,-2.7116507E-3],"categories":[],"categories_nodes":[],"categories_segments":[],"categories_sizes":[],"default_left":[0,0,0,0,0,0,0,0,0,0,0,0,0,0,0,0,0,0,0,0,0,0,0,0,0,0,0],"id":20,"left_children":[1,3,5,7,9,11,13,-1,15,17,19,21,23,25,-1,-1,-1,-1,-1,-1,-1,-1,-1,-1,-1,-1,-1],"loss_changes":[1.8593197E1,2.4526993E2,2.569987E2,5.458383E1,1.1656494E1,1.4796783E1,2.3983444E1,0E0,3.1827896E1,4.0276093E1,1.4028793E1,3.854389E1,5.198609E1,2.5487625E1,0E0,0E0,0E0,0E0,0E0,0E0,0E0,0E0,0E0,0E0,0E0,0E0,0E0],"parents":[2147483647,0,0,1,1,2,2,3,3,4,4,5,5,6,6,8,8,9,9,10,10,11,11,12,12,13,13],"right_children":[2,4,6,8,10,12,14,-1,16,18,20,22,24,26,-1,-1,-1,-1,-1,-1,-1,-1,-1,-1,-1,-1,-1],"split_conditions":[1E0,3.0039099E1,7.990681E1,3.5930045E-2,5.896379E-1,1.0131309E-4,-5.512177E-2,1.3314532E-3,-8.772225E-4,-4.0050625E-4,6.728899E-1,4.020057E-1,-7.368756E-4,-1.4920107E-3,3.7149893E-4,-1.4520758E-3,-3E-3,1.826186E-3,-7.761108E-4,1.2421582E-3,2.7904497E-3,3E-3,1.853098E-4,2.0455695E-3,1.996287E-4,-1.1397528E-3,-2.7116507E-3],"split_indices":[71,69,69,32,67,57,53,0,38,38,41,41,38,38,0,0,0,0,0,0,0,0,0,0,0,0,0],"split_type":[0,0,0,0,0,0,0,0,0,0,0,0,0,0,0,0,0,0,0,0,0,0,0,0,0,0,0],"sum_hessian":[2.273581E3,1.1406985E3,1.1328824E3,6.2499585E2,5.1570264E2,6.703136E2,4.6256885E2,5.158773E1,5.734081E2,2.0872313E2,3.0697952E2,1.1577146E2,5.545421E2,4.085948E2,5.3974075E1,4.6035883E2,1.1304929E2,1.1632993E2,9.2393196E1,2.3989018E2,6.708935E1,6.546963E1,5.030183E1,3.0417218E2,2.5036995E2,2.6344824E2,1.4514653E2],"tree_param":{"num_deleted":"0","num_feature":"81","num_nodes":"27","size_leaf_vector":"1"}},{"base_weights":[-5.575723E-3,-5.6537426E-1,1.3873126E-1,-9.4207805E-1,-3.3768806E-1,3.2602173E-1,-4.9408942E-1,-1.871544E-3,-1E0,-2.0821764E-5,-4.7573748E-1,2.392761E-2,4.8874822E-1,-2.6693133E-1,-3E-3,-3E-3,-2.017242E-3,-7.833698E-4,-2.1742354E-3,-2.516197E-4,1.0658711E-3,1.1009197E-3,2.6303204E-3,3.021085E-4,-1.0755934E-3],"categories":[],"categories_nodes":[],"categories_segments":[],"categories_sizes":[],"default_left":[0,0,0,0,0,0,0,0,0,0,0,0,0,0,0,0,0,0,0,0,0,0,0,0,0],"id":21,"left_children":[1,3,5,7,9,11,13,-1,15,-1,17,19,21,23,-1,-1,-1,-1,-1,-1,-1,-1,-1,-1,-1],"loss_changes":[1.8659187E2,3.990358E1,2.1743175E2,5.464081E0,1.3503582E1,6.928998E1,6.2197914E1,0E0,3.3231812E0,0E0,1.0815796E1,1.8374369E1,4.2777817E1,1.11246605E1,0E0,0E0,0E0,0E0,0E0,0E0,0E0,0E0,0E0,0E0,0E0],"parents":[2147483647,0,0,1,1,2,2,3,3,4,4,5,5,6,6,8,8,10,10,11,11,12,12,13,13],"right_children":[2,4,6,8,10,12,14,-1,16,-1,18,20,22,24,-1,-1,-1,-1,-1,-1,-1,-1,-1,-1,-1],"split_conditions":[1.9266917E-1,9.518828E-2,8.6621185E1,-2.77533E-4,1.1991839E1,3.3757225E-1,9.235642E-1,-1.871544E-3,8.377749E0,-2.0821764E-5,-2.666358E-1,1E0,5.559555E-1,-8.616292E-1,-3E-3,-3E-3,-2.017242E-3,-7.833698E-4,-2.1742354E-3,-2.516197E-4,1.0658711E-3,1.1009197E-3,2.6303204E-3,3.021085E-4,-1.0755934E-3],"split_indices":[70,70,69,58,42,70,70,0,69,0,54,71,55,62,0,0,0,0,0,0,0,0,0,0,0],"split_type":[0,0,0,0,0,0,0,0,0,0,0,0,0,0,0,0,0,0,0,0,0,0,0,0,0],"sum_hessian":[2.294567E3,4.6978738E2,1.8247795E3,1.7378731E2,2.960001E2,1.4094087E3,4.153708E2,5.717038E1,1.1661693E2,8.8850044E1,2.0715004E2,4.9529102E2,9.1411774E2,3.166687E2,9.8702095E1,6.595986E1,5.0657063E1,1.1453775E2,9.261229E1,3.737012E2,1.215898E2,6.997069E2,2.1441084E2,6.2035007E1,2.546337E2],"tree_param":{"num_deleted":"0","num_feature":"81","num_nodes":"25","size_leaf_vector":"1"}},{"base_weights":[4.053774E-3,-1.0603768E-1,6.889697E-2,3.0173598E-2,-6.133153E-1,-4.693921E-1,2.2499591E-1,-5.0621396E-1,2.7752838E-1,-2.719181E-3,-6.650984E-4,-2.7907968E-1,-3E-3,3.8685286E-1,-2.8252432E-1,-6.7704206E-4,-2.4982616E-3,1.1418883E-3,-6.9776253E-4,-3.0042895E-4,-1.6090164E-3,3.5958973E-4,1.6184556E-3,-2.5732286E-4,-1.4727691E-3],"categories":[],"categories_nodes":[],"categories_segments":[],"categories_sizes":[],"default_left":[0,0,0,0,0,0,0,0,0,0,0,0,0,0,0,0,0,0,0,0,0,0,0,0,0],"id":22,"left_children":[1,3,5,7,9,11,13,15,17,-1,-1,19,-1,21,23,-1,-1,-1,-1,-1,-1,-1,-1,-1,-1],"loss_changes":[1.652202E1,5.940194E1,1.2220793E2,8.967686E1,2.0230392E1,4.7900063E1,9.2958984E1,1.8994144E1,2.4767307E1,0E0,0E0,1.247201E1,0E0,3.457405E1,1.1071648E1,0E0,0E0,0E0,0E0,0E0,0E0,0E0,0E0,0E0,0E0],"parents":[2147483647,0,0,1,1,2,2,3,3,4,4,5,5,6,6,7,7,8,8,11,11,13,13,14,14],"right_children":[2,4,6,8,10,12,14,16,18,-1,-1,20,-1,22,24,-1,-1,-1,-1,-1,-1,-1,-1,-1,-1],"split_conditions":[-3.6344055E-2,8.710545E1,1.280403E1,2.0819765E1,8.1061246E-4,1.0586347E-4,8.424083E1,-9.079171E-4,7.629407E1,-2.719181E-3,-6.650984E-4,5.497662E-1,-3E-3,3.8439644E1,-6.191225E0,-6.7704206E-4,-2.4982616E-3,1.1418883E-3,-6.9776253E-4,-3.0042895E-4,-1.6090164E-3,3.5958973E-4,1.6184556E-3,-2.5732286E-4,-1.4727691E-3],"split_indices":[31,69,69,69,73,73,69,73,69,0,0,76,0,69,65,0,0,0,0,0,0,0,0,0,0],"split_type":[0,0,0,0,0,0,0,0,0,0,0,0,0,0,0,0,0,0,0,0,0,0,0,0,0],"sum_hessian":[2.289053E3,8.451563E2,1.4438966E3,6.669627E2,1.7819362E2,3.2296658E2,1.1209299E3,2.0919972E2,4.5776297E2,9.968522E1,7.85084E1,2.7041852E2,5.254808E1,8.50994E2,2.6993597E2,1.15169785E2,9.4029945E1,3.8203632E2,7.5726685E1,1.6227216E2,1.0814636E2,3.1202893E2,5.389651E2,1.4153482E2,1.2840115E2],"tree_param":{"num_deleted":"0","num_feature":"81","num_nodes":"25","size_leaf_vector":"1"}},{"base_weights":[-2.8771307E-2,-5.431164E-1,1.2603427E-1,-4.08122E-1,-3E-3,3.468536E-1,-4.355102E-1,-3.179061E-1,-2.3770386E-3,9.2315644E-2,4.2029715E-1,-5.043875E-1,4.7193753E-4,-1.7866275E-3,-5.590125E-4,3E-3,-3.895685E-4,2.1464694E-3,1.0574098E-3,-3E-3,-1.0562711E-3],"categories":[],"categories_nodes":[],"categories_segments":[],"categories_sizes":[],"default_left":[0,0,0,0,0,0,0,0,0,0,0,0,0,0,0,0,0,0,0,0,0],"id":23,"left_children":[1,3,5,7,-1,9,11,13,-1,15,17,19,-1,-1,-1,-1,-1,-1,-1,-1,-1],"loss_changes":[1.8561835E2,4.5944412E1,2.2203629E2,1.5503868E1,0E0,2.379184E1,2.1119888E1,1.3547432E1,0E0,6.7037506E1,1.9483154E1,3.7175613E1,0E0,0E0,0E0,0E0,0E0,0E0,0E0,0E0,0E0],"parents":[2147483647,0,0,1,1,2,2,3,3,5,5,6,6,7,7,9,9,10,10,11,11],"right_children":[2,4,6,8,-1,10,12,14,-1,16,18,20,-1,-1,-1,-1,-1,-1,-1,-1,-1],"split_conditions":[1.5764449E1,1.0586347E-4,8.286583E1,-1.0525701E-3,-3E-3,3.0496387E1,-5.517507E-2,3.3134475E0,-2.3770386E-3,2.1435473E-2,2.3493569E-1,1.3773935E-4,4.7193753E-4,-1.7866275E-3,-5.590125E-4,3E-3,-3.895685E-4,2.1464694E-3,1.0574098E-3,-3E-3,-1.0562711E-3],"split_indices":[69,73,69,47,0,69,32,69,0,32,51,73,0,0,0,0,0,0,0,0,0],"split_type":[0,0,0,0,0,0,0,0,0,0,0,0,0,0,0,0,0,0,0,0,0],"sum_hessian":[2.3168193E3,5.355744E2,1.7812451E3,4.5556534E2,8.0009056E1,1.2796831E3,5.01562E2,3.729522E2,8.261311E1,2.8908942E2,9.905936E2,4.5037662E2,5.118539E1,1.1642296E2,2.5652927E2,5.0738567E1,2.3835085E2,1.8013861E2,8.10455E2,9.3990074E1,3.5638654E2],"tree_param":{"num_deleted":"0","num_feature":"81","num_nodes":"21","size_leaf_vector":"1"}},{"base_weights":[-5.5539412E-3,-7.2390246E-1,1.394584E-1,-1E0,-5.140824E-1,3.1316853E-1,-5.2825254E-1,-1.8401197E-3,-3E-3,-1.7746559E-1,-8.5770625E-1,2.4580804E-1,6.424142E-1,-3.3853915E-1,-8.1535673E-1,6.291277E-4,-1.3583171E-3,-1.5348928E-3,-3E-3,4.2927745E-4,1.1165021E-3,9.997166E-4,2.437448E-3,-1.7904703E-3,-4.5991162E-4,-3E-3,-1.2542382E-3],"categories":[],"categories_nodes":[],"categories_segments":[],"categories_sizes":[],"default_left":[0,0,0,0,0,0,0,0,0,0,0,0,0,0,0,0,0,0,0,0,0,0,0,0,0,0,0],"id":24,"left_children":[1,3,5,7,9,11,13,-1,-1,15,17,19,21,23,25,-1,-1,-1,-1,-1,-1,-1,-1,-1,-1,-1,-1],"loss_changes":[2.3881165E2,2.7981003E1,2.2104427E2,5.4753113E0,2.8820992E1,3.325598E1,2.0844765E1,0E0,0E0,1.4700034E1,7.93528E0,1.6210106E1,1.2723099E1,1.1358294E1,1.3796288E1,0E0,0E0,0E0,0E0,0E0,0E0,0E0,0E0,0E0,0E0,0E0,0E0],"parents":[2147483647,0,0,1,1,2,2,3,3,4,4,5,5,6,6,9,9,10,10,11,11,12,12,13,13,14,14],"right_children":[2,4,6,8,10,12,14,-1,-1,16,18,20,22,24,26,-1,-1,-1,-1,-1,-1,-1,-1,-1,-1,-1,-1],"split_conditions":[1.6666667E-1,7.900789E-2,8.2546264E-1,1.4566578E-1,1.7234702E-1,1.3496017E-3,6.727472E-1,-1.8401197E-3,-3E-3,2.0772008E-2,2.287286E0,1E0,7.523685E-1,8.355856E-1,9.994391E-1,6.291277E-4,-1.3583171E-3,-1.5348928E-3,-3E-3,4.2927745E-4,1.1165021E-3,9.997166E-4,2.437448E-3,-1.7904703E-3,-4.5991162E-4,-3E-3,-1.2542382E-3],"split_indices":[70,70,70,51,51,73,0,0,0,35,59,71,51,51,9,0,0,0,0,0,0,0,0,0,0,0,0],"split_type":[0,0,0,0,0,0,0,0,0,0,0,0,0,0,0,0,0,0,0,0,0,0,0,0,0,0,0],"sum_hessian":[2.2775535E3,3.8178192E2,1.8957715E3,1.3201375E2,2.4976817E2,1.5058292E3,3.8994226E2,5.059521E1,8.141853E1,1.284376E2,1.2133057E2,1.2542363E3,2.5159288E2,2.3846718E2,1.5147507E2,5.2817978E1,7.561964E1,5.1577618E1,6.975295E1,6.963809E2,5.578554E2,9.242606E1,1.5916682E2,9.66121E1,1.4185509E2,9.020274E1,6.1272316E1],"tree_param":{"num_deleted":"0","num_feature":"81","num_nodes":"27","size_leaf_vector":"1"}},{"base_weights":[2.946979E-3,-7.157824E-1,1.24582954E-1,-4.2436886E-1,-9.415198E-1,7.649118E-3,2.4863164E-1,-1.3662863E-4,-2.4433518E-3,-1.554683E-3,-3E-3,4.222582E-1,-6.044448E-1,-2.6678767E-2,8.2911545E-1,2.676348E-3,3.9706484E-4,-8.4340706E-4,-3E-3,-4.2633945E-4,1.0621849E-3,1.9661477E-3,3E-3],"categories":[],"categories_nodes":[],"categories_segments":[],"categories_sizes":[],"default_left":[0,0,0,0,0,0,0,0,0,0,0,0,0,0,0,0,0,0,0,0,0,0,0],"id":25,"left_children":[1,3,5,7,9,11,13,-1,-1,-1,-1,15,17,19,21,-1,-1,-1,-1,-1,-1,-1,-1],"loss_changes":[2.0154971E2,2.1021408E1,2.8532112E1,2.2040577E1,1.5886337E1,2.5945056E2,1.5324701E2,0E0,0E0,0E0,0E0,8.264176E1,7.016609E1,2.8913982E1,1.7043411E1,0E0,0E0,0E0,0E0,0E0,0E0,0E0,0E0],"parents":[2147483647,0,0,1,1,2,2,3,3,4,4,5,5,6,6,11,11,12,12,13,13,14,14],"right_children":[2,4,6,8,10,12,14,-1,-1,-1,-1,16,18,20,22,-1,-1,-1,-1,-1,-1,-1,-1],"split_conditions":[1.521911E-1,-5.491065E-1,-3.16699E-3,1.436464E-1,1.9040655E-1,8.112676E-1,3.4226474E-1,-1.3662863E-4,-2.4433518E-3,-1.554683E-3,-3E-3,6.842236E-1,9.0726256E-1,1E0,5.701668E-1,2.676348E-3,3.9706484E-4,-8.4340706E-4,-3E-3,-4.2633945E-4,1.0621849E-3,1.9661477E-3,3E-3],"split_indices":[70,54,53,51,51,70,70,0,0,0,0,70,70,71,70,0,0,0,0,0,0,0,0],"split_type":[0,0,0,0,0,0,0,0,0,0,0,0,0,0,0,0,0,0,0,0,0,0,0],"sum_hessian":[2.2952073E3,3.302034E2,1.965004E3,1.4761542E2,1.8258797E2,1.0146776E3,9.503264E2,7.667153E1,7.0943886E1,7.9605156E1,1.0298281E2,6.057815E2,4.0889612E2,6.453148E2,3.0501157E2,2.2890565E2,3.7687582E2,2.626843E2,1.4621184E2,4.971528E2,1.4816203E2,2.3530301E2,6.9708565E1],"tree_param":{"num_deleted":"0","num_feature":"81","num_nodes":"23","size_leaf_vector":"1"}},{"base_weights":[3.254946E-3,1.323515E-1,-3.7430786E-2,-2.0732402E-3,2.6373404E-1,-5.7594633E-1,1.379617E-1,1.9675438E-1,2.1759311E-3,-3.3951393E-1,-8.5509074E-1,4.1333476E-1,-6.539624E-2,1.2557444E-3,-1.0245282E-3,-2.1680703E-3,-5.404429E-4,-3E-3,-1.3744517E-3,1.9462916E-4,2.405338E-3,2.0592143E-3,-1.0959543E-3],"categories":[],"categories_nodes":[],"categories_segments":[],"categories_sizes":[],"default_left":[0,0,0,0,0,0,0,0,0,0,0,0,0,0,0,0,0,0,0,0,0,0,0],"id":26,"left_children":[1,3,5,-1,7,9,11,13,-1,15,17,19,21,-1,-1,-1,-1,-1,-1,-1,-1,-1,-1],"loss_changes":[1.2141908E1,6.0164597E1,1.6388254E2,0E0,1.45605545E1,2.7465225E1,7.344129E1,5.0733788E1,0E0,1.4152176E1,1.0197968E1,7.4916534E1,1.7026155E2,0E0,0E0,0E0,0E0,0E0,0E0,0E0,0E0,0E0,0E0],"parents":[2147483647,0,0,1,1,2,2,4,4,5,5,6,6,7,7,9,9,10,10,11,11,12,12],"right_children":[2,4,6,-1,8,10,12,14,-1,16,18,20,22,-1,-1,-1,-1,-1,-1,-1,-1,-1,-1],"split_conditions":[-3.4530158E0,7.2570276E0,1.8298729E1,-2.0732402E-3,6.3622606E-1,-3.1855652E-1,5.386761E-1,8.622677E1,2.1759311E-3,3.9471335E0,1.1528E1,4.5090755E1,6.11183E1,1.2557444E-3,-1.0245282E-3,-2.1680703E-3,-5.404429E-4,-3E-3,-1.3744517E-3,1.9462916E-4,2.405338E-3,2.0592143E-3,-1.0959543E-3],"split_indices":[40,69,69,0,53,54,41,69,0,69,69,69,69,0,0,0,0,0,0,0,0,0,0],"split_type":[0,0,0,0,0,0,0,0,0,0,0,0,0,0,0,0,0,0,0,0,0,0,0],"sum_hessian":[2.267065E3,5.451326E2,1.7219324E3,7.331428E1,4.7181836E2,4.2262152E2,1.2993109E3,4.1546564E2,5.635272E1,2.3218605E2,1.9043547E2,5.520955E2,7.472154E2,2.951877E2,1.2027794E2,6.520409E1,1.6698196E2,1.3577417E2,5.4661297E1,2.9293567E2,2.5915985E2,2.1187451E2,5.353409E2],"tree_param":{"num_deleted":"0","num_feature":"81","num_nodes":"23","size_leaf_vector":"1"}},{"base_weights":[6.415114E-3,-5.807172E-1,1.379105E-1,-1E0,-3.0516455E-1,3.608477E-1,-4.396239E-1,-1.4853375E-3,-3E-3,-4.734623E-1,6.9271046E-5,-8.364609E-2,5.4629E-1,-2.612603E-1,-9.788663E-1,-7.9135277E-4,-2.5507265E-3,5.678294E-4,-7.9756917E-4,1.9637127E-3,3.1752535E-4,-1.0522403E-3,9.41644E-4,-3E-3,-1.4021917E-3],"categories":[],"categories_nodes":[],"categories_segments":[],"categories_sizes":[],"default_left":[0,0,0,0,0,0,0,0,0,0,0,0,0,0,0,0,0,0,0,0,0,0,0,0,0],"id":27,"left_children":[1,3,5,7,9,11,13,-1,-1,15,-1,17,19,21,23,-1,-1,-1,-1,-1,-1,-1,-1,-1,-1],"loss_changes":[1.7555989E2,5.2588913E1,2.3955667E2,1.1519379E1,1.5049055E1,1.1095018E2,4.9339577E1,0E0,0E0,1.3534172E1,0E0,2.0157166E1,4.480121E1,2.0791065E1,1.3543541E1,0E0,0E0,0E0,0E0,0E0,0E0,0E0,0E0,0E0,0E0],"parents":[2147483647,0,0,1,1,2,2,3,3,4,4,5,5,6,6,9,9,11,11,12,12,13,13,14,14],"right_children":[2,4,6,8,10,12,14,-1,-1,16,-1,18,20,22,24,-1,-1,-1,-1,-1,-1,-1,-1,-1,-1],"split_conditions":[1.1528E1,1.08713694E-1,7.829282E-1,1.3300492E-1,4.3364796E-1,2.8336865E-1,9.235642E-1,-1.4853375E-3,-3E-3,-5.4828485E-4,6.9271046E-5,2.5743082E-1,7.25E-1,-6.0486592E-2,-2.3042959E-1,-7.9135277E-4,-2.5507265E-3,5.678294E-4,-7.9756917E-4,1.9637127E-3,3.1752535E-4,-1.0522403E-3,9.41644E-4,-3E-3,-1.4021917E-3],"split_indices":[69,70,70,51,20,70,70,0,0,46,0,53,70,53,53,0,0,0,0,0,0,0,0,0,0],"split_type":[0,0,0,0,0,0,0,0,0,0,0,0,0,0,0,0,0,0,0,0,0,0,0,0,0],"sum_hessian":[2.263507E3,4.122333E2,1.8512737E3,1.4976178E2,2.6247153E2,1.3368464E3,5.144273E2,5.3016243E1,9.674554E1,1.7393352E2,8.853802E1,3.930739E2,9.437725E2,3.8949228E2,1.2493498E2,1.1478364E2,5.9149883E1,1.5623566E2,2.3683824E2,7.5584595E2,1.8792659E2,3.3847806E2,5.1014233E1,7.0136696E1,5.4798294E1],"tree_param":{"num_deleted":"0","num_feature":"81","num_nodes":"25","size_leaf_vector":"1"}},{"base_weights":[1.4423294E-2,-5.7811475E-1,1.5524234E-1,-4.2028165E-1,-3E-3,6.848476E-1,1.1559284E-1,-2.0704812E-3,-3.0967796E-1,1.0142217E-3,3E-3,2.864888E-1,-4.0753973E-1,-1.4813573E-3,-1.9106785E-4,7.312424E-4,2.626096E-3,-3E-3,-9.6430816E-4],"categories":[],"categories_nodes":[],"categories_segments":[],"categories_sizes":[],"default_left":[0,0,0,0,0,0,0,0,0,0,0,0,0,0,0,0,0,0,0],"id":28,"left_children":[1,3,5,7,-1,9,11,-1,13,-1,-1,15,17,-1,-1,-1,-1,-1,-1],"loss_changes":[1.9261044E2,3.733177E1,3.915892E1,1.0137676E1,0E0,1.7472466E1,1.5580826E2,0E0,1.14141865E1,0E0,0E0,3.2798462E1,2.1571693E1,0E0,0E0,0E0,0E0,0E0,0E0],"parents":[2147483647,0,0,1,1,2,2,3,3,5,5,6,6,8,8,11,11,12,12],"right_children":[2,4,6,8,-1,10,12,-1,14,-1,-1,16,18,-1,-1,-1,-1,-1,-1],"split_conditions":[1.280403E1,-3.748328E-5,1.5700382E-1,1.241E3,-3E-3,3.684102E1,8.710545E1,-2.0704812E-3,2.9169643E1,1.0142217E-3,3E-3,2.7983312E-3,1.1942175E-1,-1.4813573E-3,-1.9106785E-4,7.312424E-4,2.626096E-3,-3E-3,-9.6430816E-4],"split_indices":[69,73,41,13,0,69,69,0,44,0,0,73,52,0,0,0,0,0,0],"split_type":[0,0,0,0,0,0,0,0,0,0,0,0,0,0,0,0,0,0,0],"sum_hessian":[2.2981194E3,4.394099E2,1.8587094E3,3.4927725E2,9.013269E1,1.2631691E2,1.7323925E3,9.7172E1,2.5210524E2,7.23218E1,5.3995113E1,1.3072146E3,4.2517792E2,1.4187384E2,1.1023139E2,1.222184E3,8.503062E1,5.0152126E1,3.750258E2],"tree_param":{"num_deleted":"0","num_feature":"81","num_nodes":"19","size_leaf_vector":"1"}},{"base_weights":[1.1228492E-2,-6.717498E-2,9.37748E-2,-5.616342E-1,3.3819872E-1,4.3863347E-1,-4.0371597E-1,-4.6035513E-1,-2.9630256E-3,4.4309717E-1,6.1250487E-3,5.443874E-1,8.438896E-2,-1.9569305E-1,-6.0489786E-1,-9.93173E-4,-3E-3,3E-3,9.418962E-4,-6.5866456E-4,1.1542685E-3,1.172826E-3,2.694216E-3,7.9979055E-4,-5.36561E-4,-9.4263296E-4,5.978728E-4,-6.307196E-4,-2.4804394E-3],"categories":[],"categories_nodes":[],"categories_segments":[],"categories_sizes":[],"default_left":[0,0,0,0,0,0,0,0,0,0,0,0,0,0,0,0,0,0,0,0,0,0,0,0,0,0,0,0,0],"id":29,"left_children":[1,3,5,7,9,11,13,15,-1,17,19,21,23,25,27,-1,-1,-1,-1,-1,-1,-1,-1,-1,-1,-1,-1,-1,-1],"loss_changes":[1.4927475E1,2.3525385E2,1.9229189E2,2.1995758E1,2.2244514E1,2.4496155E1,1.8870361E1,3.6371033E1,0E0,3.775901E1,1.4290059E1,2.688861E1,7.9400187E0,1.1205657E1,1.970581E1,0E0,0E0,0E0,0E0,0E0,0E0,0E0,0E0,0E0,0E0,0E0,0E0,0E0,0E0],"parents":[2147483647,0,0,1,1,2,2,3,3,4,4,5,5,6,6,7,7,9,9,10,10,11,11,12,12,13,13,14,14],"right_children":[2,4,6,8,10,12,14,16,-1,18,20,22,24,26,28,-1,-1,-1,-1,-1,-1,-1,-1,-1,-1,-1,-1,-1,-1],"split_conditions":[1E0,1.9511776E1,7.990681E1,-8.406633E-4,-3.1526436E-4,1.9375335E-5,-2.0768682E-3,6.0384362E-5,-2.9630256E-3,-9.799392E-2,8.130318E-1,5.6772854E-2,5.757251E-1,9.0706295E-1,1.0305301E-4,-9.93173E-4,-3E-3,3E-3,9.418962E-4,-6.5866456E-4,1.1542685E-3,1.172826E-3,2.694216E-3,7.9979055E-4,-5.36561E-4,-9.4263296E-4,5.978728E-4,-6.307196E-4,-2.4804394E-3],"split_indices":[71,69,69,38,38,38,38,73,0,32,16,32,76,56,58,0,0,0,0,0,0,0,0,0,0,0,0,0,0],"split_type":[0,0,0,0,0,0,0,0,0,0,0,0,0,0,0,0,0,0,0,0,0,0,0,0,0,0,0,0,0],"sum_hessian":[2.277364E3,1.165076E3,1.1122878E3,5.250738E2,6.400023E2,6.576495E2,4.5463837E2,4.2853622E2,9.653755E1,4.847125E2,1.552898E2,5.0454178E2,1.531077E2,2.266805E2,2.2795787E2,3.6422467E2,6.431157E1,8.123039E1,4.0348212E2,9.699591E1,5.8293877E1,3.558021E2,1.4873969E2,9.158765E1,6.1520054E1,1.7565019E2,5.1030308E1,8.4258675E1,1.436992E2],"tree_param":{"num_deleted":"0","num_feature":"81","num_nodes":"29","size_leaf_vector":"1"}},{"base_weights":[4.7890437E-3,-7.085751E-1,1.4503564E-1,-1E0,-3.3574134E-1,3.5768405E-1,-3.4746575E-1,-3E-3,-1.834267E-3,2.1168576E-4,-5.4101175E-1,4.5336492E-2,6.2453586E-1,-2.2199467E-1,-3E-3,-7.1265805E-4,-2.6471664E-3,-3.15638E-5,1.901494E-3,2.457149E-3,8.325428E-4,-9.2257746E-4,1.3768922E-3],"categories":[],"categories_nodes":[],"categories_segments":[],"categories_sizes":[],"default_left":[0,0,0,0,0,0,0,0,0,0,0,0,0,0,0,0,0,0,0,0,0,0,0],"id":30,"left_children":[1,3,5,7,9,11,13,-1,-1,-1,15,17,19,21,-1,-1,-1,-1,-1,-1,-1,-1,-1],"loss_changes":[2.297156E2,4.713025E1,2.013323E2,9.167236E0,1.5975893E1,1.1152194E2,5.5217644E1,0E0,0E0,0E0,1.240691E1,2.1301468E1,4.8139435E1,2.9937912E1,0E0,0E0,0E0,0E0,0E0,0E0,0E0,0E0,0E0],"parents":[2147483647,0,0,1,1,2,2,3,3,4,4,5,5,6,6,10,10,11,11,12,12,13,13],"right_children":[2,4,6,8,10,12,14,-1,-1,-1,16,18,20,22,-1,-1,-1,-1,-1,-1,-1,-1,-1],"split_conditions":[1.6666667E-1,8.088466E0,7.6744187E-1,1.08713694E-1,1.5558524E-5,3.5435992E-1,9.4809014E-1,-3E-3,-1.834267E-3,2.1168576E-4,-1.082681E-3,-1.054248E-5,6.791745E-1,-5.512177E-2,-3E-3,-7.1265805E-4,-2.6471664E-3,-3.15638E-5,1.901494E-3,2.457149E-3,8.325428E-4,-9.2257746E-4,1.3768922E-3],"split_indices":[70,69,70,70,78,70,70,0,0,0,37,58,70,53,0,0,0,0,0,0,0,0,0],"split_type":[0,0,0,0,0,0,0,0,0,0,0,0,0,0,0,0,0,0,0,0,0,0,0],"sum_hessian":[2.2863567E3,3.7372662E2,1.91263E3,1.9121687E2,1.8250975E2,1.3369395E3,5.756906E2,1.1668468E2,7.4532196E1,6.088108E1,1.2162867E2,6.1790314E2,7.190363E2,4.991204E2,7.65702E1,6.696135E1,5.4667324E1,5.653562E2,5.254691E1,4.580995E2,2.6093683E2,4.4505124E2,5.4069164E1],"tree_param":{"num_deleted":"0","num_feature":"81","num_nodes":"23","size_leaf_vector":"1"}},{"base_weights":[-2.1747202E-2,-6.7004526E-1,1.1286095E-1,-1E0,-4.433775E-1,2.880259E-1,-4.794199E-1,-3E-3,-1.7784293E-3,-6.9334096E-1,-1.8508531E-1,-7.5561725E-2,4.129553E-1,-2.8455773E-1,-3E-3,-1.3305482E-3,-2.9203375E-3,5.0274667E-4,-1.4427418E-3,1.9226967E-5,-1.5206081E-3,1.6938017E-3,3.1959903E-4,-1.427075E-3,-2.9417765E-4],"categories":[],"categories_nodes":[],"categories_segments":[],"categories_sizes":[],"default_left":[0,0,0,0,0,0,0,0,0,0,0,0,0,0,0,0,0,0,0,0,0,0,0,0,0],"id":31,"left_children":[1,3,5,7,9,11,13,-1,-1,15,17,19,21,23,-1,-1,-1,-1,-1,-1,-1,-1,-1,-1,-1],"loss_changes":[1.9726265E2,2.8553848E1,1.9396916E2,7.558029E0,1.4938465E1,6.577658E1,4.7285965E1,0E0,0E0,7.403702E0,1.3247667E1,1.3724794E1,4.9616974E1,1.1375824E1,0E0,0E0,0E0,0E0,0E0,0E0,0E0,0E0,0E0,0E0,0E0],"parents":[2147483647,0,0,1,1,2,2,3,3,4,4,5,5,6,6,9,9,10,10,11,11,12,12,13,13],"right_children":[2,4,6,8,10,12,14,-1,-1,16,18,20,22,24,-1,-1,-1,-1,-1,-1,-1,-1,-1,-1,-1],"split_conditions":[1.754386E-1,9.101316E-2,8.112676E-1,8.6769905E0,9.264078E0,2.8115016E-1,9.3244267E-1,-3E-3,-1.7784293E-3,-3.937823E-1,2.3845574E-5,1.65076E5,7.0240295E-1,1.9565217E-1,-3E-3,-1.3305482E-3,-2.9203375E-3,5.0274667E-4,-1.4427418E-3,1.9226967E-5,-1.5206081E-3,1.6938017E-3,3.1959903E-4,-1.427075E-3,-2.9417765E-4],"split_indices":[70,70,70,69,69,70,70,0,0,54,80,14,70,60,0,0,0,0,0,0,0,0,0,0,0],"split_type":[0,0,0,0,0,0,0,0,0,0,0,0,0,0,0,0,0,0,0,0,0,0,0,0,0],"sum_hessian":[2.2448223E3,3.85232E2,1.8595903E3,1.5181628E2,2.334157E2,1.4365944E3,4.22996E2,9.371382E1,5.810246E1,1.1592463E2,1.17491066E2,3.6656174E2,1.0700326E3,3.1968378E2,1.0331223E2,6.4948784E1,5.0975845E1,5.3221157E1,6.4269905E1,3.0870322E2,5.785853E1,7.135748E2,3.5645782E2,1.5502417E2,1.646596E2],"tree_param":{"num_deleted":"0","num_feature":"81","num_nodes":"25","size_leaf_vector":"1"}},{"base_weights":[3.4139697E-2,-5.734899E-1,1.831579E-1,-6.809031E-1,4.4392017E-4,3.5604757E-1,-3.6988372E-1,-3.8957962E-1,-1E0,4.3429866E-1,-1.0245629E-1,-4.4852287E-2,-7.875686E-1,-2.2064536E-3,-7.2463934E-4,-3E-3,-2.1248297E-3,4.0763337E-4,2.032725E-3,-1.1343608E-3,7.7271485E-4,5.349967E-4,-1.2354099E-3,-3E-3,-1.0448672E-3],"categories":[],"categories_nodes":[],"categories_segments":[],"categories_sizes":[],"default_left":[0,0,0,0,0,0,0,0,0,0,0,0,0,0,0,0,0,0,0,0,0,0,0,0,0],"id":32,"left_children":[1,3,5,7,-1,9,11,13,15,17,19,21,23,-1,-1,-1,-1,-1,-1,-1,-1,-1,-1,-1,-1],"loss_changes":[2.0753143E2,3.5565643E1,1.7636784E2,4.5928726E1,0E0,5.0686737E1,5.938542E1,1.185957E1,2.6381683E0,8.674126E1,2.1121273E1,2.1192654E1,2.9296547E1,0E0,0E0,0E0,0E0,0E0,0E0,0E0,0E0,0E0,0E0,0E0,0E0],"parents":[2147483647,0,0,1,1,2,2,3,3,5,5,6,6,7,7,8,8,9,9,10,10,11,11,12,12],"right_children":[2,4,6,8,-1,10,12,14,16,18,20,22,24,-1,-1,-1,-1,-1,-1,-1,-1,-1,-1,-1,-1],"split_conditions":[1.9266917E-1,2.3774677E1,8.6621185E1,1.9760479E-1,4.4392017E-4,7.829282E-1,8.695225E-1,7.489879E-2,1.368804E-1,3.5037595E-1,-2.3042959E-1,-2.3973354E-3,-2.9489833E-1,-2.2064536E-3,-7.2463934E-4,-3E-3,-2.1248297E-3,4.0763337E-4,2.032725E-3,-1.1343608E-3,7.7271485E-4,5.349967E-4,-1.2354099E-3,-3E-3,-1.0448672E-3],"split_indices":[70,69,69,51,0,70,70,70,70,70,53,47,53,0,0,0,0,0,0,0,0,0,0,0,0],"split_type":[0,0,0,0,0,0,0,0,0,0,0,0,0,0,0,0,0,0,0,0,0,0,0,0,0],"sum_hessian":[2.2818088E3,4.476087E2,1.8342002E3,3.903047E2,5.730402E1,1.3985939E3,4.356063E2,2.3461438E2,1.5569029E2,1.1957208E3,2.0287306E2,2.4689272E2,1.887136E2,6.692298E1,1.6769139E2,9.976157E1,5.5928722E1,5.393213E2,6.5639954E2,1.1562799E2,8.724506E1,1.5331184E2,9.358087E1,9.5729836E1,9.298376E1],"tree_param":{"num_deleted":"0","num_feature":"81","num_nodes":"25","size_leaf_vector":"1"}},{"base_weights":[5.0703185E-3,-2.492965E-1,4.9429625E-2,-8.130341E-1,2.6354792E-2,-5.5969465E-1,1.5512836E-1,-3E-3,-1.6203558E-3,1.291319E-3,-9.2902005E-2,-4.1676694E-1,-2.6950603E-3,3.2487252E-1,-3.5822886E-1,9.908234E-4,-8.4454665E-4,-6.265655E-4,-1.9773333E-3,1.2714214E-3,3.1424142E-4,-1.7015393E-3,-3.1219717E-4],"categories":[],"categories_nodes":[],"categories_segments":[],"categories_sizes":[],"default_left":[0,0,0,0,0,0,0,0,0,0,0,0,0,0,0,0,0,0,0,0,0,0,0],"id":33,"left_children":[1,3,5,7,9,11,13,-1,-1,-1,15,17,-1,19,21,-1,-1,-1,-1,-1,-1,-1,-1],"loss_changes":[2.5824738E1,5.3183872E1,1.25265E2,6.086113E0,1.1673384E1,1.319072E1,1.4467651E2,0E0,0E0,0E0,1.4710531E1,1.0114506E1,0E0,2.6922562E1,2.1668694E1,0E0,0E0,0E0,0E0,0E0,0E0,0E0,0E0],"parents":[2147483647,0,0,1,1,2,2,3,3,4,4,5,5,6,6,10,10,11,11,13,13,14,14],"right_children":[2,4,6,8,10,12,14,-1,-1,-1,16,18,-1,20,22,-1,-1,-1,-1,-1,-1,-1,-1],"split_conditions":[-1.4077259E-3,6.700492E0,1.1528E1,2.1700485E-1,6.772927E-2,-8.406633E-4,8.6621185E1,-3E-3,-1.6203558E-3,1.291319E-3,-2.9108665E-4,5.7013888E-2,-2.6950603E-3,-4.405563E-4,-2.873324E-1,9.908234E-4,-8.4454665E-4,-6.265655E-4,-1.9773333E-3,1.2714214E-3,3.1424142E-4,-1.7015393E-3,-3.1219717E-4],"split_indices":[57,69,69,35,28,38,69,0,0,0,58,74,0,38,53,0,0,0,0,0,0,0,0],"split_type":[0,0,0,0,0,0,0,0,0,0,0,0,0,0,0,0,0,0,0,0,0,0,0],"sum_hessian":[2.2673572E3,3.3364514E2,1.933712E3,1.0888271E2,2.2476242E2,2.8396252E2,1.6497495E3,5.3031204E1,5.585151E1,5.0984055E1,1.7377837E2,2.0386215E2,8.010036E1,1.2410863E3,4.086632E2,5.2295113E1,1.2148325E2,1.1284071E2,9.102144E1,8.5340454E2,3.8768176E2,2.2184837E2,1.8681482E2],"tree_param":{"num_deleted":"0","num_feature":"81","num_nodes":"23","size_leaf_vector":"1"}},{"base_weights":[-1.29263075E-2,-7.384945E-1,1.1133547E-1,-2.8961536E-1,-1E0,2.7090433E-1,-4.4570485E-1,-1.433666E-3,-0E0,-2.1009808E-3,-3E-3,-3.5967734E-2,5.0089633E-1,-6.7847425E-1,-5.356437E-2,-3.3308388E-4,1.5340658E-3,2.2317094E-3,5.438345E-4,-1.2613896E-3,-3E-3,-1.1701899E-3,7.853081E-4],"categories":[],"categories_nodes":[],"categories_segments":[],"categories_sizes":[],"default_left":[0,0,0,0,0,0,0,0,0,0,0,0,0,0,0,0,0,0,0,0,0,0,0],"id":34,"left_children":[1,3,5,7,9,11,13,-1,-1,-1,-1,15,17,19,21,-1,-1,-1,-1,-1,-1,-1,-1],"loss_changes":[2.0584952E2,4.6082977E1,1.7302142E2,8.042595E0,3.11969E0,1.0699496E2,3.924317E1,0E0,0E0,0E0,0E0,2.7085506E1,6.674184E1,2.9762619E1,1.8240484E1,0E0,0E0,0E0,0E0,0E0,0E0,0E0,0E0],"parents":[2147483647,0,0,1,1,2,2,3,3,4,4,5,5,6,6,11,11,12,12,13,13,14,14],"right_children":[2,4,6,8,10,12,14,-1,-1,-1,-1,16,18,20,22,-1,-1,-1,-1,-1,-1,-1,-1],"split_conditions":[1.521911E-1,1.5043497E-1,8.112676E-1,2.9971725E-1,2.4164195E-1,3.4032732E-1,-1.9754902E-1,-1.433666E-3,-0E0,-2.1009808E-3,-3E-3,-3.586954E-5,6.791745E-1,9.1132027E-1,9.213375E-5,-3.3308388E-4,1.5340658E-3,2.2317094E-3,5.438345E-4,-1.2613896E-3,-3E-3,-1.1701899E-3,7.853081E-4],"split_indices":[70,51,70,17,53,70,53,0,0,0,0,58,70,70,45,0,0,0,0,0,0,0,0],"split_type":[0,0,0,0,0,0,0,0,0,0,0,0,0,0,0,0,0,0,0,0,0,0,0],"sum_hessian":[2.2665635E3,3.3055878E2,1.9360048E3,1.3923537E2,1.913234E2,1.5064069E3,4.295979E2,8.4263855E1,5.4971516E1,5.83467E1,1.3297668E2,6.451346E2,8.612723E2,2.678627E2,1.617352E2,5.695359E2,7.55987E1,4.868779E2,3.7439438E2,1.7640234E2,9.1460365E1,7.877958E1,8.295562E1],"tree_param":{"num_deleted":"0","num_feature":"81","num_nodes":"23","size_leaf_vector":"1"}},{"base_weights":[4.5388483E-2,8.629037E-2,-1.4679764E-1,-5.2770203E-1,2.2261092E-1,-7.1418804E-1,4.8297722E-2,-1.5912178E-1,-9.2533016E-1,5.5824053E-2,3.9897242E-1,-1.1327417E-3,-3E-3,1.4967045E-3,-4.4398E-2,-1.4897597E-3,1.1753503E-4,-1.7549854E-3,-3E-3,4.216479E-4,-2.9325092E-4,1.3500968E-3,1.6257403E-4,-4.5971046E-4,7.521526E-4],"categories":[],"categories_nodes":[],"categories_segments":[],"categories_sizes":[],"default_left":[0,0,0,0,0,0,0,0,0,0,0,0,0,0,0,0,0,0,0,0,0,0,0,0,0],"id":35,"left_children":[1,3,5,7,9,11,13,15,17,19,21,-1,-1,-1,23,-1,-1,-1,-1,-1,-1,-1,-1,-1,-1],"loss_changes":[1.8288073E1,1.5998363E2,4.560176E1,5.036738E1,4.5814995E1,9.925758E0,1.3336025E1,1.2850882E1,8.697433E0,1.0705473E1,1.31119E1,0E0,0E0,0E0,8.433753E0,0E0,0E0,0E0,0E0,0E0,0E0,0E0,0E0,0E0,0E0],"parents":[2147483647,0,0,1,1,2,2,3,3,4,4,5,5,6,6,7,7,8,8,9,9,10,10,14,14],"right_children":[2,4,6,8,10,12,14,16,18,20,22,-1,-1,-1,24,-1,-1,-1,-1,-1,-1,-1,-1,-1,-1],"split_conditions":[9.241377E-5,1.7958412E-1,2.2004357E-1,1.8074325E-1,-2.235897E-2,4.249207E-5,2.4970414E-1,-2.396603E-3,5.7469034E-1,4.7331968E-1,6.057878E-1,-1.1327417E-3,-3E-3,1.4967045E-3,8.2897E4,-1.4897597E-3,1.1753503E-4,-1.7549854E-3,-3E-3,4.216479E-4,-2.9325092E-4,1.3500968E-3,1.6257403E-4,-4.5971046E-4,7.521526E-4],"split_indices":[78,70,70,51,32,80,51,38,67,63,32,0,0,0,14,0,0,0,0,0,0,0,0,0,0],"split_type":[0,0,0,0,0,0,0,0,0,0,0,0,0,0,0,0,0,0,0,0,0,0,0,0,0],"sum_hessian":[2.3012454E3,1.9004805E3,4.007648E2,3.4357904E2,1.5569015E3,1.01836876E2,2.9892792E2,1.8040808E2,1.6317094E2,8.029816E2,7.539198E2,5.1547546E1,5.028933E1,5.0426937E1,2.4850099E2,6.659334E1,1.1381474E2,6.743482E1,9.573613E1,5.1969635E2,2.8328528E2,6.5487616E2,9.904367E1,1.8348672E2,6.501427E1],"tree_param":{"num_deleted":"0","num_feature":"81","num_nodes":"25","size_leaf_vector":"1"}},{"base_weights":[2.596312E-3,3.0948352E-2,-2.9511523E-1,-6.681333E-1,1.5664609E-1,-2.6303334E-3,8.3574915E-4,-3E-3,-5.3126675E-1,3.9970466E-1,-4.1300517E-1,-1.1188637E-3,-2.9871701E-3,9.5322885E-4,1.7980644E-3,-1.5020526E-3,1.1921613E-3],"categories":[],"categories_nodes":[],"categories_segments":[],"categories_sizes":[],"default_left":[0,0,0,0,0,0,0,0,0,0,0,0,0,0,0,0,0],"id":36,"left_children":[1,3,5,7,9,-1,-1,-1,11,13,15,-1,-1,-1,-1,-1,-1],"loss_changes":[1.9524088E1,1.8463194E2,6.7594986E1,1.9185379E1,2.4687184E2,0E0,0E0,0E0,1.8292572E1,2.0074066E1,3.8699883E1,0E0,0E0,0E0,0E0,0E0,0E0],"parents":[2147483647,0,0,1,1,2,2,3,3,4,4,8,8,9,9,10,10],"right_children":[2,4,6,8,10,-1,-1,-1,12,14,16,-1,-1,-1,-1,-1,-1],"split_conditions":[5.746865E-1,1.7216118E-1,2.2004357E-1,4.6413504E-2,7.777778E-1,-2.6303334E-3,8.3574915E-4,-3E-3,5.289322E-1,5.6467087E1,-4.5204394E-2,-1.1188637E-3,-2.9871701E-3,9.5322885E-4,1.7980644E-3,-1.5020526E-3,1.1921613E-3],"split_indices":[32,70,70,70,70,0,0,0,53,43,53,0,0,0,0,0,0],"split_type":[0,0,0,0,0,0,0,0,0,0,0,0,0,0,0,0,0],"sum_hessian":[2.2862424E3,2.0906177E3,1.9562476E2,3.16692E2,1.7739257E3,9.704625E1,9.8578514E1,6.189288E1,2.5479912E2,1.244428E3,5.294977E2,1.9351958E2,6.127953E1,8.876935E2,3.5673453E2,4.790491E2,5.0448578E1],"tree_param":{"num_deleted":"0","num_feature":"81","num_nodes":"17","size_leaf_vector":"1"}},{"base_weights":[3.7637636E-2,-5.858808E-1,2.1023992E-1,-8.654392E-1,-1.9038557E-1,4.0462312E-1,-4.1961345E-1,-4.612679E-1,-1E0,1.4325866E-1,-1.7128614E-3,1.5824848E-1,5.4365563E-1,-2.4367057E-1,-2.985743E-3,-2.1437213E-3,-3.91175E-4,-3E-3,-2.087368E-3,1.4049031E-3,-4.5479106E-4,-0E0,1.8264225E-3,2.320055E-3,6.326219E-4,-1.0136784E-3,7.146731E-4],"categories":[],"categories_nodes":[],"categories_segments":[],"categories_sizes":[],"default_left":[0,0,0,0,0,0,0,0,0,0,0,0,0,0,0,0,0,0,0,0,0,0,0,0,0,0,0],"id":37,"left_children":[1,3,5,7,9,11,13,15,17,19,-1,21,23,25,-1,-1,-1,-1,-1,-1,-1,-1,-1,-1,-1,-1,-1],"loss_changes":[2.4946722E2,5.498419E1,2.2274796E2,2.7215118E1,2.7655346E1,4.725049E1,4.3023346E1,9.855648E0,3.7424927E0,1.1623515E1,0E0,3.6243454E1,6.7186005E1,1.556452E1,0E0,0E0,0E0,0E0,0E0,0E0,0E0,0E0,0E0,0E0,0E0,0E0,0E0],"parents":[2147483647,0,0,1,1,2,2,3,3,4,4,5,5,6,6,7,7,8,8,9,9,11,11,12,12,13,13],"right_children":[2,4,6,8,10,12,14,16,18,20,-1,22,24,26,-1,-1,-1,-1,-1,-1,-1,-1,-1,-1,-1,-1,-1],"split_conditions":[1.98834E-1,1.1125412E1,8.112676E-1,1.5714286E-1,1.9188192E-1,3.4226474E-1,9.3795323E-1,1.08713694E-1,1.4040174E-1,2.8205973E-1,-1.7128614E-3,1E0,6.9890326E-1,-9.799392E-2,-2.985743E-3,-2.1437213E-3,-3.91175E-4,-3E-3,-2.087368E-3,1.4049031E-3,-4.5479106E-4,-0E0,1.8264225E-3,2.320055E-3,6.326219E-4,-1.0136784E-3,7.146731E-4],"split_indices":[70,69,70,51,51,70,70,70,70,20,0,71,70,32,0,0,0,0,0,0,0,0,0,0,0,0,0],"split_type":[0,0,0,0,0,0,0,0,0,0,0,0,0,0,0,0,0,0,0,0,0,0,0,0,0,0,0],"sum_hessian":[2.3084312E3,4.988112E2,1.8096199E3,2.9010666E2,2.0870453E2,1.3840027E3,4.256172E2,1.1827727E2,1.7182939E2,1.1117271E2,9.753182E1,5.0210776E2,8.8189496E2,3.2882645E2,9.6790726E1,6.4821815E1,5.3455456E1,1.0849059E2,6.333879E1,5.31265E1,5.8046204E1,3.7347913E2,1.2862863E2,5.1930475E2,3.6259018E2,2.7641565E2,5.2410793E1],"tree_param":{"num_deleted":"0","num_feature":"81","num_nodes":"27","size_leaf_vector":"1"}},{"base_weights":[-7.989632E-3,-6.1198896E-1,1.4045452E-1,-9.107782E-1,-3.5226718E-1,3.617544E-1,-3.886931E-1,-1E0,-1.2559126E-3,-1.1535428E-1,-2.34325E-3,-5.1254272E-2,4.8445866E-1,-1.7585297E-1,-9.3079317E-1,-2.069887E-3,-3E-3,6.995937E-4,-1.0358668E-3,-4.96241E-4,8.131707E-4,1.7471386E-3,2.4688154E-4,7.742842E-4,-8.6256536E-4,-3E-3,-1.5302914E-3],"categories":[],"categories_nodes":[],"categories_segments":[],"categories_sizes":[],"default_left":[0,0,0,0,0,0,0,0,0,0,0,0,0,0,0,0,0,0,0,0,0,0,0,0,0,0,0],"id":38,"left_children":[1,3,5,7,9,11,13,15,-1,17,-1,19,21,23,25,-1,-1,-1,-1,-1,-1,-1,-1,-1,-1,-1,-1],"loss_changes":[2.054876E2,3.4348846E1,2.1521277E2,1.8226166E1,2.4830227E1,6.593141E1,6.214881E1,3.1273499E0,0E0,1.3588599E1,0E0,1.1345547E1,3.9031067E1,1.9476421E1,1.3961716E1,0E0,0E0,0E0,0E0,0E0,0E0,0E0,0E0,0E0,0E0,0E0,0E0],"parents":[2147483647,0,0,1,1,2,2,3,3,4,4,5,5,6,6,7,7,9,9,11,11,12,12,13,13,14,14],"right_children":[2,4,6,8,10,12,14,16,-1,18,-1,20,22,24,26,-1,-1,-1,-1,-1,-1,-1,-1,-1,-1,-1,-1],"split_conditions":[1.9266917E-1,7.4821076E0,8.0837074E1,1.3416009E-1,4.1764796E-1,2.7843988E-1,9.0726256E-1,1.3001606E-1,-1.2559126E-3,1.4566578E-1,-2.34325E-3,4.4555847E1,7.4765843E-1,7.442472E-1,-2.3607132E-1,-2.069887E-3,-3E-3,6.995937E-4,-1.0358668E-3,-4.96241E-4,8.131707E-4,1.7471386E-3,2.4688154E-4,7.742842E-4,-8.6256536E-4,-3E-3,-1.5302914E-3],"split_indices":[70,69,69,70,53,70,70,51,0,51,0,43,70,70,53,0,0,0,0,0,0,0,0,0,0,0,0],"split_type":[0,0,0,0,0,0,0,0,0,0,0,0,0,0,0,0,0,0,0,0,0,0,0,0,0,0,0],"sum_hessian":[2.2769995E3,4.486452E2,1.8283542E3,2.0540475E2,2.4324043E2,1.2903022E3,5.38052E2,1.4121982E2,6.418494E1,1.5906436E2,8.417608E1,2.948753E2,9.9542694E2,3.8892346E2,1.4912856E2,5.456679E1,8.6653015E1,6.234867E1,9.671569E1,2.196148E2,7.526049E1,7.9879364E2,1.966333E2,7.8146034E1,3.1077744E2,7.985393E1,6.927463E1],"tree_param":{"num_deleted":"0","num_feature":"81","num_nodes":"27","size_leaf_vector":"1"}},{"base_weights":[5.173508E-3,-6.580273E-1,1.6490547E-1,-3.5767102E-1,-1E0,3.2324538E-1,-4.7377098E-1,-6.027973E-1,2.697496E-2,-2.0296075E-3,-3E-3,3.297645E-2,4.7469452E-1,-3.0165008E-1,-3E-3,-1.2082376E-3,-3E-3,-9.984538E-4,1.128138E-3,-4.7303314E-5,1.4098336E-3,2.2085283E-3,4.997975E-4,-1.2728331E-3,4.7256416E-4],"categories":[],"categories_nodes":[],"categories_segments":[],"categories_sizes":[],"default_left":[0,0,0,0,0,0,0,0,0,0,0,0,0,0,0,0,0,0,0,0,0,0,0,0,0],"id":39,"left_children":[1,3,5,7,9,11,13,15,17,-1,-1,19,21,23,-1,-1,-1,-1,-1,-1,-1,-1,-1,-1,-1],"loss_changes":[2.4289066E2,5.9061462E1,1.87344E2,2.6464993E1,3.4517365E0,6.493886E1,3.9606247E1,1.32061E1,1.450856E1,0E0,0E0,1.1569032E1,7.7951614E1,1.7089228E1,0E0,0E0,0E0,0E0,0E0,0E0,0E0,0E0,0E0,0E0,0E0],"parents":[2147483647,0,0,1,1,2,2,3,3,4,4,5,5,6,6,7,7,8,8,11,11,12,12,13,13],"right_children":[2,4,6,8,10,12,14,16,18,-1,-1,20,22,24,-1,-1,-1,-1,-1,-1,-1,-1,-1,-1,-1],"split_conditions":[1.8401487E-1,1.9760479E-1,8.312402E-1,1.2807149E-1,3.3394614E-1,3.3233532E-1,9.4809014E-1,1.2299094E1,4.5357812E-2,-2.0296075E-3,-3E-3,3.962621E-1,6.8966943E-1,-1.8703395E-1,-3E-3,-1.2082376E-3,-3E-3,-9.984538E-4,1.128138E-3,-4.7303314E-5,1.4098336E-3,2.2085283E-3,4.997975E-4,-1.2728331E-3,4.7256416E-4],"split_indices":[70,51,70,70,55,70,70,33,5,0,0,41,70,55,0,0,0,0,0,0,0,0,0,0,0],"split_type":[0,0,0,0,0,0,0,0,0,0,0,0,0,0,0,0,0,0,0,0,0,0,0,0,0],"sum_hessian":[2.2834004E3,4.4139142E2,1.8420089E3,2.7240155E2,1.6898985E2,1.4774836E3,3.6452533E2,1.6647583E2,1.0592573E2,5.319701E1,1.1579284E2,5.085426E2,9.68941E2,2.9178232E2,7.274303E1,1.15704254E2,5.077158E1,5.150228E1,5.4423443E1,4.5821216E2,5.033044E1,5.217382E2,4.472028E2,2.312618E2,6.052052E1],"tree_param":{"num_deleted":"0","num_feature":"81","num_nodes":"25","size_leaf_vector":"1"}},{"base_weights":[1.6709432E-2,-6.534014E-1,1.6667022E-1,-2.6768532E-1,-1E0,3.507637E-1,7.2634495E-3,-4.5222571E-1,4.5397886E-4,-3E-3,-1.684161E-3,5.8883604E-2,8.382474E-1,5.2494913E-1,-4.559314E-1,-2.121403E-3,-7.2050636E-4,5.150879E-4,-4.5727394E-4,1.92257E-3,3E-3,3E-3,1.0503039E-3,-9.2229625E-4,-3E-3],"categories":[],"categories_nodes":[],"categories_segments":[],"categories_sizes":[],"default_left":[0,0,0,0,0,0,0,0,0,0,0,0,0,0,0,0,0,0,0,0,0,0,0,0,0],"id":40,"left_children":[1,3,5,7,9,11,13,15,-1,-1,-1,17,19,21,23,-1,-1,-1,-1,-1,-1,-1,-1,-1,-1],"loss_changes":[2.3068681E2,5.6737747E1,5.4933914E1,1.6391006E1,8.27179E0,1.2337567E2,2.4286108E2,7.4061317E0,0E0,0E0,0E0,1.3322674E1,1.5337997E1,4.0776276E1,6.058515E1,0E0,0E0,0E0,0E0,0E0,0E0,0E0,0E0,0E0,0E0],"parents":[2147483647,0,0,1,1,2,2,3,3,4,4,5,5,6,6,7,7,11,11,12,12,13,13,14,14],"right_children":[2,4,6,8,10,12,14,16,-1,-1,-1,18,20,22,24,-1,-1,-1,-1,-1,-1,-1,-1,-1,-1],"split_conditions":[1.7958412E-1,1.7014389E-1,3.485317E-1,1.3416009E-1,-7.292677E-5,3.4032732E-1,7.700056E-1,3.068E3,4.5397886E-4,-3E-3,-1.684161E-3,4.9123744E-5,4.9586192E-1,5.8531743E-1,9.4809014E-1,-2.121403E-3,-7.2050636E-4,5.150879E-4,-4.5727394E-4,1.92257E-3,3E-3,3E-3,1.0503039E-3,-9.2229625E-4,-3E-3],"split_indices":[70,51,51,70,58,70,70,12,0,0,0,80,70,70,70,0,0,0,0,0,0,0,0,0,0],"split_type":[0,0,0,0,0,0,0,0,0,0,0,0,0,0,0,0,0,0,0,0,0,0,0,0,0],"sum_hessian":[2.2858713E3,4.1616388E2,1.8697074E3,2.0191734E2,2.1424655E2,8.6509784E2,1.0046096E3,1.4089803E2,6.1019318E1,1.6057378E2,5.3672764E1,5.431531E2,3.2194476E2,4.7478412E2,5.298255E2,6.079302E1,8.0105E1,3.5589203E2,1.8726103E2,1.9966135E2,1.2228343E2,1.2034504E2,3.5443906E2,4.5700037E2,7.2825134E1],"tree_param":{"num_deleted":"0","num_feature":"81","num_nodes":"25","size_leaf_vector":"1"}},{"base_weights":[6.372E-4,-5.522806E-1,1.4371327E-1,-9.1740924E-1,-2.1917173E-1,3.4067473E-1,-4.9287975E-1,-1.1907769E-3,-1E0,7.28406E-4,-3.4798113E-1,4.654199E-1,2.1730651E-1,-6.0714483E-1,6.7081004E-5,-3E-3,-2.0282369E-3,2.122211E-5,-1.5884793E-3,1.6837224E-4,1.6616925E-3,-3.584068E-4,1.3898034E-3,-1.1434655E-3,-3E-3],"categories":[],"categories_nodes":[],"categories_segments":[],"categories_sizes":[],"default_left":[0,0,0,0,0,0,0,0,0,0,0,0,0,0,0,0,0,0,0,0,0,0,0,0,0],"id":41,"left_children":[1,3,5,7,9,11,13,-1,15,-1,17,19,21,23,-1,-1,-1,-1,-1,-1,-1,-1,-1,-1,-1],"loss_changes":[1.8166943E2,5.6789337E1,2.2916597E2,1.5659546E1,1.5420172E1,2.1218185E1,2.5789589E1,0E0,3.4682007E0,0E0,1.312159E1,2.4702774E1,5.9091118E1,4.1897293E1,0E0,0E0,0E0,0E0,0E0,0E0,0E0,0E0,0E0,0E0,0E0],"parents":[2147483647,0,0,1,1,2,2,3,3,4,4,5,5,6,6,8,8,10,10,11,11,12,12,13,13],"right_children":[2,4,6,8,10,12,14,-1,16,-1,18,20,22,24,-1,-1,-1,-1,-1,-1,-1,-1,-1,-1,-1],"split_conditions":[1.3163383E1,1.368804E-1,8.112676E-1,-4.147112E-4,-4.4145417E-1,0E0,-8.448263E-2,-1.1907769E-3,7.4821076E0,7.28406E-4,-4.3720156E-1,2.4616858E-1,3.5037595E-1,9.235642E-1,6.7081004E-5,-3E-3,-2.0282369E-3,2.122211E-5,-1.5884793E-3,1.6837224E-4,1.6616925E-3,-3.584068E-4,1.3898034E-3,-1.1434655E-3,-3E-3],"split_indices":[69,70,70,58,74,7,53,0,69,0,17,70,70,70,0,0,0,0,0,0,0,0,0,0,0],"split_type":[0,0,0,0,0,0,0,0,0,0,0,0,0,0,0,0,0,0,0,0,0,0,0,0,0],"sum_hessian":[2.286222E3,4.6808636E2,1.8181355E3,2.2092068E2,2.4716568E2,1.3898362E3,4.282993E2,5.216744E1,1.6875325E2,5.2657692E1,1.9450798E2,6.862891E2,7.035471E2,3.5105853E2,7.724075E1,1.1555082E2,5.320243E1,6.551724E1,1.2899074E2,1.2357117E2,5.6271796E2,2.96529E2,4.070181E2,2.5549513E2,9.556339E1],"tree_param":{"num_deleted":"0","num_feature":"81","num_nodes":"25","size_leaf_vector":"1"}},{"base_weights":[1.9727482E-2,-6.1144066E-1,1.4731437E-1,-4.6570936E-1,-3E-3,3.203268E-1,-4.820527E-1,-7.969149E-1,-1.7454158E-1,-1.1909416E-1,4.2074844E-1,-1.6231562E-1,-7.0111626E-1,-3E-3,-1.6015989E-3,9.509018E-5,-1.4764869E-3,8.228912E-4,-7.333855E-4,1.4505665E-3,2.4805284E-5,1.4835865E-4,-1.2118298E-3,-2.7001586E-3,-6.621083E-4],"categories":[],"categories_nodes":[],"categories_segments":[],"categories_sizes":[],"default_left":[0,0,0,0,0,0,0,0,0,0,0,0,0,0,0,0,0,0,0,0,0,0,0,0,0],"id":42,"left_children":[1,3,5,7,-1,9,11,13,15,17,19,21,23,-1,-1,-1,-1,-1,-1,-1,-1,-1,-1,-1,-1],"loss_changes":[1.8553291E2,2.5996918E1,2.0904408E2,2.8921455E1,0E0,6.671945E1,2.8606468E1,1.07402725E1,1.1378967E1,1.4323446E1,3.1494583E1,9.268201E0,2.2703804E1,0E0,0E0,0E0,0E0,0E0,0E0,0E0,0E0,0E0,0E0,0E0,0E0],"parents":[2147483647,0,0,1,1,2,2,3,3,5,5,6,6,7,7,8,8,9,9,10,10,11,11,12,12],"right_children":[2,4,6,8,-1,10,12,14,16,18,20,22,24,-1,-1,-1,-1,-1,-1,-1,-1,-1,-1,-1,-1],"split_conditions":[1.6666667E-1,5.609271E-1,8.163796E-1,7.4821076E0,-3E-3,1.9511776E1,8.929794E1,3.0863658E-1,2.263234E-5,-2.1780434E-3,8.424083E1,6.970907E-1,1.6530612E-3,-3E-3,-1.6015989E-3,9.509018E-5,-1.4764869E-3,8.228912E-4,-7.333855E-4,1.4505665E-3,2.4805284E-5,1.4835865E-4,-1.2118298E-3,-2.7001586E-3,-6.621083E-4],"split_indices":[70,53,70,69,0,69,69,52,80,73,69,67,73,0,0,0,0,0,0,0,0,0,0,0,0],"split_type":[0,0,0,0,0,0,0,0,0,0,0,0,0,0,0,0,0,0,0,0,0,0,0,0,0],"sum_hessian":[2.2934006E3,3.837077E2,1.909693E3,3.00579E2,8.31287E1,1.4993104E3,4.1038254E2,1.3819266E2,1.6238634E2,2.779067E2,1.2214038E3,1.6919545E2,2.4118709E2,5.3735943E1,8.445672E1,9.859354E1,6.37928E1,6.562327E1,2.1228342E2,1.0587241E3,1.6267969E2,8.991397E1,7.928148E1,1.6858797E2,7.259912E1],"tree_param":{"num_deleted":"0","num_feature":"81","num_nodes":"25","size_leaf_vector":"1"}},{"base_weights":[4.2262603E-2,-6.3050306E-1,1.8179543E-1,-3.1787932E-1,-1E0,3.851922E-1,-3.0373457E-1,-2.4539442E-3,-1.4609304E-1,-1.5509143E-3,-3E-3,1.203663E-1,6.107667E-1,-1.3958664E-1,-8.641171E-1,-1.3903914E-3,2.549052E-4,-6.8857E-5,1.5249408E-3,2.0711282E-3,-3.2706617E-4,1.0591599E-3,-7.513221E-4,-1.6814402E-3,-3E-3],"categories":[],"categories_nodes":[],"categories_segments":[],"categories_sizes":[],"default_left":[0,0,0,0,0,0,0,0,0,0,0,0,0,0,0,0,0,0,0,0,0,0,0,0,0],"id":43,"left_children":[1,3,5,7,9,11,13,-1,15,-1,-1,17,19,21,23,-1,-1,-1,-1,-1,-1,-1,-1,-1,-1],"loss_changes":[2.1670367E2,5.064952E1,1.891348E2,1.9660246E1,1.0352905E1,8.02276E1,5.1789837E1,0E0,1.3442037E1,0E0,0E0,3.529037E1,4.2187378E1,2.4558378E1,6.700859E0,0E0,0E0,0E0,0E0,0E0,0E0,0E0,0E0,0E0,0E0],"parents":[2147483647,0,0,1,1,2,2,3,3,4,4,5,5,6,6,8,8,11,11,12,12,13,13,14,14],"right_children":[2,4,6,8,10,12,14,-1,16,-1,-1,18,20,22,24,-1,-1,-1,-1,-1,-1,-1,-1,-1,-1],"split_conditions":[1.754386E-1,1.9188192E-1,7.700056E-1,3.0363743E0,2.5743082E-1,3.5435992E-1,9.235642E-1,-2.4539442E-3,3.909642E-1,-1.5509143E-3,-3E-3,1E0,8.820101E1,1E0,1.823787E-5,-1.3903914E-3,2.549052E-4,-6.8857E-5,1.5249408E-3,2.0711282E-3,-3.2706617E-4,1.0591599E-3,-7.513221E-4,-1.6814402E-3,-3E-3],"split_indices":[70,51,70,69,53,70,70,0,30,0,0,71,69,71,80,0,0,0,0,0,0,0,0,0,0],"split_type":[0,0,0,0,0,0,0,0,0,0,0,0,0,0,0,0,0,0,0,0,0,0,0,0,0],"sum_hessian":[2.2982246E3,3.929539E2,1.9052708E3,2.2771634E2,1.6523755E2,1.3437812E3,5.6148956E2,5.5554104E1,1.7216223E2,5.3015064E1,1.1222249E2,6.2054333E2,7.2323785E2,4.3690207E2,1.2458747E2,7.259831E1,9.956393E1,4.535734E2,1.6696992E2,6.519121E2,7.1325775E1,7.86221E1,3.5828E2,5.6711887E1,6.787559E1],"tree_param":{"num_deleted":"0","num_feature":"81","num_nodes":"25","size_leaf_vector":"1"}},{"base_weights":[-3.0543852E-6,-2.3855524E-2,5.0445247E-1,-1.0468785E-1,5.990402E-2,5.123776E-4,2.4031983E-3,-2.2802773E-1,5.2282065E-1,-1.460466E-1,4.7133365E-1,-3.9088656E-4,-2.9685248E-3,3E-3,4.4399957E-4,-3E-3,-1.4699891E-4,2.6704508E-3,3.9379922E-4],"categories":[],"categories_nodes":[],"categories_segments":[],"categories_sizes":[],"default_left":[0,0,0,0,0,0,0,0,0,0,0,0,0,0,0,0,0,0,0],"id":44,"left_children":[1,3,5,7,9,-1,-1,11,13,15,17,-1,-1,-1,-1,-1,-1,-1,-1],"loss_changes":[2.8139734E1,1.5146191E1,9.956961E0,8.811832E1,9.272195E1,0E0,0E0,7.044681E1,3.911128E1,6.521611E1,5.1497803E1,0E0,0E0,0E0,0E0,0E0,0E0,0E0,0E0],"parents":[2147483647,0,0,1,1,2,2,3,3,4,4,7,7,8,8,9,9,10,10],"right_children":[2,4,6,8,10,-1,-1,12,14,16,18,-1,-1,-1,-1,-1,-1,-1,-1],"split_conditions":[3.6361753E-3,1E0,-4.30505E-3,7.076023E-1,-3.400559E-2,5.123776E-4,2.4031983E-3,-3.3333334E-1,-3.7483944E-4,1E0,-2.1600179E-4,-3.9088656E-4,-2.9685248E-3,3E-3,4.4399957E-4,-3E-3,-1.4699891E-4,2.6704508E-3,3.9379922E-4],"split_indices":[73,71,46,51,32,0,0,72,38,39,38,0,0,0,0,0,0,0,0],"split_type":[0,0,0,0,0,0,0,0,0,0,0,0,0,0,0,0,0,0,0],"sum_hessian":[2.3107063E3,2.2091465E3,1.01559784E2,1.1270012E3,1.0821451E3,5.0071636E1,5.148815E1,9.436017E2,1.8339954E2,7.212044E2,3.6094077E2,8.389283E2,1.04673416E2,7.009286E1,1.1330668E2,6.5642456E1,6.5556195E2,1.5963438E2,2.013064E2],"tree_param":{"num_deleted":"0","num_feature":"81","num_nodes":"19","size_leaf_vector":"1"}},{"base_weights":[-3.66219E-2,-6.382544E-1,1.1752335E-1,-4.7831157E-1,-3E-3,3.0498472E-1,-5.268665E-1,-4.0216342E-1,-2.72717E-3,-2.3009311E-2,3.720543E-1,-3E-3,-4.1697034E-1,-2.3461014E-3,-7.983693E-4,-1.5732453E-3,9.683537E-4,1.4659675E-3,3.1345364E-5,-6.2834786E-4,-3E-3],"categories":[],"categories_nodes":[],"categories_segments":[],"categories_sizes":[],"default_left":[0,0,0,0,0,0,0,0,0,0,0,0,0,0,0,0,0,0,0,0,0],"id":45,"left_children":[1,3,5,7,-1,9,11,13,-1,15,17,-1,19,-1,-1,-1,-1,-1,-1,-1,-1],"loss_changes":[2.12803E2,3.839389E1,2.2053275E2,1.1690811E1,0E0,3.1302887E1,2.1579102E1,1.6335659E1,0E0,4.287867E1,4.928894E1,0E0,4.4984608E1,0E0,0E0,0E0,0E0,0E0,0E0,0E0,0E0],"parents":[2147483647,0,0,1,1,2,2,3,3,5,5,6,6,7,7,9,9,10,10,12,12],"right_children":[2,4,6,8,-1,10,12,14,-1,16,18,-1,20,-1,-1,-1,-1,-1,-1,-1,-1],"split_conditions":[1.3163383E1,-4.8543374E-5,8.6621185E1,4.381449E0,-3E-3,2.4753119E1,4.6684563E-5,9.518828E-2,-2.72717E-3,1.98834E-1,7.4765843E-1,-3E-3,9.235642E-1,-2.3461014E-3,-7.983693E-4,-1.5732453E-3,9.683537E-4,1.4659675E-3,3.1345364E-5,-6.2834786E-4,-3E-3],"split_indices":[69,73,69,17,0,69,73,70,0,70,70,0,70,0,0,0,0,0,0,0,0],"split_type":[0,0,0,0,0,0,0,0,0,0,0,0,0,0,0,0,0,0,0,0,0],"sum_hessian":[2.2804695E3,4.6449542E2,1.815974E3,3.7130914E2,9.318628E1,1.4081533E3,4.0782068E2,3.1980185E2,5.1507275E1,2.3801837E2,1.1701349E3,7.02458E1,3.375749E2,8.0855E1,2.3894685E2,9.731833E1,1.4070004E2,8.8324347E2,2.8689148E2,2.5820694E2,7.9367935E1],"tree_param":{"num_deleted":"0","num_feature":"81","num_nodes":"21","size_leaf_vector":"1"}},{"base_weights":[4.620759E-3,-6.261637E-1,1.616917E-1,-3.8492948E-1,-9.87894E-1,3.408995E-1,-4.577503E-1,-7.3561496E-1,-1.5147899E-1,-3E-3,-1.9442418E-3,-1.4278073E-3,3.7272355E-1,-6.1384E-1,-1.3604093E-1,-3E-3,-1.2106524E-3,3.2136598E-4,-1.3664324E-3,1.3942812E-3,7.450923E-5,-1.012943E-3,-3E-3,-1.2259112E-3,7.733159E-4],"categories":[],"categories_nodes":[],"categories_segments":[],"categories_sizes":[],"default_left":[0,0,0,0,0,0,0,0,0,0,0,0,0,0,0,0,0,0,0,0,0,0,0,0,0],"id":46,"left_children":[1,3,5,7,9,11,13,15,17,-1,-1,-1,19,21,23,-1,-1,-1,-1,-1,-1,-1,-1,-1,-1],"loss_changes":[2.2417763E2,3.851085E1,2.0155946E2,2.2241364E1,9.556946E0,3.730356E1,2.0130203E1,9.996899E0,1.3864811E1,0E0,0E0,0E0,4.3166733E1,3.704702E1,1.5437933E1,0E0,0E0,0E0,0E0,0E0,0E0,0E0,0E0,0E0,0E0],"parents":[2147483647,0,0,1,1,2,2,3,3,4,4,5,5,6,6,7,7,8,8,12,12,13,13,14,14],"right_children":[2,4,6,8,10,12,14,16,18,-1,-1,-1,20,22,24,-1,-1,-1,-1,-1,-1,-1,-1,-1,-1],"split_conditions":[1.9266917E-1,1.9760479E-1,8.710545E1,5.570139E0,8.977157E0,3.9471335E0,1.4989702E-3,1.08713694E-1,1.6210184E1,-3E-3,-1.9442418E-3,-1.4278073E-3,7.4765843E-1,9.0726256E-1,1.5653068E-3,-3E-3,-1.2106524E-3,3.2136598E-4,-1.3664324E-3,1.3942812E-3,7.450923E-5,-1.012943E-3,-3E-3,-1.2259112E-3,7.733159E-4],"split_indices":[70,51,69,69,69,69,73,70,42,0,0,0,70,70,57,0,0,0,0,0,0,0,0,0,0],"split_type":[0,0,0,0,0,0,0,0,0,0,0,0,0,0,0,0,0,0,0,0,0,0,0,0,0],"sum_hessian":[2.2530344E3,4.473512E2,1.8056833E3,2.7168063E2,1.7567056E2,1.4018324E3,4.0385092E2,1.06002106E2,1.6567851E2,8.140037E1,9.42702E1,5.0931805E1,1.3509006E3,2.6964966E2,1.3420126E2,5.2125347E1,5.387676E1,8.933491E1,7.6343605E1,1.0666097E3,2.8429086E2,1.7996846E2,8.96812E1,8.001173E1,5.4189537E1],"tree_param":{"num_deleted":"0","num_feature":"81","num_nodes":"25","size_leaf_vector":"1"}},{"base_weights":[-1.4530164E-3,-2.1672886E-2,4.178688E-1,-2.873916E-1,-0E0,3.8185113E-4,2.0613642E-3,-2.7141701E-5,-1.5331926E-3,2.6594251E-2,-2.3248038E-1,-1.0151792E-3,1.2722195E-4,2.606791E-4,-1.0361183E-3],"categories":[],"categories_nodes":[],"categories_segments":[],"categories_sizes":[],"default_left":[0,0,0,0,0,0,0,0,0,0,0,0,0,0,0],"id":47,"left_children":[1,3,5,7,9,-1,-1,-1,-1,11,13,-1,-1,-1,-1],"loss_changes":[1.9502764E1,1.2753047E1,7.9026375E0,1.0143919E1,1.2679506E1,0E0,0E0,0E0,0E0,1.0639139E1,7.824196E0,0E0,0E0,0E0,0E0],"parents":[2147483647,0,0,1,1,2,2,3,3,4,4,9,9,10,10],"right_children":[2,4,6,8,10,-1,-1,-1,-1,12,14,-1,-1,-1,-1],"split_conditions":[3.443564E-3,-2.1854782E0,-4.149825E-3,-1.1578947E-1,9.41176E-1,3.8185113E-4,2.0613642E-3,-2.7141701E-5,-1.5331926E-3,-7.5647663E-3,-1.8043542E0,-1.0151792E-3,1.2722195E-4,2.606791E-4,-1.0361183E-3],"split_indices":[73,56,46,2,63,0,0,0,0,38,40,0,0,0,0],"split_type":[0,0,0,0,0,0,0,0,0,0,0,0,0,0,0],"sum_hessian":[2.2677832E3,2.1664072E3,1.01376015E2,1.6152121E2,2.004886E3,5.1066284E1,5.0309734E1,7.388855E1,8.763266E1,1.8006681E3,2.0421796E2,7.176707E1,1.728901E3,5.229802E1,1.5191994E2],"tree_param":{"num_deleted":"0","num_feature":"81","num_nodes":"15","size_leaf_vector":"1"}},{"base_weights":[3.0557895E-3,-3.6650535E-2,2.3087564E-1,-5.751817E-1,1.12095654E-1,5.2508265E-1,-3.6816108E-1,-3E-3,-4.5257255E-1,3.1428897E-1,-4.9087942E-1,7.643035E-1,-4.855528E-4,-2.04176E-3,-1.5040179E-4,-1.0440018E-3,-2.650414E-3,5.6397694E-4,1.4251694E-3,-1.8712064E-3,9.207106E-4,2.888587E-3,1.3979931E-3],"categories":[],"categories_nodes":[],"categories_segments":[],"categories_sizes":[],"default_left":[0,0,0,0,0,0,0,0,0,0,0,0,0,0,0,0,0,0,0,0,0,0,0],"id":48,"left_children":[1,3,5,7,9,11,13,-1,15,17,19,21,-1,-1,-1,-1,-1,-1,-1,-1,-1,-1,-1],"loss_changes":[2.0959578E1,1.562022E2,6.1018784E1,2.772409E1,1.8610675E2,3.8627407E1,1.1111351E1,0E0,1.5442703E1,2.2973358E1,4.1428123E1,9.178268E0,0E0,0E0,0E0,0E0,0E0,0E0,0E0,0E0,0E0,0E0,0E0],"parents":[2147483647,0,0,1,1,2,2,3,3,4,4,5,5,6,6,8,8,9,9,10,10,11,11],"right_children":[2,4,6,8,10,12,14,-1,16,18,20,22,-1,-1,-1,-1,-1,-1,-1,-1,-1,-1,-1],"split_conditions":[1.4989702E-3,1.8401487E-1,8.2546264E-1,4.6413504E-2,7.802703E-1,-1.0458546E-1,-2.7543086E-1,-3E-3,6.464727E-1,1E0,-6.0486592E-2,4.231615E-2,-4.855528E-4,-2.04176E-3,-1.5040179E-4,-1.0440018E-3,-2.650414E-3,5.6397694E-4,1.4251694E-3,-1.8712064E-3,9.207106E-4,2.888587E-3,1.3979931E-3],"split_indices":[73,70,70,70,70,53,53,0,53,71,53,7,0,0,0,0,0,0,0,0,0,0,0],"split_type":[0,0,0,0,0,0,0,0,0,0,0,0,0,0,0,0,0,0,0,0,0,0,0],"sum_hessian":[2.2731848E3,1.9353582E3,3.3782666E2,4.183526E2,1.5170056E3,2.272823E2,1.10544365E2,6.761259E1,3.5074002E2,1.1373943E3,3.796113E2,1.6894925E2,5.8333057E1,5.3820038E1,5.6724327E1,2.8608704E2,6.4652985E1,6.411582E2,4.9623605E2,3.263301E2,5.328121E1,9.775185E1,7.119741E1],"tree_param":{"num_deleted":"0","num_feature":"81","num_nodes":"23","size_leaf_vector":"1"}},{"base_weights":[6.8371077E-3,-6.1394393E-1,1.5299366E-1,-8.7445724E-1,-3.6900812E-1,3.6695167E-1,-3.9552826E-1,-4.6948397E-1,-3E-3,4.2078094E-4,-5.8551645E-1,1.3288333E-1,5.4529953E-1,-5.31667E-1,2.0660665E-3,-2.684854E-3,-1.6409576E-5,-4.1388752E-4,-2.3381878E-3,1.4117833E-3,1.8931845E-4,2.2710522E-3,7.161959E-4,-1.052511E-3,-3E-3],"categories":[],"categories_nodes":[],"categories_segments":[],"categories_sizes":[],"default_left":[0,0,0,0,0,0,0,0,0,0,0,0,0,0,0,0,0,0,0,0,0,0,0,0,0],"id":49,"left_children":[1,3,5,7,9,11,13,15,-1,-1,17,19,21,23,-1,-1,-1,-1,-1,-1,-1,-1,-1,-1,-1],"loss_changes":[2.0869142E2,2.7219818E1,2.1889734E2,2.3987213E1,2.6044569E1,5.5684998E1,7.8464516E1,2.0795746E1,0E0,0E0,1.3722691E1,1.3800732E1,4.876117E1,4.7476593E1,0E0,0E0,0E0,0E0,0E0,0E0,0E0,0E0,0E0,0E0,0E0],"parents":[2147483647,0,0,1,1,2,2,3,3,4,4,5,5,6,6,7,7,10,10,11,11,12,12,13,13],"right_children":[2,4,6,8,10,12,14,16,-1,-1,18,20,22,24,-1,-1,-1,-1,-1,-1,-1,-1,-1,-1,-1],"split_conditions":[1.8401487E-1,8.088466E0,7.802703E-1,1.7014389E-1,1.3905326E-1,3.5037595E-1,-5.517507E-2,9.874724E-2,-3E-3,4.2078094E-4,-6.586115E0,1.8255578E-1,6.791745E-1,9.235642E-1,2.0660665E-3,-2.684854E-3,-1.6409576E-5,-4.1388752E-4,-2.3381878E-3,1.4117833E-3,1.8931845E-4,2.2710522E-3,7.161959E-4,-1.052511E-3,-3E-3],"split_indices":[70,69,70,51,51,70,32,70,0,0,65,51,70,70,0,0,0,0,0,0,0,0,0,0,0],"split_type":[0,0,0,0,0,0,0,0,0,0,0,0,0,0,0,0,0,0,0,0,0,0,0,0,0],"sum_hessian":[2.2901978E3,4.345749E2,1.8556228E3,2.071107E2,2.274642E2,1.3360521E3,5.195707E2,1.0348324E2,1.0362746E2,6.737663E1,1.6008757E2,5.8049243E2,7.555597E2,4.6292444E2,5.6646263E1,5.245282E1,5.1030422E1,5.0202198E1,1.0988537E2,9.620764E1,4.842848E2,4.4421317E2,3.113465E2,3.578184E2,1.05106064E2],"tree_param":{"num_deleted":"0","num_feature":"81","num_nodes":"25","size_leaf_vector":"1"}},{"base_weights":[1.3749643E-2,-5.3026545E-1,1.7561947E-1,-3.9172345E-1,-8.6780095E-1,3.6348912E-1,-4.2481738E-1,-7.229754E-1,-1.9913419E-1,-3E-3,-1.5659226E-3,4.6110463E-1,1.910043E-1,-3.1180373E-1,-6.727729E-1,-3E-3,-1.3681772E-3,-1.154105E-3,4.504352E-4,5.229249E-4,1.7753234E-3,8.019839E-4,-7.3805504E-4,1.9047929E-4,-1.9327017E-3,-1.1107787E-3,-2.9678487E-3],"categories":[],"categories_nodes":[],"categories_segments":[],"categories_sizes":[],"default_left":[0,0,0,0,0,0,0,0,0,0,0,0,0,0,0,0,0,0,0,0,0,0,0,0,0,0,0],"id":50,"left_children":[1,3,5,7,9,11,13,15,17,-1,-1,19,21,23,25,-1,-1,-1,-1,-1,-1,-1,-1,-1,-1,-1,-1],"loss_changes":[2.0339934E2,2.4093262E1,2.0125279E2,2.3946114E1,1.2214409E1,2.2594162E1,1.151799E1,1.2721817E1,1.6334038E1,0E0,0E0,3.2011322E1,1.696954E1,3.7707672E1,1.1674534E1,0E0,0E0,0E0,0E0,0E0,0E0,0E0,0E0,0E0,0E0,0E0,0E0],"parents":[2147483647,0,0,1,1,2,2,3,3,4,4,5,5,6,6,7,7,8,8,11,11,12,12,13,13,14,14],"right_children":[2,4,6,8,10,12,14,16,18,-1,-1,20,22,24,26,-1,-1,-1,-1,-1,-1,-1,-1,-1,-1,-1,-1],"split_conditions":[1.5764449E1,3.9764E1,8.6621185E1,3.9471335E0,9.8988026E-1,-5.425493E-4,-8.9709857E-4,1.08713694E-1,2.0338982E-1,-3E-3,-1.5659226E-3,3.3757225E-1,7.6496714E-1,8.463497E-1,8.76943E-1,-3E-3,-1.3681772E-3,-1.154105E-3,4.504352E-4,5.229249E-4,1.7753234E-3,8.019839E-4,-7.3805504E-4,1.9047929E-4,-1.9327017E-3,-1.1107787E-3,-2.9678487E-3],"split_indices":[69,43,69,69,34,37,37,70,70,0,0,70,70,70,70,0,0,0,0,0,0,0,0,0,0,0,0],"split_type":[0,0,0,0,0,0,0,0,0,0,0,0,0,0,0,0,0,0,0,0,0,0,0,0,0,0,0],"sum_hessian":[2.29983E3,5.256329E2,1.7741973E3,3.767838E2,1.4884906E2,1.352605E3,4.2159225E2,1.3554442E2,2.4123938E2,7.559347E1,7.325559E1,8.5977893E2,4.9282608E2,2.9408505E2,1.275072E2,5.120885E1,8.433557E1,1.583427E2,8.289669E1,2.717756E2,5.880033E2,4.2118848E2,7.16376E1,1.3818976E2,1.5589531E2,6.8221725E1,5.9285473E1],"tree_param":{"num_deleted":"0","num_feature":"81","num_nodes":"27","size_leaf_vector":"1"}},{"base_weights":[-2.2690764E-3,-6.070415E-1,1.390561E-1,-4.3387544E-1,-3E-3,3.0778116E-1,-2.8709608E-1,-2.2778337E-1,-6.7719483E-1,4.3044963E-1,1.1389736E-1,-3.683554E-1,1.1817897E-3,-1.7333999E-3,-2.0016811E-4,-2.7488326E-3,-1.2924785E-3,5.5261387E-4,1.5996811E-3,5.6096807E-4,-6.4065756E-4,-8.198061E-4,-3E-3],"categories":[],"categories_nodes":[],"categories_segments":[],"categories_sizes":[],"default_left":[0,0,0,0,0,0,0,0,0,0,0,0,0,0,0,0,0,0,0,0,0,0,0],"id":51,"left_children":[1,3,5,7,-1,9,11,13,15,17,19,21,-1,-1,-1,-1,-1,-1,-1,-1,-1,-1,-1],"loss_changes":[1.9433537E2,3.9706635E1,1.3244968E2,1.663229E1,0E0,3.1141685E1,2.9536186E1,1.0549796E1,8.196861E0,2.0057602E1,1.265247E1,2.9512226E1,0E0,0E0,0E0,0E0,0E0,0E0,0E0,0E0,0E0,0E0,0E0],"parents":[2147483647,0,0,1,1,2,2,3,3,5,5,6,6,7,7,8,8,9,9,10,10,11,11],"right_children":[2,4,6,8,-1,10,12,14,16,18,20,22,-1,-1,-1,-1,-1,-1,-1,-1,-1,-1,-1],"split_conditions":[1.1528E1,-4.8543374E-5,8.0837074E1,-5.292248E-1,-3E-3,-7.245236E-4,-4.5204394E-2,-1.5251211E0,-9.166749E-4,3.1744108E1,1.51935E5,-5.8850925E-4,1.1817897E-3,-1.7333999E-3,-2.0016811E-4,-2.7488326E-3,-1.2924785E-3,5.5261387E-4,1.5996811E-3,5.6096807E-4,-6.4065756E-4,-8.198061E-4,-3E-3],"split_indices":[69,73,69,54,0,38,53,54,46,69,14,47,0,0,0,0,0,0,0,0,0,0,0],"split_type":[0,0,0,0,0,0,0,0,0,0,0,0,0,0,0,0,0,0,0,0,0,0,0],"sum_hessian":[2.2583223E3,4.2719125E2,1.831131E3,3.35457E2,9.173426E1,1.3130057E3,5.181253E2,1.848315E2,1.5062549E2,8.011233E2,5.1188235E2,4.6436963E2,5.375568E1,5.563856E1,1.2919293E2,7.2653175E1,7.797231E1,2.3898567E2,5.6213763E2,4.204223E2,9.146005E1,4.1015918E2,5.4210453E1],"tree_param":{"num_deleted":"0","num_feature":"81","num_nodes":"23","size_leaf_vector":"1"}},{"base_weights":[1.7427804E-2,-5.266919E-1,1.5744755E-1,-3.885328E-1,-1E0,3.2570285E-1,-4.7322378E-1,-6.8662524E-1,-1.543799E-1,-2.1351266E-3,-3E-3,-2.3707664E-2,4.2357463E-1,-2.9189882E-1,-7.7778435E-1,-9.549004E-4,-2.7139585E-3,5.6650623E-4,-1.0562589E-3,2.811227E-3,-6.660207E-4,2.162254E-3,8.78132E-4,-1.7840654E-3,-2.1198204E-4,-1.3033608E-3,-2.8874036E-3],"categories":[],"categories_nodes":[],"categories_segments":[],"categories_sizes":[],"default_left":[0,0,0,0,0,0,0,0,0,0,0,0,0,0,0,0,0,0,0,0,0,0,0,0,0,0,0],"id":52,"left_children":[1,3,5,7,9,11,13,15,17,-1,-1,19,21,23,25,-1,-1,-1,-1,-1,-1,-1,-1,-1,-1,-1,-1],"loss_changes":[1.755126E2,3.0625305E1,1.9482149E2,2.5570156E1,2.0783997E0,4.9743362E1,2.0874962E1,1.2260391E1,1.486023E1,0E0,0E0,6.1565994E1,4.359601E1,1.6410662E1,8.055679E0,0E0,0E0,0E0,0E0,0E0,0E0,0E0,0E0,0E0,0E0,0E0,0E0],"parents":[2147483647,0,0,1,1,2,2,3,3,4,4,5,5,6,6,7,7,8,8,11,11,12,12,13,13,14,14],"right_children":[2,4,6,8,10,12,14,16,18,-1,-1,20,22,24,26,-1,-1,-1,-1,-1,-1,-1,-1,-1,-1,-1,-1],"split_conditions":[1.3163383E1,-8.121346E-4,8.893783E1,3.7259688E0,3.7995778E-4,2.8625175E1,-2.3757978E-3,1.42E2,-2.7206036E-1,-2.1351266E-3,-3E-3,3.1303428E-2,3.364465E-1,8.192835E-1,9.238875E1,-9.549004E-4,-2.7139585E-3,5.6650623E-4,-1.0562589E-3,2.811227E-3,-6.660207E-4,2.162254E-3,8.78132E-4,-1.7840654E-3,-2.1198204E-4,-1.3033608E-3,-2.8874036E-3],"split_indices":[69,38,69,69,48,69,47,10,1,0,0,32,41,41,69,0,0,0,0,0,0,0,0,0,0,0,0],"split_type":[0,0,0,0,0,0,0,0,0,0,0,0,0,0,0,0,0,0,0,0,0,0,0,0,0,0,0],"sum_hessian":[2.293188E3,4.674752E2,1.8257128E3,3.66918E2,1.005572E2,1.4426039E3,3.8310892E2,1.5878009E2,2.0813791E2,5.0539997E1,5.0017204E1,3.148762E2,1.1277277E3,2.4362279E2,1.3948613E2,6.172241E1,9.7057686E1,7.518266E1,1.3295523E2,5.2163803E1,2.627124E2,3.4085342E2,7.868742E2,1.0047511E2,1.4314767E2,5.2080154E1,8.740597E1],"tree_param":{"num_deleted":"0","num_feature":"81","num_nodes":"27","size_leaf_vector":"1"}},{"base_weights":[-6.9430065E-3,-5.475688E-1,1.4201006E-1,-4.1699657E-1,-9.118612E-1,3.0755758E-1,-4.3930033E-1,2.3834711E-4,-5.129724E-1,-3E-3,-1.6055714E-3,2.8314567E-1,2.4647512E-3,-5.3004646E-1,5.146172E-4,-7.204653E-4,-2.7027272E-3,9.4352836E-5,1.2381161E-3,-8.973584E-4,-3E-3],"categories":[],"categories_nodes":[],"categories_segments":[],"categories_sizes":[],"default_left":[0,0,0,0,0,0,0,0,0,0,0,0,0,0,0,0,0,0,0,0,0],"id":53,"left_children":[1,3,5,7,9,11,13,-1,15,-1,-1,17,-1,19,-1,-1,-1,-1,-1,-1,-1],"loss_changes":[1.863381E2,2.3052734E1,1.7449883E2,1.8170837E1,9.793762E0,1.7430618E1,2.2807915E1,0E0,3.2684044E1,0E0,0E0,4.3832954E1,0E0,4.106875E1,0E0,0E0,0E0,0E0,0E0,0E0,0E0],"parents":[2147483647,0,0,1,1,2,2,3,3,4,4,5,5,6,6,8,8,11,11,13,13],"right_children":[2,4,6,8,10,12,14,-1,16,-1,-1,18,-1,20,-1,-1,-1,-1,-1,-1,-1],"split_conditions":[1.98834E-1,5.799106E-4,8.2280433E-1,-2.0619347E-3,3.843427E-1,3.838368E-3,-1.29906E-2,2.3834711E-4,1.9040655E-1,-3E-3,-1.6055714E-3,3.3508772E-1,2.4647512E-3,9.235642E-1,5.146172E-4,-7.204653E-4,-2.7027272E-3,9.4352836E-5,1.2381161E-3,-8.973584E-4,-3E-3],"split_indices":[70,45,70,73,6,73,55,0,51,0,0,70,0,70,0,0,0,0,0,0,0],"split_type":[0,0,0,0,0,0,0,0,0,0,0,0,0,0,0,0,0,0,0,0,0],"sum_hessian":[2.2990315E3,4.9617322E2,1.8028583E3,3.6942365E2,1.2674957E2,1.4046417E3,3.9821658E2,5.9060658E1,3.1036298E2,6.7788E1,5.8961575E1,1.3448472E3,5.9794544E1,3.476525E2,5.056409E1,1.848757E2,1.25487274E2,4.591685E2,8.8567865E2,2.4334694E2,1.04305565E2],"tree_param":{"num_deleted":"0","num_feature":"81","num_nodes":"21","size_leaf_vector":"1"}},{"base_weights":[-1.3395655E-2,-5.276382E-1,1.13882914E-1,-6.692035E-1,-2.5528592E-1,2.8757253E-1,-3.792102E-1,-4.3654814E-1,-9.8143315E-1,6.413163E-4,-4.837498E-1,9.6454255E-2,3.664805E-1,-6.986297E-1,-2.5776458E-1,-2.5253403E-3,-1.2475728E-4,-3E-3,-1.6181966E-3,-5.647732E-4,-2.2612368E-3,-3.6874946E-4,3E-3,2.2059062E-3,7.1985525E-4,-1.1184626E-3,-3E-3,-1.5673776E-4,-2.8081692E-3],"categories":[],"categories_nodes":[],"categories_segments":[],"categories_sizes":[],"default_left":[0,0,0,0,0,0,0,0,0,0,0,0,0,0,0,0,0,0,0,0,0,0,0,0,0,0,0,0,0],"id":54,"left_children":[1,3,5,7,9,11,13,15,17,-1,19,21,23,25,27,-1,-1,-1,-1,-1,-1,-1,-1,-1,-1,-1,-1,-1,-1],"loss_changes":[1.4937212E2,1.6982384E1,1.5647472E2,2.0563248E1,1.7790493E1,2.0182777E1,1.811943E1,2.7651875E1,1.0482033E1,0E0,8.3236885E0,1.0073762E2,4.413002E1,1.4552048E1,4.8594925E1,0E0,0E0,0E0,0E0,0E0,0E0,0E0,0E0,0E0,0E0,0E0,0E0,0E0,0E0],"parents":[2147483647,0,0,1,1,2,2,3,3,4,4,5,5,6,6,7,7,8,8,10,10,11,11,12,12,13,13,14,14],"right_children":[2,4,6,8,10,12,14,16,18,-1,20,22,24,26,28,-1,-1,-1,-1,-1,-1,-1,-1,-1,-1,-1,-1,-1,-1],"split_conditions":[1.3163383E1,7.4821076E0,8.472152E1,-2.9199672E-1,-6.586115E0,3.3718803E1,1.8973513E-1,1.3416009E-1,1.368804E-1,6.413163E-4,-1.682477E-3,5.664662E-1,3.0090687E-1,8.796454E-1,9.235642E-1,-2.5253403E-3,-1.2475728E-4,-3E-3,-1.6181966E-3,-5.647732E-4,-2.2612368E-3,-3.6874946E-4,3E-3,2.2059062E-3,7.1985525E-4,-1.1184626E-3,-3E-3,-1.5673776E-4,-2.8081692E-3],"split_indices":[69,69,69,54,65,69,52,70,70,0,47,41,41,70,70,0,0,0,0,0,0,