tree
version=v4
num_class=1
num_tree_per_iteration=1
label_index=0
max_feature_idx=80
objective=binary sigmoid:1
feature_names=scanner_score dir_obi obi_1 obi_5 obi_20 obi_shock obi_zscore obi_slope_5 ob_spread_bps spread_bps_ratio ob_depth_bid_1 ob_depth_ask_1 ob_depth_bid_5 ob_depth_ask_5 ob_depth_bid_20 ob_depth_ask_20 depth_ratio_5 depth_delta_5 ob_ask_wall_size_20 ob_bid_wall_size_20 ob_ask_wall_conc_20 ob_bid_wall_conc_20 ob_ask_wall_levels_20 ob_bid_wall_levels_20 ob_microprice_dev_bps ob_mid_close_dist ob_quote_count trade_gini dir_aggressor dir_net_taker large_trade_vol_ratio volume_pressure_5 signed_flow_accel trade_intensity rvol vol_change_rate natr_20 dir_ema20_dist dir_ema50_dist ema_trend dir_z_vwap bb_percent_b bb_width rsi_7 adx_14 dir_ret_1 dir_ret_5 dir_ret_20 realized_vol_5 realized_vol_20 ret_vol_ratio range_pos_20 price_efficiency_20 price_velocity_1 price_velocity_3 price_accel_1 price_accel_3 ema_spread ema_spread_slope rsi_slope_3 upper_wick_frac lower_wick_frac time_sin time_cos event_dir breakout_strength range_compression vol_regime data_from_orderbook rsi_7_5m range_pos_20_5m ema_trend_15m tf_alignment momentum_divergence_5m obi_momentum_3 depth_absorption_rate depth_divergence flow_persistence_5 spread_vol_10 quote_intensity_change price_impact
feature_infos=[0.063076004385948181:2.7034978866577148] [-0.99262034893035889:0.99149823188781738] [-0.99995362758636475:0.99997514486312866] [-0.99861139059066772:0.99804198741912842] [-0.99262034893035889:0.98911356925964355] [-1.9609988927841187:1.9484851360321045] [-109.46050262451172:78.802116394042969] [-1.9446015357971191:1.9644801616668701] [0.021074259653687477:1] [0.030903732404112816:37.640335083007812] [1:80895] [1:99138] [5:242856] [5:206802] [20:470645] [20:578671] [0.00069431297015398741:0.99902099370956421] [-0.99992960691452026:8858.900390625] [0:158171] [0:135780] [0:0.98346686363220215] [0:0.99214357137680054] [0:8] [0:8] [-0.067275308072566986:0.066379241645336151] [-0.0031676406506448984:0.0051629976369440556] [0:817445] [0.31211090087890625:0.94573736190795898] [0.025004643946886063:0.49890130758285522] [0.050009287893772125:0.99780261516571045] [0:0.89754050970077515] [-0.69835036993026733:0.73696857690811157] [-1.686272144317627:1.5327068567276001] [7.3658127784729004:15.03297233581543] [0.097749985754489899:46.893901824951172] [-0.95477712154388428:85.434295654296875] [8.972272917162627e-05:0.022002099081873894] [-0.025496423244476318:0.0028244664426892996] [-0.034302696585655212:0.021337460726499557] [-1:1] [-41.285324096679688:40.817062377929688] [-0.17406576871871948:1.1913710832595825] [1.1136131286621094:362.0791015625] [5.9929318428039551:94.490287780761719] [5.8311305046081543:79.556854248046875] [2.3835914362280164e-06:0.010266796685755253] [-0.022421278059482574:0.013427678495645523] [-0.066939890384674072:0.010747605934739113] [1.2212154615554027e-05:0.011438860557973385] [7.0451147621497512e-05:0.022715657949447632] [0.051046915352344513:2.1105091571807861] [0.0025575447361916304:0.99607455730438232] [0:0.88368797302246094] [-2.2743182182312012:2.4404778480529785] [-6.5388011932373047:6.209324836730957] [-7.5450992584228516:7.3188028335571289] [-9.8549079895019531:9.3383264541625977] [-0.021674051880836487:0.01425749808549881] [-0.0031543702352792025:0.006186335813254118] [-50.812911987304688:55.078094482421875] [0:1] [0:1] [-1:1] [-1:1] [-1:1] [-17.473747253417969:-0.97051876783370972] [0.073858782649040222:1] [0.097680918872356415:1.7052819728851318] [0:1] [8.6818159616086632e-05:99.994621276855469] [0:1] [-1:1] [-1:1] [-0.03073452040553093:0.026462748646736145] [-1.9573948383331299:1.9321985244750977] [0.016694329679012299:297372.09375] [-15477:20484.599609375] [-0.99990254640579224:0.99978059530258179] [0:0.51352369785308838] [-1:55.161220550537109] [2.0138978129580209e-07:0.00077191280433908105]
tree_sizes=1695 1830 1496 1799 1381 1791 1795 1802 1797 1809 1804 1798 1798 1794 1471 1804 1493 1710 1810 1696 1587 1582

Tree=0
num_leaves=14
num_cat=0
split_feature=70 70 70 70 70 71 69 73 32 53 70 53 66
split_gain=492.163 458.42 152.424 180.789 97.465 70.1082 62.9038 52.9891 51.9746 44.3447 35.4374 28.4938 17.6007
threshold=0.17641627788543704 0.81372392177581798 0.35185974836349493 0.69498673081398021 0.92896336317062389 1.0000000180025095e-35 7.6232132911682138 0.00020024493278469893 -0.061091970652341836 -0.17982275784015653 0.098618995398283019 0.068607825785875334 0.42091003060340887
decision_type=2 2 2 2 2 2 2 2 2 2 2 2 2
left_child=6 2 5 -4 8 -2 7 10 -3 -6 -1 -8 -13
right_child=1 4 3 -5 9 -7 11 -9 -10 -11 -12 12 -14
leaf_value=-0.0051114831224056499 -0.0018476055899705498 -0.0027968591756044334 0.00084297844590332629 -0.0011225054163320424 -0.0057792128837398492 -0.00019026435985801762 -0.00097796285651766558 -0.0069827952919781135 -6.4597736137789186e-05 -0.0029538059053505266 -0.003097963983935817 -0.0041783665112203362 -0.0027521547195146403
leaf_weight=153.5015697479248 892.50294543802738 554.33836250007153 951.22727620601654 756.86739104986191 144.46258181333542 307.14450977742672 57.347804993391037 69.019332364201546 68.86765231192112 79.809273660182953 169.69557392597198 118.57862585783005 239.42805960774422
leaf_count=579 3093 1970 3059 2572 554 1017 194 273 227 285 608 437 850
internal_value=-0.00162443 -0.00116728 -0.000601443 -2.63341e-05 -0.00310652 -0.0014216 -0.00374609 -0.00460703 -0.00249091 -0.0047944 -0.00406984 -0.00292272 -0.00323611
internal_weight=4562.79 3755.22 2907.74 1708.09 847.478 1199.65 807.571 392.216 623.206 224.272 323.197 415.354 358.007
internal_count=15718 12777 9741 5631 3036 4110 2941 1460 2197 839 1187 1481 1287
is_linear=0
shrinkage=1


Tree=1
num_leaves=15
num_cat=0
split_feature=71 53 51 57 57 57 57 78 38 57 38 37 57 38
split_gain=25.5194 202.119 185.346 144.098 126.216 109.318 103.584 32.7007 26.9151 25.3221 19.2339 18.0738 18.0116 18.0003
threshold=1.0000000180025095e-35 0.027547419071197513 0.70058840513229381 0.00015239270578604194 -8.1809685070766122e-05 -0.0001959547589649446 0.00018546672799857336 0.0001085582480300218 -0.00084450692520476867 -0.00030417351808864618 -0.0005445500137284397 -0.00081356297596357752 0.0021960667800158267 -0.00055587862152606238
decision_type=2 2 2 2 2 2 2 2 2 2 2 2 2 2
left_child=2 6 4 -3 7 11 9 -1 -6 -2 -7 -4 -8 -5
right_child=1 3 5 13 8 10 12 -9 -10 -11 -12 -13 -14 -15
leaf_value=-0.0001289845460100937 -0.0037925403331174512 0.0040033557315112484 0.0014123866271650023 0.002410348996601325 -0.0011006947594441919 0.0048324471926146067 -0.00013211065128808003 -0.001312705687294833 -0.003192694194789228 -0.0014800449058283403 0.0024301205313161768 -0.00010963688805245795 0.00075825291587364326 0.00056501839614928279
leaf_weight=1364.2250838577747 50.654179289937019 170.71903991699219 116.25367577373981 52.290385276079178 83.674682602286339 72.368842542171478 1069.1224385201931 246.38921147584915 180.29027144610882 262.90861742198467 63.502338975667953 172.21584005653858 250.73791858553886 407.43461832404137
leaf_count=4716 193 524 385 168 297 216 3696 879 675 942 204 595 846 1382
internal_value=-1.87631e-08 0.000225969 -0.000222564 0.001666 -0.000628048 0.00156326 -0.000331191 -0.000311472 -0.00254281 -0.00187528 0.00376121 0.000509243 3.79258e-05 0.000784443
internal_weight=4562.79 2263.87 2298.92 630.444 1874.58 424.341 1633.42 1610.61 263.965 313.563 135.871 288.47 1319.86 459.725
internal_count=15718 7751 7967 2074 6567 1400 5677 5595 972 1135 420 980 4542 1550
is_linear=0
shrinkage=0.003


Tree=2
num_leaves=12
num_cat=0
split_feature=73 41 46 71 43 71 53 57 71 38 57
split_gain=32.6579 69.8845 67.2584 28.0955 24.1022 126.054 109.754 74.9164 64.1835 66.5816 40.6118
threshold=0.0015203662915155294 0.61395180225372326 -0.0010960263898596165 1.0000000180025095e-35 58.235250473022468 1.0000000180025095e-35 0.027547419071197513 4.9969306928687736e-05 1.0000000180025095e-35 -0.00038510569720529014 0.00024441267305519437
decision_type=2 2 2 2 2 2 2 2 2 2 2
left_child=4 -2 3 -3 5 7 -7 -1 9 -6 -10
right_child=1 2 -4 -5 8 6 -8 -9 10 -11 -12
leaf_value=-0.00023535300987879938 -0.0020838455120453423 0.0019838471939380015 0.0039328103977664961 0.00027354917956627135 0.0036131072870054441 -0.0003560938829207899 0.0016689518741018765 -0.0022864931306967799 -0.0020824208170479846 -0.00046927602208617308 -0.00048073069976291543
leaf_weight=1794.4259944707155 75.481689602136612 105.61897085607052 59.002572491765022 443.93453529477119 61.002469390630722 392.75915525853634 618.42386865615845 174.05935610830784 189.27162696421146 82.82884618639946 565.97440400719643
leaf_count=6221 275 344 181 1518 189 1366 2034 637 689 289 1975
internal_value=-1.19235e-08 0.000603372 0.000942413 0.000608254 -0.000106678 2.33203e-05 0.000883242 -0.000418858 -0.000536607 0.00128797 -0.000886569
internal_weight=4562.78 684.038 608.556 549.554 3878.75 2979.67 1011.18 1968.49 899.077 143.831 755.246
internal_count=15718 2318 2043 1862 13400 10258 3400 6858 3142 478 2664
is_linear=0
shrinkage=0.003


Tree=3
num_leaves=15
num_cat=0
split_feature=70 70 70 70 70 51 71 32 53 69 69 70 55 66
split_gain=488.523 455.007 151.296 179.37 96.7822 87.1057 68.7172 51.5899 44.0384 40.7527 34.0187 31.2288 24.1095 14.1411
threshold=0.17641627788543704 0.81372392177581798 0.35185974836349493 0.69498673081398021 0.92896336317062389 0.19260253757238391 1.0000000180025095e-35 -0.061091970652341836 -0.17982275784015653 8.7927122116088885 7.376507282257081 0.10847327485680582 0.33768522739410406 0.42091003060340887
decision_type=2 2 2 2 2 2 2 2 2 2 2 2 2 2
left_child=5 2 6 -4 7 10 -2 -3 -6 -7 11 -1 -11 -12
right_child=1 4 3 -5 8 9 -8 -9 -10 12 13 -13 -14 -15
leaf_value=-0.0030830057430984302 -0.0002197003000840718 -0.0011679291383449976 0.0024580512940570111 0.00050028977911209462 -0.0041399374313428475 -0.0043313478059020813 0.0014211195890836603 0.0015542020648227099 -0.0013243167162323983 -0.00059696877185917414 -0.0015768108580909036 -0.00088165775480766851 -0.0030313566592630107 -5.9156058611841557e-06
leaf_weight=128.21193510293961 892.50131142139435 554.33674037456512 951.22587233781815 756.86686766147614 144.46095767617226 168.74947795271873 307.14388878643513 68.867601692676544 79.808978199958801 57.96267457306385 72.308586239814758 108.54037792980671 103.17382986843586 168.61935587227345
leaf_count=479 3093 1970 3059 2572 554 650 1017 227 285 203 260 383 385 581
internal_value=-7.29434e-09 0.000455455 0.00101918 0.00159215 -0.00147656 -0.00211382 0.000202063 -0.000863109 -0.00315853 -0.00329689 -0.00128645 -0.00208963 -0.00217373 -0.000486481
internal_weight=4562.78 3755.21 2907.74 1708.09 847.474 807.566 1199.65 623.204 224.27 329.886 477.68 236.752 161.137 240.928
internal_count=15718 12777 9741 5631 3036 2941 4110 2197 839 1238 1703 862 588 841
is_linear=0
shrinkage=0.003


Tree=4
num_leaves=11
num_cat=0
split_feature=73 41 46 41 73 57 73 28 28 41
split_gain=32.4122 69.3327 66.6955 18.1763 38.389 17.4565 18.0441 17.0662 13.762 12.9907
threshold=0.0015203662915155294 0.61395180225372326 -0.0010960263898596165 0.76368167996406566 -9.3387487140716971e-05 -0.0015060022124089298 -0.0013005479704588649 0.052587872371077544 0.064218427985906615 0.92881447076797496
decision_type=2 2 2 2 2 2 2 2 2 2
left_child=3 -2 9 5 -5 7 -7 -1 -6 -3
right_child=1 2 -4 4 8 6 -8 -9 -10 -11
leaf_value=0.00087311790713344721 -0.0020755187685533617 0.00090918267081124772 0.0039166586308418969 -0.0027428804136233834 0.00048025270776982617 0.0005268659727375272 -5.1319795257584226e-05 -0.00072622161984954765 -0.00056906234935543169 -9.2202582245218736e-05
leaf_weight=67.520933926105499 75.480857744812965 382.76006071269512 59.001954406499863 63.115701571106911 146.17630822956562 634.62978480756283 2048.9635860621929 450.06555782258511 468.25776559114456 166.79205909371376
leaf_count=227 275 1286 181 234 497 2155 7068 1581 1638 576
internal_value=-2.62435e-08 0.000601085 0.000938783 -0.000106291 -0.000551907 -1.16872e-05 8.5703e-05 -0.000515025 -0.000318678 0.000606025
internal_weight=4562.76 684.035 608.554 3878.73 677.55 3201.18 2683.59 517.586 614.434 549.552
internal_count=15718 2318 2043 13400 2369 11031 9223 1808 2135 1862
is_linear=0
shrinkage=0.003


Tree=5
num_leaves=15
num_cat=0
split_feature=70 70 70 70 70 51 41 32 53 69 69 70 53 66
split_gain=485.514 452.149 150.287 178.223 96.1733 86.5537 52.6198 51.2724 43.7779 40.4817 33.8012 31.0465 16.9799 14.0619
threshold=0.17641627788543704 0.81372392177581798 0.35185974836349493 0.69498673081398021 0.92896336317062389 0.19260253757238391 0.45737859606742864 -0.061091970652341836 -0.17982275784015653 8.7927122116088885 7.376507282257081 0.10847327485680582 0.20719476789236072 0.42091003060340887
decision_type=2 2 2 2 2 2 2 2 2 2 2 2 2 2
left_child=5 2 6 -4 7 10 -2 -3 -6 -7 11 -1 -11 -12
right_child=1 4 3 -5 8 9 -8 -9 -10 12 13 -13 -14 -15
leaf_value=-0.003073671065486372 5.432765589917314e-05 -0.0011642766989962458 0.0024501699003690006 0.0004986800532833886 -0.0041271070607873184 -0.0043176877292854937 0.0028795298663592595 0.0015494664421017608 -0.0013198397081612136 -0.00068783064262382596 -0.0015724497859450962 -0.00087876193774994295 -0.0028164822826646546 -5.9539232053198423e-06
leaf_weight=128.21039037406445 1139.0454820692539 554.33530743420124 951.22173815965652 756.86675745248795 144.45812200009823 168.74623782932758 60.598229378461838 68.867523238062859 79.808695495128632 50.404613047838211 72.30830006301403 108.54011335968971 110.73093257844448 168.61934506893158
leaf_count=479 3918 1970 3059 2572 554 650 192 227 285 177 260 383 411 581
internal_value=-2.55795e-08 0.000454031 0.00101598 0.00158704 -0.00147191 -0.00210732 0.000201594 -0.000860395 -0.0031486 -0.00328665 -0.00128258 -0.00208319 -0.00216722 -0.000485173
internal_weight=4562.76 3755.2 2907.73 1708.09 847.47 807.56 1199.64 623.203 224.267 329.882 477.678 236.751 161.136 240.928
internal_count=15718 12777 9741 5631 3036 2941 4110 2197 839 1238 1703 862 588 841
is_linear=0
shrinkage=0.003


Tree=6
num_leaves=15
num_cat=0
split_feature=70 70 70 70 70 51 71 53 58 69 69 70 55 66
split_gain=482.647 449.46 149.386 177.16 95.6129 86.0446 68.1948 43.5206 42.7049 40.243 33.6018 30.8642 23.9211 13.98
threshold=0.17641627788543704 0.81372392177581798 0.35185974836349493 0.69498673081398021 0.92896336317062389 0.19260253757238391 1.0000000180025095e-35 -0.17982275784015653 3.3021820854628465e-05 8.7927122116088885 7.376507282257081 0.10847327485680582 0.33768522739410406 0.42091003060340887
decision_type=2 2 2 2 2 2 2 2 2 2 2 2 2 2
left_child=5 2 6 -4 8 10 -2 -6 -3 -7 11 -1 -11 -12
right_child=1 4 3 -5 7 9 -8 -9 -10 12 13 -13 -14 -15
leaf_value=-0.0030646410713910171 -0.00021915272930248171 0.00165306439115986 0.0024428508465885483 0.00049718797677556544 -0.0041150044767739652 -0.0043050019099255613 0.0014154204291151509 -0.0013159817449792913 -0.0011003308430023204 -0.00059044836016201288 -0.0015678675573770082 -0.00087617536689892387 -0.0030151187613625301 -5.936203165557941e-06
leaf_weight=128.20829607546329 892.50074899196625 53.866810217499733 951.21547734737396 756.86681133508682 144.45422238111496 168.74166280031204 307.14271956682205 79.808403715491295 569.33428286015987 57.96233206987381 72.307916194200516 108.53985603153706 103.17194065451622 168.61934432387352
leaf_count=479 3093 177 3059 2572 554 650 1017 285 2020 203 260 383 385 581
internal_value=-4.19835e-08 0.000452672 0.00101295 0.0015823 -0.00146754 -0.00210112 0.000201004 -0.00313935 -0.000857812 -0.00327699 -0.00127881 -0.00207706 -0.00216086 -0.000483757
internal_weight=4562.74 3755.19 2907.73 1708.08 847.464 807.551 1199.64 224.263 623.201 329.876 477.675 236.748 161.134 240.927
internal_count=15718 12777 9741 5631 3036 2941 4110 839 2197 1238 1703 862 588 841
is_linear=0
shrinkage=0.003


Tree=7
num_leaves=15
num_cat=0
split_feature=70 70 70 70 70 71 70 32 53 53 53 71 73 28
split_gain=479.799 446.785 148.494 176.104 95.0753 67.7889 53.6103 44.8427 44.18 25.7033 24.0178 13.2379 10.6362 4.28787
threshold=0.17641627788543704 0.81372392177581798 0.35185974836349493 0.69498673081398021 0.92451757192611705 1.0000000180025095e-35 0.076023902744054808 -0.061091970652341836 -0.17982275784015653 0.64573147892951976 0.18107628822326663 1.0000000180025095e-35 -3.3898741094162681e-05 0.13612738996744159
decision_type=2 2 2 2 2 2 2 2 2 2 2 2 2 2
left_child=6 2 5 -4 7 -2 10 -3 -6 11 -1 -8 -12 -11
right_child=1 4 3 -5 8 -7 9 -9 -10 13 12 -13 -14 -15
leaf_value=-0.0019357115366861551 -0.00021849679941153186 -0.0011126898212555426 0.0024355609106060188 0.00049570027873581098 -0.0040077257270909354 0.0014112068378993054 -0.0014832660156598966 0.0014613775910806048 -0.0012946300302002526 -0.003531176791337499 -0.0032754530548697973 -0.00014596417957845999 -0.0051284031810416107 -0.0021078582792077114
leaf_weight=90.61290916800499 892.50045907497406 539.77434751391411 951.20640461146832 756.86677202582359 154.2183795273304 307.14155472815037 368.16851994395256 66.886503159999847 86.577326893806458 54.13275046646595 109.13043224811554 81.809035673737526 53.014940857887268 50.671418309211731
leaf_count=329 3093 1916 3059 2572 590 1017 1320 221 309 205 410 283 209 185
internal_value=-6.0512e-08 0.000451315 0.00100992 0.00157757 -0.00146319 0.000200407 -0.00209495 -0.00082502 -0.00305094 -0.0015635 -0.00323999 -0.00124186 -0.0039364 -0.00289538
internal_weight=4562.71 3755.17 2907.72 1708.07 847.457 1199.64 807.54 606.661 240.796 554.782 252.758 449.978 162.145 104.804
internal_count=15718 12777 9741 5631 3036 4110 2941 2137 899 1993 948 1603 619 390
is_linear=0
shrinkage=0.003


Tree=8
num_leaves=15
num_cat=0
split_feature=70 70 70 70 70 51 41 32 70 51 32 70 51 34
split_gain=476.979 444.127 147.607 175.055 94.528 85.4378 52.209 50.5955 29.6974 43.9052 23.0096 26.4523 18.1732 12.8079
threshold=0.17641627788543704 0.81372392177581798 0.35185974836349493 0.69498673081398021 0.92896336317062389 0.19260253757238391 0.45737859606742864 -0.061091970652341836 0.076023902744054808 0.093963019549846663 0.089070606976747527 0.079549800604581847 0.90435320138931286 0.80368682742118847
decision_type=2 2 2 2 2 2 2 2 2 2 2 2 2 2
left_child=5 2 6 -4 7 8 -2 -3 9 -1 -7 -12 -6 -10
right_child=1 4 3 -5 12 10 -8 -9 13 -11 11 -13 -14 -15
leaf_value=-0.00028101693976980899 5.3123917083133812e-05 -0.0011544720634574677 0.0024282998496422056 0.00049421719270319989 -0.0035974660270749023 -0.0013352207240366119 0.0028672868387188029 0.0015412842585609769 0.00027026842462305015 -0.0036450815054603378 -0.0049360727414705669 -0.0028897042219293832 -0.0015029775324795149 -0.0010959995033240854
leaf_weight=56.402361378073692 1139.0426199734211 554.32978516817093 951.19453506171703 756.86664660274982 171.36817856132984 50.882303044199944 60.597591891884804 68.86713844537735 80.981697991490364 91.20674692094326 92.662836953997612 186.31626410782337 52.882397353649139 249.07649073004723
leaf_count=196 3918 1970 3059 2572 649 182 192 227 277 346 363 693 190 884
internal_value=-8.45747e-08 0.000449962 0.0010069 0.00157286 -0.00145885 -0.00208882 0.000199812 -0.000852597 -0.00126944 -0.00238059 -0.00326055 -0.0035997 -0.0031212 -0.000761169
internal_weight=4562.68 3755.15 2907.7 1708.06 847.447 807.529 1199.64 623.197 477.667 147.609 329.861 278.979 224.251 330.058
internal_count=15718 12777 9741 5631 3036 2941 4110 2197 1703 542 1238 1056 839 1161
is_linear=0
shrinkage=0.003


Tree=9
num_leaves=15
num_cat=0
split_feature=70 70 70 70 70 51 71 32 53 53 70 51 70 71
split_gain=474.168 441.486 146.724 174.014 93.9997 84.9411 67.3322 44.3039 43.8694 39.6774 29.5259 43.6498 27.5627 15.707
threshold=0.17641627788543704 0.81372392177581798 0.35185974836349493 0.69498673081398021 0.92451757192611705 0.19260253757238391 1.0000000180025095e-35 -0.061091970652341836 -0.17982275784015653 0.10904719308018686 0.076023902744054808 0.093963019549846663 0.076023902744054808 1.0000000180025095e-35
decision_type=2 2 2 2 2 2 2 2 2 2 2 2 2 2
left_child=5 2 6 -4 7 10 -2 -3 -6 -7 11 -1 -11 -12
right_child=1 4 3 -5 8 9 -8 -9 -10 12 13 -13 -14 -15
leaf_value=-0.00028020325237610794 -0.00021826135459983165 -0.001105922996951215 0.0024210674850329013 0.00049273863922752329 -0.0039867555884968682 -0.00077638897297317179 0.0014059471865441125 0.0014526412654806285 -0.0012834281805603192 -0.0051306105415991092 -0.0010443883096469795 -0.0036344871569890503 -0.0030026976130885833 0.00071651750471814668
leaf_weight=56.402259066700935 892.50006113946438 539.7696902602911 951.17989096045494 756.86641857028008 154.20599730312824 50.805239826440811 307.13952459394932 66.886026099324226 86.575735837221146 86.331187009811401 277.03637920320034 91.204026237130165 192.71459339559078 53.020645126700401
leaf_count=196 3093 1916 3059 2572 590 179 1017 221 309 340 982 346 719 179
internal_value=-1.01145e-07 0.000448617 0.0010039 0.00156817 -0.00145452 -0.0020827 0.000199227 -0.000819986 -0.00303332 -0.00325104 -0.00126571 -0.00237365 -0.00369286 -0.000758903
internal_weight=4562.64 3755.12 2907.69 1708.05 847.437 807.514 1199.64 606.656 240.782 329.851 477.663 147.606 279.046 330.057
internal_count=15718 12777 9741 5631 3036 2941 4110 2137 899 1238 1703 542 1059 1161
is_linear=0
shrinkage=0.003


Tree=10
num_leaves=15
num_cat=0
split_feature=70 70 70 70 70 71 70 32 53 53 53 71 43 29
split_gain=471.373 438.861 145.848 172.98 93.4576 66.9316 52.7023 50.0209 42.7321 25.4093 23.6687 13.0887 8.92646 4.28606
threshold=0.17641627788543704 0.81372392177581798 0.35185974836349493 0.69498673081398021 0.92896336317062389 1.0000000180025095e-35 0.076023902744054808 -0.061091970652341836 -0.17982275784015653 0.64573147892951976 0.18107628822326663 1.0000000180025095e-35 33.504625320434577 0.27225477993488317
decision_type=2 2 2 2 2 2 2 2 2 2 2 2 2 2
left_child=6 2 5 -4 7 -2 10 -3 -6 11 -1 -8 -12 -11
right_child=1 4 3 -5 8 -7 9 -9 -10 13 12 -13 -14 -15
leaf_value=-0.0019173601307605672 -0.00021760803236860093 -0.0011475757122734217 0.0024138636390846385 0.00049126446198438916 -0.0040700504768993034 0.0014017648783747896 -0.0014699550565199602 0.0015328385580110735 -0.0012967069585649879 -0.0035084709148413924 -0.0026690833317452524 -0.00014033603701411583 -0.0044162729340847754 -0.0020884709540826764
leaf_weight=90.608286663889885 892.49972394108772 554.32409523427486 951.16249783337116 756.86610372364521 144.42871925234795 307.13767346739769 368.15718308091164 68.866514414548874 79.805877715349197 54.129035159945488 51.243762508034706 81.808138906955719 110.882100045681 50.668401628732681
leaf_count=329 3093 1970 3059 2572 554 1017 1320 227 285 205 190 283 429 185
internal_value=-1.19233e-07 0.000447274 0.0010009 0.00156349 -0.00145021 0.000198636 -0.00207659 -0.000847417 -0.0031032 -0.00154967 -0.00321195 -0.00122991 -0.00390329 -0.00287388
internal_weight=4562.59 3755.09 2907.67 1708.03 847.425 1199.64 807.497 623.191 224.235 554.763 252.734 449.965 162.126 104.797
internal_count=15718 12777 9741 5631 3036 4110 2941 2197 839 1993 948 1603 619 390
is_linear=0
shrinkage=0.003


Tree=11
num_leaves=15
num_cat=0
split_feature=70 70 70 70 70 70 41 32 53 53 53 53 73 2
split_gain=468.673 446.389 131.707 171.953 92.941 58.4443 51.9265 43.7716 43.3666 26.9096 23.5337 15.0578 10.5462 3.49427
threshold=0.18282568454742434 0.81372392177581798 0.35185974836349493 0.69498673081398021 0.92451757192611705 0.076023902744054808 0.47702215611934667 -0.061091970652341836 -0.17982275784015653 0.64573147892951976 0.18107628822326663 0.047318767756223686 -3.3898741094162681e-05 -0.29729117453098292
decision_type=2 2 2 2 2 2 2 2 2 2 2 2 2 2
left_child=5 2 6 -4 7 10 -2 -3 -6 11 -1 -7 -12 -11
right_child=1 4 3 -5 8 9 -8 -9 -10 13 12 -13 -14 -15
leaf_value=-0.0019117652589753502 0.00010438349595416976 -0.0010991996510716175 0.0024066881009779748 0.00048979483107652335 -0.003963922858887043 0.00036818715663546801 0.0031625874862800593 0.0014439611726464929 -0.0012760650688689731 -0.0020158330045191965 -0.0032352468751003622 -0.0013407100534325398 -0.0050773759360243755 -0.0032661610633228635
leaf_weight=90.6066904515028 1095.8263092786074 539.76368676126003 951.14238286018372 756.86569438874722 154.18784087896347 50.999439850449562 50.365575864911079 66.885253071784973 86.574354067444801 50.763877704739571 109.11485303938389 440.25085911154747 53.002210214734077 66.184344932436943
leaf_count=329 3764 1916 3059 2572 590 174 158 221 309 185 410 1573 209 249
internal_value=-1.41359e-07 0.000463771 0.00103137 0.00155883 -0.00144592 -0.00199123 0.000244041 -0.000814983 -0.00301589 -0.001479 -0.00320266 -0.00116253 -0.00389204 -0.00276645
internal_weight=4562.53 3701.61 2854.2 1708.01 847.411 860.922 1146.19 606.649 240.762 608.199 252.724 491.25 162.117 116.948
internal_count=15718 12589 9553 5631 3036 3129 3922 2137 899 2181 948 1747 619 434
is_linear=0
shrinkage=0.003


Tree=12
num_leaves=15
num_cat=0
split_feature=70 70 70 70 51 70 71 53 69 53 69 70 53 30
split_gain=465.919 443.737 130.92 170.933 101.422 92.4043 68.6426 42.247 40.1091 40.06 37.7631 33.8331 25.8702 17.1185
threshold=0.18282568454742434 0.81372392177581798 0.35185974836349493 0.69498673081398021 0.19260253757238391 0.92896336317062389 1.0000000180025095e-35 -0.17982275784015653 8.7927122116088885 -0.037927145138382905 7.6232132911682138 0.10847327485680582 0.19255033135414126 0.46086889505386358
decision_type=2 2 2 2 2 2 2 2 2 2 2 2 2 2
left_child=4 2 6 -4 10 9 -2 -7 -6 -3 11 -1 -10 -12
right_child=1 5 3 -5 8 7 -8 -9 12 -11 13 -13 -14 -15
leaf_value=-0.0029787911820787394 -0.0001891447215308376 -0.0010769139840864166 0.0023995406813260953 0.00048832962413369342 -0.0042408743358089912 -0.0040468340215289444 0.0014863220204446447 -0.0012892001870373319 -0.00033302136687094331 0.0015921122795457768 -0.00092063406268632665 -0.00076047362679006409 -0.0028803531517949672 0.00065476374313639253
leaf_weight=131.82434564828873 851.59472499787807 569.41368161141872 951.11956253647804 756.86520229279995 174.98911248147488 144.40864960849285 294.59622736275196 79.80443100631237 50.287076830863953 53.768847525119781 156.76556946337223 118.47827439010143 128.42489923536777 100.13368067145348
leaf_count=492 2949 2020 3059 2572 674 554 973 285 175 177 554 417 478 339
internal_value=-1.60978e-07 0.000462387 0.0010283 0.00155418 -0.00198541 -0.00144164 0.000243326 -0.00308538 -0.00321526 -0.000842271 -0.00111851 -0.00194312 -0.00217519 -0.000306264
internal_weight=4562.47 3701.57 2854.18 1707.98 860.903 847.396 1146.19 224.213 353.701 623.183 507.202 250.303 178.712 256.899
internal_count=15718 12589 9553 5631 3129 3036 3922 839 1327 2197 1802 909 653 893
is_linear=0
shrinkage=0.003


Tree=13
num_leaves=15
num_cat=0
split_feature=70 70 70 70 70 51 71 32 53 69 69 70 53 66
split_gain=463.222 431.11 143.216 169.921 91.8973 83.7217 66.0852 43.4382 42.8727 39.5072 32.988 30.1562 16.5156 13.8711
threshold=0.17641627788543704 0.81372392177581798 0.35185974836349493 0.69498673081398021 0.92451757192611705 0.19260253757238391 1.0000000180025095e-35 -0.061091970652341836 -0.17982275784015653 8.7927122116088885 7.376507282257081 0.10847327485680582 0.20719476789236072 0.42091003060340887
decision_type=2 2 2 2 2 2 2 2 2 2 2 2 2 2
left_child=5 2 6 -4 7 10 -2 -3 -6 -7 11 -1 -11 -12
right_child=1 4 3 -5 8 9 -8 -9 -10 12 13 -13 -14 -15
leaf_value=-0.0030148256219743918 -0.00021654041667198032 -0.0010931516323383183 0.0023924213313420372 0.00048686888012775773 -0.0039413330739138863 -0.0042371510090673855 0.0013925715523473204 0.0014402963313264561 -0.0012687406204535895 -0.00065565189690112546 -0.0015400342797703083 -0.00085194845842606723 -0.0027537643125139584 1.5592000744395521e-05
leaf_weight=128.18466679751873 892.49863649904728 539.75706422328949 951.09407000243664 756.86460947990417 154.1650228947401 168.68780121207237 307.13222253322601 66.88473516702652 86.572702527046204 50.401557803153992 72.302956014871597 108.53521801531315 110.70976032316685 168.61427743732929
leaf_count=479 3093 1916 3059 2572 590 650 1017 221 309 177 260 383 411 581
internal_value=-1.76389e-07 0.000443331 0.000992052 0.00154955 -0.00143738 -0.0020587 0.00019706 -0.000810014 -0.0029986 -0.0032187 -0.00124766 -0.0020386 -0.00211348 -0.000460111
internal_weight=4562.41 3754.97 2907.59 1707.96 847.38 807.436 1199.63 606.642 240.738 329.799 477.637 236.72 161.111 240.917
internal_count=15718 12777 9741 5631 3036 2941 4110 2137 899 1238 1703 862 588 841
is_linear=0
shrinkage=0.003


Tree=14
num_leaves=12
num_cat=0
split_feature=69 69 69 53 51 71 46 57 69 52 51
split_gain=408.951 413.632 71.2956 221.033 71.0821 35.8764 33.9077 32.9609 27.042 39.5913 14.3286
threshold=13.21729612350464 86.796417236328139 31.658219337463382 0.0077454482670873412 0.34258137643337255 1.0000000180025095e-35 0.00029194160015322273 0.00022536880715051669 3.9417641162872319 0.099030710756778731 0.17288246005773547
decision_type=2 2 2 2 2 2 2 2 2 2 2
left_child=6 2 3 -2 -4 -3 8 -7 10 -10 -1
right_child=1 5 4 -5 -6 7 -8 -9 9 -11 -12
leaf_value=-0.0015630342603883314 0.0040999344707841508 0.0004999889558904661 0.0019094352343388729 -0.00050131512010710634 0.00078993125054684142 -0.0028103462944431981 -0.0040031479106316346 -0.0012689053550115578 -0.0031997446207607362 -0.00086744494108893506 -0.0028613504742531853
leaf_weight=147.03784337639809 108.7591574639082 80.014265701174736 922.75829842686653 617.69082999229431 1150.6359838396311 159.41713604331017 56.538961261510849 593.71746501326561 74.854207709431648 466.95690469443798 183.9470142275095
leaf_count=529 332 272 3012 2157 3877 592 217 2117 281 1648 684
internal_value=-1.94075e-07 0.000454244 0.00100638 0.000196918 0.00128952 -0.0013992 -0.00177386 -0.00160176 -0.00162063 -0.00120025 -0.00229743
internal_weight=4562.33 3632.99 2799.84 726.45 2073.39 833.149 929.335 753.135 872.796 541.811 330.985
internal_count=15718 12359 9378 2489 6889 2981 3359 2709 3142 1929 1213
is_linear=0
shrinkage=0.003


Tree=15
num_leaves=15
num_cat=0
split_feature=70 70 70 70 51 70 41 32 53 53 70 51 70 78
split_gain=458.861 437.175 128.943 168.305 100.22 91.2387 51.3053 43.1294 42.6003 39.2453 35.3079 43.2865 27.0833 12.1085
threshold=0.18282568454742434 0.81372392177581798 0.35185974836349493 0.69498673081398021 0.19260253757238391 0.92451757192611705 0.47702215611934667 -0.061091970652341836 -0.17982275784015653 0.10904719308018686 0.076023902744054808 0.093963019549846663 0.076023902744054808 2.2126917428977325e-05
decision_type=2 2 2 2 2 2 2 2 2 2 2 2 2 2
left_child=4 2 6 -4 10 7 -2 -3 -7 -6 11 -1 -11 -12
right_child=1 5 3 -5 9 8 -8 -9 -10 12 13 -13 -14 -15
leaf_value=-0.00025124922918754551 0.00010270407523021381 -0.0010881630865382198 0.0023813364704115179 0.0004848399217630959 -0.00082054078277172063 -0.0039266166892546967 0.0031426353290940397 0.001436264841150014 -0.0012625450340895278 -0.005066189292028944 0.00017231694198556637 -0.0035906638351137807 -0.0029896611857765259 -0.00098669901855111134
leaf_weight=56.396461635828018 1095.8193768113852 539.75027777254581 951.04838602244854 756.86319740116596 54.684824988245964 154.14752888679504 50.362786531448364 66.884078115224838 86.570999696850777 86.29377318918705 121.80430361628532 91.185169473290443 212.67505733668804 237.79593835771084
leaf_count=196 3764 1916 3059 2572 193 590 158 221 309 340 418 346 794 842
internal_value=-2.06366e-07 0.000458824 0.00102054 0.00154245 -0.00197045 -0.00143113 0.000241519 -0.000806029 -0.00298682 -0.00319308 -0.00110872 -0.00233497 -0.00361871 -0.000595334
internal_weight=4562.28 3701.45 2854.09 1707.91 860.836 847.353 1146.18 606.634 240.719 353.654 507.182 147.582 298.969 359.6
internal_count=15718 12589 9553 5631 3129 3036 3922 2137 899 1327 1802 542 1134 1260
is_linear=0
shrinkage=0.003


Tree=16
num_leaves=12
num_cat=0
split_feature=73 41 46 71 43 71 53 71 38 39 39
split_gain=31.593 67.5676 64.2011 27.3839 23.1599 118.696 107.27 62.5441 65.8519 61.6138 38.8096
threshold=0.0015203662915155294 0.61395180225372326 -0.0010960263898596165 1.0000000180025095e-35 58.235250473022468 1.0000000180025095e-35 0.027547419071197513 1.0000000180025095e-35 -0.00038510569720529014 1.0000000180025095e-35 1.0000000180025095e-35
decision_type=2 2 2 2 2 2 2 2 2 2 2
left_child=4 -2 3 -3 5 9 -7 8 -6 -1 -9
right_child=1 2 -4 -5 7 6 -8 10 -10 -11 -12
leaf_value=-0.00021892877900547383 -0.0020493737156234912 0.0019583047549913257 0.0038487433649275955 0.00026970909947681711 0.0035871067983643556 -0.00036842552736961431 0.001633631759795983 -0.0029193383272130714 -0.00047294766156530241 -0.0019071231173704787 -0.00064433805265529099
leaf_weight=1751.2313655614853 75.461605027318001 105.60608670115471 58.986595347523689 443.88624851405621 60.995491176843643 392.7166168987751 618.34074118733406 73.236372262239456 82.820763573050499 217.00504669547081 681.91036728024483
leaf_count=6071 275 344 181 1518 189 1366 2034 273 289 787 2391
internal_value=-2.21899e-07 0.000593286 0.000926661 0.000600163 -0.00010514 2.22998e-05 0.000856797 -0.000526608 0.00127459 -0.000406805 -0.000872103
internal_weight=4562.2 683.941 608.479 549.492 3878.26 2979.29 1011.06 898.963 143.816 1968.24 755.147
internal_count=15718 2318 2043 1862 13400 10258 3400 3142 478 6858 2664
is_linear=0
shrinkage=0.003


Tree=17
num_leaves=14
num_cat=0
split_feature=71 51 51 72 72 72 39 38 38 66 38 38 76
split_gain=23.1762 191.344 177.181 117.624 108.875 94.3271 93.1761 36.8224 36.5672 35.4847 32.3661 23.6157 10.159
threshold=1.0000000180025095e-35 0.34906201064586645 0.70058840513229381 -0.66666667163372029 0.66666667163372051 0.66666667163372051 1.0000000180025095e-35 -0.00072386098327115167 -0.00035433463926892722 0.38214926421642309 -0.00071001602918840934 -0.00072386098327115167 -1.0000000180025095e-35
decision_type=2 2 2 2 2 2 2 2 2 2 2 2 2
left_child=2 4 3 9 -2 12 8 -7 -4 -1 -6 -5 -3
right_child=1 5 6 11 10 7 -8 -9 -10 -11 -12 -13 -14
leaf_value=-0.0011038944251903068 0.0041567391347533808 -0.0032438411753776394 0.0024009171606101292 -0.0013774930407468909 0.003161394194046195 6.3743111371480278e-05 0.0046547907471915766 -0.0015288906632002471 0.00028087091607589099 -9.3468234992142993e-05 0.00074165670122868801 -0.0035409240123785287 -0.0016676776874659288
leaf_weight=414.68150871992111 118.7534369379282 81.985071644186974 101.39472737908363 75.970964252948761 53.879651248455048 1303.5116696506739 69.742540240287781 143.19272592663765 253.15088912844658 1256.5233627408743 481.27526800334454 127.14570116996765 80.968336924910545
leaf_count=1472 362 308 326 272 169 4483 209 514 865 4342 1623 481 292
internal_value=-2.17651e-07 0.000215159 -0.000212314 -0.0006088 0.00158105 -0.000340994 0.00153383 -9.57866e-05 0.000897239 -0.000345208 0.000996141 -0.00275307 -0.00249039
internal_weight=4562.18 2263.57 2298.61 1874.32 653.908 1609.66 424.288 1446.7 354.546 1671.2 535.155 203.117 162.953
internal_count=15718 7751 7967 6567 2154 5597 1400 4997 1191 5814 1792 753 600
is_linear=0
shrinkage=0.003


Tree=18
num_leaves=15
num_cat=0
split_feature=70 70 70 70 70 51 71 32 70 51 32 70 45 71
split_gain=455.609 424.121 140.878 166.97 90.6126 82.5846 64.5634 48.7033 28.5821 43.02 22.6026 25.7023 20.3671 15.2407
threshold=0.17641627788543704 0.81372392177581798 0.35185974836349493 0.69498673081398021 0.92896336317062389 0.19260253757238391 1.0000000180025095e-35 -0.061091970652341836 0.076023902744054808 0.093963019549846663 0.089070606976747527 0.083322554826736464 0.00022891932894708591 1.0000000180025095e-35
decision_type=2 2 2 2 2 2 2 2 2 2 2 2 2 2
left_child=5 2 6 -4 7 8 -2 -3 9 -1 -7 -12 -6 -10
right_child=1 4 3 -5 12 10 -8 -9 13 -11 11 -13 -14 -15
leaf_value=-0.00024932493657215212 -0.00021338934248759964 -0.001128537384311336 0.0023724276927306275 0.00048344790277807362 -0.0020500452373763724 -0.0012878856247604581 0.001377115022793836 0.0015163505486532104 -0.001019095081921104 -0.0035784601353714496 -0.0047854484241605464 -0.0027981103481331654 -0.0039322829165390491 0.00071530919112868592
leaf_weight=56.395745232701302 892.49279473721981 554.29779540002346 951.00254307687283 756.85996302962303 107.73574490845203 50.869289964437485 307.11907078325748 68.863818019628525 277.01764693856239 91.17785120010376 98.643899664282799 180.22787201404572 116.42647537589073 53.020502105355263
leaf_count=196 3093 1970 3059 2572 393 182 1017 227 982 346 386 670 446 179
internal_value=-2.13186e-07 0.000439634 0.000983895 0.00153685 -0.00142584 -0.00204187 0.000195419 -0.000832342 -0.00123638 -0.00232657 -0.00319409 -0.00353015 -0.00305378 -0.000737833
internal_weight=4562.15 3754.8 2907.47 1707.86 847.324 807.353 1199.61 623.162 477.612 147.574 329.741 278.872 224.162 330.038
internal_count=15718 12777 9741 5631 3036 2941 4110 2197 1703 542 1238 1056 839 1161
is_linear=0
shrinkage=0.003


Tree=19
num_leaves=14
num_cat=0
split_feature=70 70 70 70 70 71 69 73 32 53 70 53 41
split_gain=452.963 431.394 127.226 165.984 90.1177 66.3338 63.3955 55.5934 42.5626 42.2175 36.9168 27.1764 26.3768
threshold=0.18282568454742434 0.81372392177581798 0.35185974836349493 0.69498673081398021 0.92451757192611705 1.0000000180025095e-35 7.6232132911682138 0.00020024493278469893 -0.061091970652341836 -0.17982275784015653 0.098618995398283019 0.068607825785875334 0.32037568092346197
decision_type=2 2 2 2 2 2 2 2 2 2 2 2 2
left_child=6 2 5 -4 8 -2 7 10 -3 -6 -1 -8 -13
right_child=1 4 3 -5 9 -7 11 -9 -10 -11 -12 12 -14
leaf_value=-0.0033648302469556734 -0.00018511348484724139 -0.0010806888363290425 0.0023654136488576029 0.00048200193651706943 -0.003903556778068524 0.0014619777260554269 0.00062466393093906761 -0.0052261634589203841 0.0014271237688247701 -0.0012515625929000285 -0.0013487346376014986 -0.0010928018239395019 -0.0031001913856766677
leaf_weight=153.4238073527813 851.58894820511341 539.73749315738678 950.96704004704952 756.85908752679825 154.11543625593185 294.57685133814812 63.459559187293053 70.466430306434631 66.882334753870964 86.567095622420311 182.19557745754719 319.4699359536171 71.746990203857422
leaf_count=579 2949 1916 3059 2572 590 973 215 279 221 309 652 1135 269
internal_value=-2.31733e-07 0.000455841 0.00101384 0.00153228 -0.00142164 0.000240016 -0.00195786 -0.00281835 -0.000800411 -0.00296788 -0.00228484 -0.00118036 -0.00147484
internal_weight=4562.06 3701.29 2853.99 1707.83 847.302 1146.17 860.762 406.086 606.62 240.683 335.619 454.676 391.217
internal_count=15718 12589 9553 5631 3036 3922 3129 1510 2137 899 1231 1619 1404
is_linear=0
shrinkage=0.003


Tree=20
num_leaves=13
num_cat=0
split_feature=69 69 73 69 32 43 73 71 38 52 69 69
split_gain=400.402 405.738 96.3748 69.9122 212.849 76.6791 41.4148 30.1472 26.4503 22.9801 20.3134 9.46337
threshold=13.21729612350464 86.796417236328139 0.00013854457938577983 31.658219337463382 1.0000000180025095e-35 43.709615707397468 0.00073089724173769366 1.0000000180025095e-35 -0.00084450692520476867 0.12045038864016534 92.564407348632827 5.7619321346282968
decision_type=2 2 2 2 2 2 2 2 2 2 2 2
left_child=2 3 7 4 -2 -5 10 8 -1 -8 -3 -4
right_child=1 6 11 5 -6 -7 9 -9 -10 -11 -12 -13
leaf_value=-0.0013096123528064745 0.0041241424247273418 -0.0011853387433012085 -0.0047811937283285073 0.0022661242257522966 -0.00047323179134290007 0.00093851100045357549 -0.0026380601755157289 0.00033223839023435113 -0.002962375664727613 -0.00052223826099161109 -0.0026475745741261652 -0.0028751057528476429
leaf_weight=609.33085180819035 104.03007297217846 140.70483359694481 82.017630159854889 525.17931686341763 622.37485031783581 1548.0709258615971 50.489444270730019 84.643455237150192 102.0423661917448 402.61791436374187 239.26456066966057 51.190129622817039
leaf_count=2177 317 501 321 1696 2172 5193 187 289 381 1408 885 191
internal_value=-2.49732e-07 0.000449421 -0.00175539 0.000996276 0.000194684 0.00127667 -0.00138634 -0.0013534 -0.00155433 -0.00076856 -0.00211514 -0.00410207
internal_weight=4561.96 3632.73 929.224 2799.66 726.405 2073.25 833.077 796.017 711.373 453.107 379.969 133.208
internal_count=15718 12359 3359 9378 2489 6889 2981 2847 2558 1595 1386 512
is_linear=0
shrinkage=0.003


Tree=21
num_leaves=13
num_cat=0
split_feature=69 69 73 69 53 43 73 52 69 52 53 69
split_gain=398.04 403.334 95.836 69.4913 216.478 76.2259 41.1699 24.2785 32.6681 22.8496 22.3433 9.41063
threshold=13.21729612350464 86.796417236328139 0.00013854457938577983 31.658219337463382 0.0077454482670873412 43.709615707397468 0.00073089724173769366 0.099030710756778731 3.0599619150161748 0.12045038864016534 -0.072178121656179414 5.7619321346282968
decision_type=2 2 2 2 2 2 2 2 2 2 2 2
left_child=2 3 7 4 -2 -5 10 -1 -9 -8 -3 -4
right_child=1 6 11 5 -6 -7 9 8 -10 -11 -12 -13
leaf_value=-0.0030423604039799173 0.0040572171217011094 -0.0023992063202139084 -0.0047677534938900734 0.0022593998832500114 -0.00049683118202689376 0.00093570459313332759 -0.0026305076622029433 -0.0020916693612327065 -0.00073454235070854025 -0.00052068109442446396 -0.00028312488344505316 -0.0028669345386371794
leaf_weight=68.402855426073074 108.73434901237488 327.29261310398579 82.007743060588837 525.16808566451073 617.66254089772701 1548.0618232339621 50.488246634602547 237.64903090894222 489.95109462738037 402.61653083562851 52.667873024940491 51.187725722789764
leaf_count=256 332 1203 321 1696 2157 5193 187 867 1724 1408 183 191
internal_value=-2.64426e-07 0.000448077 -0.00175025 0.000993312 0.000194133 0.00127286 -0.00138225 -0.00134939 -0.00118233 -0.0007663 -0.00210891 -0.00409048
internal_weight=4561.89 3632.69 929.198 2799.63 726.397 2073.23 833.065 796.003 727.6 453.105 379.96 133.195
internal_count=15718 12359 3359 9378 2489 6889 2981 2847 2591 1595 1386 512
is_linear=0
shrinkage=0.003


end of trees

feature_importances:
range_pos_20_5m=88
price_velocity_1=33
rsi_7_5m=26
ema_trend_15m=24
range_pos_20=19
signed_flow_accel=15
momentum_divergence_5m=13
dir_ema50_dist=10
bb_percent_b=10
ema_spread=10
range_compression=6
rsi_7=5
dir_ret_5=4
price_efficiency_20=4
dir_aggressor=3
ema_trend=3
tf_alignment=3
price_accel_1=2
spread_vol_10=2
obi_1=1
dir_net_taker=1
large_trade_vol_ratio=1
rvol=1
dir_ema20_dist=1
dir_ret_1=1
ema_spread_slope=1
depth_divergence=1

parameters:
[boosting: gbdt]
[objective: binary]
[metric: average_precision,binary_logloss]
[tree_learner: serial]
[device_type: cpu]
[data_sample_strategy: bagging]
[data: ]
[valid: ]
[num_iterations: 1500]
[learning_rate: 0.003]
[num_leaves: 15]
[num_threads: 12]
[seed: 42]
[deterministic: 0]
[force_col_wise: 0]
[force_row_wise: 0]
[histogram_pool_size: -1]
[max_depth: 4]
[min_data_in_leaf: 20]
[min_sum_hessian_in_leaf: 50]
[bagging_fraction: 0.5]
[pos_bagging_fraction: 1]
[neg_bagging_fraction: 1]
[bagging_freq: 0]
[bagging_seed: 400]
[bagging_by_query: 0]
[feature_fraction: 0.7]
[feature_fraction_bynode: 1]
[feature_fraction_seed: 30056]
[extra_trees: 0]
[extra_seed: 12879]
[early_stopping_round: 0]
[early_stopping_min_delta: 0]
[first_metric_only: 0]
[max_delta_step: 0]
[lambda_l1: 0]
[lambda_l2: 2]
[linear_lambda: 0]
[min_gain_to_split: 0]
[drop_rate: 0.1]
[max_drop: 50]
[skip_drop: 0.5]
[xgboost_dart_mode: 0]
[uniform_drop: 0]
[drop_seed: 17869]
[top_rate: 0.2]
[other_rate: 0.1]
[min_data_per_group: 100]
[max_cat_threshold: 32]
[cat_l2: 10]
[cat_smooth: 10]
[max_cat_to_onehot: 4]
[top_k: 20]
[monotone_constraints: ]
[monotone_constraints_method: basic]
[monotone_penalty: 0]
[feature_contri: ]
[forcedsplits_filename: ]
[refit_decay_rate: 0.9]
[cegb_tradeoff: 1]
[cegb_penalty_split: 0]
[cegb_penalty_feature_lazy: ]
[cegb_penalty_feature_coupled: ]
[path_smooth: 0]
[interaction_constraints: ]
[verbosity: -1]
[saved_feature_importance_type: 0]
[use_quantized_grad: 0]
[num_grad_quant_bins: 4]
[quant_train_renew_leaf: 0]
[stochastic_rounding: 1]
[linear_tree: 0]
[max_bin: 255]
[max_bin_by_feature: ]
[min_data_in_bin: 3]
[bin_construct_sample_cnt: 200000]
[data_random_seed: 175]
[is_enable_sparse: 1]
[enable_bundle: 1]
[use_missing: 1]
[zero_as_missing: 0]
[feature_pre_filter: 1]
[pre_partition: 0]
[two_round: 0]
[header: 0]
[label_column: ]
[weight_column: ]
[group_column: ]
[ignore_column: ]
[categorical_feature: ]
[forcedbins_filename: ]
[precise_float_parser: 0]
[parser_config_file: ]
[objective_seed: 16083]
[num_class: 1]
[is_unbalance: 0]
[scale_pos_weight: 1]
[sigmoid: 1]
[boost_from_average: 1]
[reg_sqrt: 0]
[alpha: 0.9]
[fair_c: 1]
[poisson_max_delta_step: 0.7]
[tweedie_variance_power: 1.5]
[lambdarank_truncation_level: 30]
[lambdarank_norm: 1]
[label_gain: ]
[lambdarank_position_bias_regularization: 0]
[eval_at: ]
[multi_error_top_k: 1]
[auc_mu_weights: ]
[num_machines: 1]
[local_listen_port: 12400]
[time_out: 120]
[machine_list_filename: ]
[machines: ]
[gpu_platform_id: -1]
[gpu_device_id: -1]
[gpu_use_dp: 0]
[num_gpu: 1]

end of parameters

pandas_categorical:[]
