tree
version=v4
num_class=1
num_tree_per_iteration=1
label_index=0
max_feature_idx=80
objective=binary sigmoid:1
feature_names=scanner_score dir_obi obi_1 obi_5 obi_20 obi_shock obi_zscore obi_slope_5 ob_spread_bps spread_bps_ratio ob_depth_bid_1 ob_depth_ask_1 ob_depth_bid_5 ob_depth_ask_5 ob_depth_bid_20 ob_depth_ask_20 depth_ratio_5 depth_delta_5 ob_ask_wall_size_20 ob_bid_wall_size_20 ob_ask_wall_conc_20 ob_bid_wall_conc_20 ob_ask_wall_levels_20 ob_bid_wall_levels_20 ob_microprice_dev_bps ob_mid_close_dist ob_quote_count trade_gini dir_aggressor dir_net_taker large_trade_vol_ratio volume_pressure_5 signed_flow_accel trade_intensity rvol vol_change_rate natr_20 dir_ema20_dist dir_ema50_dist ema_trend dir_z_vwap bb_percent_b bb_width rsi_7 adx_14 dir_ret_1 dir_ret_5 dir_ret_20 realized_vol_5 realized_vol_20 ret_vol_ratio range_pos_20 price_efficiency_20 price_velocity_1 price_velocity_3 price_accel_1 price_accel_3 ema_spread ema_spread_slope rsi_slope_3 upper_wick_frac lower_wick_frac time_sin time_cos event_dir breakout_strength range_compression vol_regime data_from_orderbook rsi_7_5m range_pos_20_5m ema_trend_15m tf_alignment momentum_divergence_5m obi_momentum_3 depth_absorption_rate depth_divergence flow_persistence_5 spread_vol_10 quote_intensity_change price_impact
feature_infos=[0.063076004385948181:2.5799634456634521] [-0.99262034893035889:0.98911356925964355] [-0.99995291233062744:0.99997514486312866] [-0.99861139059066772:0.99767667055130005] [-0.99262034893035889:0.98911356925964355] [-1.8830132484436035:1.9484851360321045] [-62.852481842041016:78.802116394042969] [-1.9390488862991333:1.9644801616668701] [0.021275011822581291:1] [0.030903732404112816:37.640335083007812] [1:80477] [1:99138] [5:183558] [5:206802] [20:470645] [20:578671] [0.00069431297015398741:0.99883830547332764] [-0.99990934133529663:8858.900390625] [0:158171] [0:135780] [0:0.97823196649551392] [0:0.99214357137680054] [0:8] [0:8] [-0.067275308072566986:0.066379241645336151] [-0.0010716529795899987:0.0051629976369440556] [0:817445] [0.39204996824264526:0.94573736190795898] [0.025027293711900711:0.49017423391342163] [0.050054587423801422:0.98034846782684326] [0:0.89754050970077515] [-0.69835036993026733:0.66771537065505981] [1.1950171028729528e-05:1.5327068567276001] [7.3658127784729004:15.03297233581543] [0.11380415409803391:34.711051940917969] [-0.95048254728317261:85.434295654296875] [9.9553479230962694e-05:0.010340527631342411] [-0.01660703681409359:0.0028244664426892996] [-0.028204768896102905:0.0072470838204026222] [-1:1] [-41.285324096679688:40.817062377929688] [-0.17406576871871948:0.86920112371444702] [1.2597941160202026:240.03958129882812] [5.9929318428039551:62.400169372558594] [6.8909530639648438:76.034988403320312] [2.3835914362280164e-06:0.010266796685755253] [-0.02036713995039463:0.0075097572989761829] [-0.040384680032730103:0.010493265464901924] [1.5727575373603031e-05:0.011438860557973385] [8.0708559835329652e-05:0.007103282492607832] [0.051046915352344513:2.1105091571807861] [0.0025575447361916304:0.34995710849761963] [0:0.88368797302246094] [0.00093737785937264562:2.4404778480529785] [-6.5388011932373047:2.6063838005065918] [-2.0362727642059326:7.3188028335571289] [-9.8549079895019531:9.3383264541625977] [-0.015104399994015694:0.009272843599319458] [-0.0031543702352792025:0.00086213549366220832] [-50.812911987304688:40.762947082519531] [0:0.99489796161651611] [0:1] [-1:1] [-1:1] none [-17.473747253417969:-0.97051876783370972] [0.073858782649040222:1] [0.097680918872356415:1.6974153518676758] [0:1] [8.6818159616086632e-05:96.387374877929688] [0:1] [-1:1] [-1:1] [-0.03073452040553093:0.014919726178050041] [-1.9380457401275635:1.9161851406097412] [0.016694329679012299:297372.09375] [-1553.9161376953125:20484.599609375] [-0.99990254640579224:0.99978059530258179] [0:0.51298445463180542] [-1:55.161220550537109] [2.0138978129580209e-07:0.00068295188248157501]
tree_sizes=1651 1350 1788 1799 1800 1801 1786 1794 1775 1796 1772 1251 1799 1799 1663 1798 1803 1800 1800 1798 1682 1797 1771 1795 1674 1141 1802 1664 1785 1786 1787 1679 1682 1800 1792 1800 1777 1795 1565 1799 1792 1802 1780 1683 1791 1795 1797 1794 1797 1797 1780 1800 1368 1573 1795 1565 1567 1685 1678 1794 1683 1799 1792 1482 1672 1669 1795 1797 1800 1799 1688 1785 1785 1803 1576 1803 1801 1675 1788 1801 1797 1371 1564 1686 1799 1781 1684 1786 1680 1792 1801 1795 1670 1684 1801 1794 1807 1686 1681 1687 1594 1675 1802 1679 1797 1799 1678 1467 1779 1682 1773 1679 1775 1679 1800 1807 1801 1795 1472 1790 1779 1794 1673 1683 1677 1793 1805 1801 1787 1672 1688 1687 1367 1789 1802 1668 1787 1689 1795 1358 1780 1800 1259 1793 1795 1575 1792 1798 1687 1673 1799 1795 1678 1590 1786 1788 1800 1795 1800 1680 1781 1785 1478 1571 1798 1795 1262 1791 1682 1797 1788 1802 1683 1685 1801 1787 1686 1793 1687 1593 1799 1370 1791 1778 1780 1795 1481 1804 1674 1800 1788 1789 1800 1784 1807 1793 1689 1791 1792 1674 1787 1679 1795 1806 1675 1803 1691 1793 1363 1786 1798 1799 1689 1688 1801 1686 1793 1675 1790 1686 1686 1801 1788 1687 1695 1367 1796 1674 1805 1584 1673 1571 1371 1802 1784 1798 1693 1679 1676 1802 1671 1807 1580 1691 1803 1461 1476 1476 1681 1670 1563 1790 1575 1461 1674 1569 1807 1567 1581 1577 1566 1572 1813 1682 1465 1467 1685 1802 1463 1579 1804 1678 1356 1705 1468 1810 1679 1468 1460 1569 1680 1680 1579 1801 1480 1568 1471 1677 1801 1562 1671 1794 1462 1481 1795 1579 1575 1801 1479 1675 1476 1369 1560 1461 1795 1575 1450 1692 1794 1572 1679 1683 1581 1695 1463 1570 1666 1369 1682 1673 1572 1375 1807 1569 1677 1243 1570 1580 1573 1258 1364 1673 1680 1466 1682 1681 1702 1687 1799 1253 1568 1687 1695 1561 1799 1576 1691 1570 1369 1682 1575 1564 1365 1805 1254 1574 1359 1245 1565 1470 1575 1800 1572 1584 1378 1465 1569 1362 1804 1571 1683 1576 1578 1667 1803 1681 1364 1564 1567 1572 1677 1249 1579 1455 1362 1465 1241 1356 1686 1687 1373 1465 1247 1580 1687 1372 1573 1377 1578 1463 1573 1678 1571 1558 1693 1570 1683 1576 1467 1251 1466 1801 1573 1572 1462 1249 1355 1685 1800 1572 1585 1690 1582 1792 1375 1465 1253 1352 1361 1813 1579 1685 1685 1582 1569 1575 1483 1795 1378 1681 1694 1588 1586 1570 1580 1677 1570 1681 1678 1684 1470 1254 1457 1570 1688 1376 1685 1565 1698 1454 1369 1354 1695 1567 1463 1582 1575 1564 1694 1459 1247 1371 1564 1253 1464 1581 1360 1583 1588 1356 1360 1798 1355 1703 1806 1578 1577 1455 1470 1473 1367 1579 1365 1349 1590 1459 1456 1570 1468 1248 1679 1379 1472 1571 1366 1358 1356 1584 1367 1580 1475 1358 1814 1365 1803 1460 1355 1370 1689 1365 1138 920 1698 1689 1353 1685 1693 1480 1684 1465 1250 1474 1253 1254 1812 1465 1472 1345 1690 1694 1370 1465 1471 1808 1245 1465 1452 1583 1245 1697 1255 1699 1247 1670 1354 1805 1575 1461 1587 1366 1798 1568 1686 1351 1676 1700 1487 1357 1362 1356 1256 1799 1363 1247 1457 1461 1376 1362 1349 1354 1673 1695 1475 1471 1350 1687 1819 1465 1354 1369 1358 1697 1700 1348 1686 1471 1450 1694 1588 1594 1358 1371 1699 1695 1364 1576 1138 1573 1805 1693 1699 1463 1809 1244 1468 1475 1371 1351 1570 1574 1247 1690 1353 1248 1585 1685 1357 1470 1241 1703 1690 1353 1573 1262 1574 1372 1798 1688 1028 1353 1481 1695 1471 1237 1354 1373 1366 1135 1347 1686 1599 1478 1802 1372 1580 1372 1461 1690 1253 1812 1587 1583 1140 1246 1374 1348 1243 1379 1813 1367 1351 924 1252 1461 1359 1352 1468 1355 1482 1354 1143 1700 1378 1358 1809 1459 1478 1589 1260 1351 1244 1463 1808 1245 1243 1362 1363 1585 1585 1249 1589 1250 1591 1812 1459 1573 1802 1249 1140 1369 1463 1368 1240 1238 1484 1251 1144 1376 1358 1259 1464 1576 1376 1461 1701 1138 1142 1482 1479 1476 1476 1262 1592 1589 1809 1474 1455 1250 1476 1246 1464 1358 1585 1253 1377 1576 1354 1585 1244 1265 1692 1475 1360 1694 1147 1361 1464 1368 1481 1360 1253 1458 1248 1584 1583 1039 1354 1700 1368 1144 1372 1140 1477 1466 1252 1582 1358 1352 1373 1353 1371 1361 1476 1357 1374 1263 1374 1254 1805 1479 1236 1809 1257 1573 1350 1254 1138 1362 1574 1573 1461 1354 1467 1135 1818 1471 1137 1476 1134 1471 1701 1360 1258 1133 921 1472 1373 1138 1264 1133 1136 1475 1583 1366 1467 1478 1258 1137 1467 1471 1473 1137 1691 1472 1463 1591 1142 1374 1458 1469 1369 1134 1471 1258 1136 1460 1241 1357 1459 1366 1145 1257 1480 1248 1367 1257 1586 1476 1362 1257 1693 1472 1472 1367 1252 1461 1469 1135 1366 1471 1466 1245 1351 1360 1251 1133 1471 916 1465 1700 916 1254 1693 1456 1474 1477 1152 921 1460 1257 1469 1151 1466 1154 1255 1481 1146 1473 1583 1473 1150 1357 1464 1141 1371 1360 914 1471 1362 1029 1468 915 1152 1475 911 1456 1143 1373 1369 1366 918 1364 1023 1482 1679 1585 1140 1247 1143 1468 1252 1247 1138 1463 1130 1482 914 1355 1143 914 1244 1454 1466 1583 1253 1366 1366 1137 1688 1364 919 1479 1355 1476 1468 915 1250 1145 1577 1249 1469 1473 1144 1480 1133 1251 1466 915 1359 1139 915 1797 1465 1258 1473 1255 1370 1143 1367 1124 1141 1233 1251 1131 1376 1261 1247 1476 1584 1147 1471 1464 1370 917 1477 1475 915 1231 1580 914 1464 1251 1141 1469 1481 1471 917 915 1251 1469 1465 1369 1468 920 1126 815 1468 916 1035 1473 1248 921 1033 1471 1804 919 1588 1355 1471 918 915 932 1807 1469 1026 1362 921 1254 1242 1353 1375 1359 919 1470 1362 916 1374 1035 1259 916 1470 1583 1480 703 1252 1043 1470 1029 1258 1478 1468 1358 1142 808 926 1468 1471 1129 924 1246 1692 1362 810 1344 1235 804 1256 1237 1149 706 1237 1595 1368 1352 930 1024 1253 1036 1367 1474 1248 1027 1248 1480 1250 1372 1149 1257 925 920 1135 1464 1131 1135 1240 1151 921 704 1248 705 1265 918 1261 1134 1369 1148 915 1369 1247 705 1578 1261 1360 1360 918 918 923 1257 1238 1029 922 1150 1129 813 807 1138 1377 1368 916 1146 1242 1137 1370 915 1361 818 1142 1127 1367 1025 1140 1268 920 923 1152 1040 1258 1041 1246 819 1251 814 813 1360 1024 922 816 1138 1143 1028 1024 922 1142 1026 1378 1256 1257 928 813 1354 1363 1022 1128 818 1247

Tree=0
num_leaves=14
num_cat=0
split_feature=69 73 69 71 38 38 69 41 71 69 41 69 71
split_gain=710.659 121.849 98.2653 82.1295 79.4448 54.8589 45.214 36.3079 16.5609 15.9926 18.1609 5.64322 2.41616
threshold=31.546728134155277 0.00039648672100156551 60.656625747680671 1.0000000180025095e-35 -0.00055365695152431716 -0.00071152977761812497 11.966566085815431 0.19811058044433597 1.0000000180025095e-35 73.850730895996108 0.34218750894069677 50.896373748779304 1.0000000180025095e-35
decision_type=2 2 2 2 2 2 2 2 2 2 2 2 2
left_child=1 3 7 5 -5 -1 -3 11 -9 10 -4 -2 -11
right_child=2 6 9 4 -6 -7 -8 8 -10 12 -12 -13 -14
leaf_value=0.0064060849813446664 0.0095830039608721385 0.002271364159428785 0.010964743044661917 0.010571098224539603 0.0069941981312839603 0.0045119036000971025 0.005732146458552227 0.0079957235483381871 0.0091227201275104267 0.010938152420938693 0.0091402733549268006 0.010931980871999787 0.012367973846060684
leaf_weight=965.90620970726013 105.36207221448421 86.962097108364105 135.8774638324976 73.618048712611198 212.59523628652096 159.80880571901798 59.665992632508278 330.84280346333981 182.3853527456522 51.373892143368721 86.054306969046593 50.060342997312546 58.032086908817291
leaf_count=3395 337 342 416 228 735 592 214 1111 592 157 279 153 169
internal_value=0.00748902 0.0062231 0.00946065 0.00649673 0.00792923 0.00613238 0.00363704 0.00879214 0.00840101 0.0107938 0.0102784 0.0100557 0.0117705
internal_weight=2558.54 1558.56 999.988 1411.93 286.213 1125.72 146.628 668.651 513.228 331.338 221.932 155.422 109.406
internal_count=8720 5506 3214 4950 963 3987 556 2193 1703 1021 695 490 326
is_linear=0
shrinkage=1


Tree=1
num_leaves=11
num_cat=0
split_feature=33 40 63 27 50 7 31 78 66 42
split_gain=31.7865 18.8308 31.4941 20.8698 18.9552 14.8396 15.7236 16.1043 14.8252 14.115
threshold=12.276239871978762 -0.32292391359806055 0.95819556713104259 0.78877109289169323 0.80617579817771923 1.338133752346039 0.18060281127691272 0.00010920187196461485 0.42179754376411444 16.010781288146976
decision_type=2 2 2 2 2 2 2 2 2 2
left_child=1 4 3 -3 9 6 7 -2 -6 -1
right_child=5 2 -4 -5 8 -7 -8 -9 -10 -11
leaf_value=0.001615446161049682 -0.00026571261363684254 -0.00015992966405210812 -0.0019590121633040942 0.001044912216854849 -0.00042412941874998307 0.00065314294558906538 -0.002248531459136581 -0.0014420289619687728 0.00054883509778131312 0.00037934609399460699
leaf_weight=187.82559530436993 437.62113463878632 685.76306207478046 73.210979118943214 157.38220384716988 224.33080437779427 81.377683073282242 51.952878832817078 136.25841279327869 372.09493094682693 150.7242983430624
leaf_count=610 1503 2348 264 520 774 272 189 484 1248 508
internal_value=2.96923e-08 0.000206719 -9.88642e-05 6.69077e-05 0.000505788 -0.000540098 -0.000696842 -0.000549048 0.000182684 0.00107059
internal_weight=2558.54 1851.33 916.356 843.145 934.976 707.21 625.832 573.88 596.426 338.55
internal_count=8720 6272 3132 2868 3140 2448 2176 1987 2022 1118
is_linear=0
shrinkage=0.003


Tree=2
num_leaves=15
num_cat=0
split_feature=69 69 71 38 38 69 41 69 39 71 69 41 69 71
split_gain=706.237 97.6745 97.4945 90.8167 61.9652 57.8533 36.124 21.3624 17.4221 16.464 15.8946 18.052 5.60918 2.40764
threshold=31.546728134155277 60.656625747680671 1.0000000180025095e-35 -0.00055365695152431716 -0.00068570952862501134 7.438796043395997 0.19811058044433597 11.966566085815431 1.0000000180025095e-35 1.0000000180025095e-35 73.850730895996108 0.34218750894069677 50.896373748779304 1.0000000180025095e-35
decision_type=2 2 2 2 2 2 2 2 2 2 2 2 2 2
left_child=2 6 4 -4 5 -1 12 -5 -6 -8 11 -3 -2 -12
right_child=1 10 3 7 8 -7 9 -9 -10 -11 13 -13 -14 -15
leaf_value=-0.0020698589805106366 0.002088091636796506 0.0034651366722629499 0.0030841805738151778 -0.002296919147523193 -0.0023011473932347559 -0.00067928520650192554 0.00050479701291111637 -0.00016217611707881218 -0.0043049169305642192 0.0016284875344220629 0.0034382082706215667 0.0016461424600938714 0.0034330519683856103 0.0048643692371502754
leaf_weight=525.89779818058014 105.3611611276865 135.87517146766186 74.930614426732063 53.807446822524071 91.756747364997864 555.59667007625103 330.84191985428333 174.33330285549164 82.239777341485023 182.38398386538029 51.372968122363091 86.053662583231926 50.059538036584854 58.030604273080826
leaf_count=1900 337 416 232 196 334 1931 1111 597 316 592 157 279 153 169
internal_value=2.43761e-08 0.00196552 -0.00126195 0.000263826 -0.0016301 -0.00135805 0.00129903 -0.000681245 -0.00328639 0.000908892 0.00329468 0.00278082 0.0025594 0.00426843
internal_weight=2558.54 999.979 1558.56 303.071 1255.49 1081.49 668.647 228.141 173.997 513.226 331.332 221.929 155.421 109.404
internal_count=8720 3214 5506 1025 4481 3831 2193 793 650 1703 1021 695 490 326
is_linear=0
shrinkage=0.003


Tree=3
num_leaves=15
num_cat=0
split_feature=70 70 70 71 57 57 70 73 73 71 67 59 70 71
split_gain=661.422 226.697 114.531 50.5367 81.1962 46.2864 42.1323 39.6638 35.1512 16.0066 15.374 13.7301 10.8979 2.94913
threshold=0.22307837009429934 0.35129773616790777 0.095422774553298964 1.0000000180025095e-35 1.929886184370844e-05 0.00015544283814961093 0.59542936086654674 0.00022322937002172696 0.00011628965876298027 1.0000000180025095e-35 0.36413000524044042 3.42115330696106 0.17569208890199664 1.0000000180025095e-35
decision_type=2 2 2 2 2 2 2 2 2 2 2 2 2 2
left_child=2 3 8 4 -2 -5 10 9 11 -4 -3 -1 -9 -8
right_child=1 6 7 5 -6 -7 13 12 -10 -11 -12 -13 -14 -15
leaf_value=-0.0020934698313613783 0.00027105522771233962 0.00080678463638624422 -0.0010326901264326191 0.0037571258527421751 -0.0035164392041304596 0.00072962167618319436 0.0035659333105069559 -0.0035641616593183024 -0.0050741615520835245 0.00013310985493626327 0.0025701318561351075 -0.003591980249853923 -0.0016019687339695239 0.004996999832883456
leaf_weight=171.40877133607864 573.98161143064499 52.632665857672691 552.87199266254902 61.799160078167915 53.885080471634865 162.8172739893198 58.148619681596756 62.053406849503517 70.358633279800415 130.50194947421551 399.89936095476151 92.580095648765564 51.789107501506805 63.805698379874229
leaf_count=620 1941 175 1941 187 203 543 177 234 276 443 1261 349 185 185
internal_value=5.32329e-08 0.00135754 -0.0017112 0.000373983 -6.41305e-05 0.00158839 0.0028107 -0.00108836 -0.00318098 -0.000810322 0.00236949 -0.00264205 -0.00271459 0.0043832
internal_weight=2558.53 1426.97 1131.56 852.483 627.867 224.616 574.486 797.216 334.348 683.374 452.532 263.989 113.843 121.954
internal_count=8720 4672 4048 2874 2144 730 1798 2803 1245 2384 1436 969 419 362
is_linear=0
shrinkage=0.003


Tree=4
num_leaves=15
num_cat=0
split_feature=69 70 70 51 71 72 70 70 70 51 71 37 8 70
split_gain=698.821 183.83 140.544 140.033 37.8244 35.8282 33.8509 29.8895 29.6502 26.3278 18.2868 14.3833 11.3024 7.06883
threshold=31.546728134155277 0.19739740341901782 0.35430820286273962 0.19348438829183581 1.0000000180025095e-35 -0.66666667163372029 0.095422774553298964 0.60370662808418285 0.071711312979459776 0.22038463503122332 1.0000000180025095e-35 -0.00040862134483177209 0.034437218680977828 0.22465483099222186
decision_type=2 2 2 2 2 2 2 2 2 2 2 2 2 2
left_child=1 3 9 6 5 -3 -1 12 -5 13 -11 -6 -4 -2
right_child=2 4 7 8 11 -7 -8 -9 -10 10 -12 -13 -14 -15
leaf_value=-0.0021418250019447599 0.00092762671964392418 -0.00018543012226073213 0.0028880705076423023 -0.005105444670802272 0.0018717756395188094 -0.0026938306929039165 -0.00057884341260681872 0.0044824725012204639 -0.0030518220233588956 -0.00018672369710117303 0.0013294964221854644 -5.2039062799949331e-05 0.0014413218487133162 0.0022174331850873799
leaf_weight=200.41800254583359 65.18249499797821 465.68222925066948 329.41586881875992 92.526555389165878 101.25133408606052 55.639777779579163 330.60629272460938 108.91954857110977 259.70830236375332 218.60224790871143 104.16450300812721 52.73375940322876 64.412132069468498 109.25928084552288
leaf_count=726 216 1596 1028 363 326 205 1146 322 964 749 341 180 210 348
internal_value=4.45775e-08 -0.00125527 0.00195523 -0.00215458 -7.61533e-05 -0.000462419 -0.00117456 0.00307098 -0.00361706 0.000819265 0.000307771 0.00122073 0.00265993 0.00175146
internal_weight=2558.52 1558.57 999.956 883.259 675.307 521.322 531.024 502.748 352.235 497.209 322.767 153.985 393.828 174.442
internal_count=8720 5506 3214 3199 2307 1801 1872 1560 1327 1654 1090 506 1238 564
is_linear=0
shrinkage=0.003


Tree=5
num_leaves=15
num_cat=0
split_feature=70 70 70 71 57 57 70 73 73 71 59 38 70 71
split_gain=653.794 224.075 113.198 49.9839 80.5308 46.019 41.6668 39.3912 34.8663 15.8714 13.6367 12.6797 10.7788 2.9475
threshold=0.22307837009429934 0.35129773616790777 0.095422774553298964 1.0000000180025095e-35 1.929886184370844e-05 0.00015544283814961093 0.59542936086654674 0.00022322937002172696 0.00011628965876298027 1.0000000180025095e-35 3.42115330696106 -0.0004802193288924172 0.17569208890199664 1.0000000180025095e-35
decision_type=2 2 2 2 2 2 2 2 2 2 2 2 2 2
left_child=2 3 8 4 -2 -5 11 9 10 -4 -1 -3 -9 -8
right_child=1 6 7 5 -6 -7 13 12 -10 -11 -12 -13 -14 -15
leaf_value=-0.0020793436141149902 0.00026996533797602439 0.0027119728556938972 -0.001026453262258292 0.0037420993936551081 -0.0035019742704414077 0.00072340358856905023 0.0035440078606474665 -0.0035477029488545702 -0.0050478470545485881 0.00013438924809697241 -0.0035723363269051216 0.0015974423051178649 -0.0015959826434224376 0.0049702011230293988
leaf_weight=171.40969134867191 573.98039898276329 304.36970247328281 552.87376049160957 61.796870097517967 53.885240495204926 162.81538471579552 58.144625455141068 62.053401038050652 70.357621759176254 130.50200106203556 92.580357372760773 148.14738354086876 51.789255544543266 63.799557521939278
leaf_count=620 1941 955 1941 187 203 543 177 234 276 443 349 481 185 185
internal_value=4.71836e-08 0.00134971 -0.0017013 0.000371863 -6.38453e-05 0.00157962 0.00279448 -0.0010821 -0.00316251 -0.000805026 -0.00262585 0.00235573 -0.00270271 0.00435833
internal_weight=2558.51 1426.94 1131.57 852.478 627.866 224.612 574.461 797.218 334.348 683.376 263.99 452.517 113.843 121.944
internal_count=8720 4672 4048 2874 2144 730 1798 2803 1245 2384 969 1436 419 362
is_linear=0
shrinkage=0.003


Tree=6
num_leaves=15
num_cat=0
split_feature=69 71 69 38 38 69 43 71 69 78 69 41 69 71
split_gain=691.49 95.8081 95.5961 89.7798 61.1701 57.0221 36.3306 23.9758 20.995 16.1776 15.5964 17.8275 8.62914 2.39388
threshold=31.546728134155277 1.0000000180025095e-35 60.656625747680671 -0.00055365695152431716 -0.00068570952862501134 7.438796043395997 39.358699798583991 1.0000000180025095e-35 11.966566085815431 1.1747999906219777e-05 73.850730895996108 0.34218750894069677 50.896373748779304 1.0000000180025095e-35
decision_type=2 2 2 2 2 2 2 2 2 2 2 2 2 2
left_child=1 4 6 -3 5 -1 12 -8 -5 -6 11 -4 -2 -12
right_child=2 3 10 8 9 -7 7 -9 -10 -11 13 -13 -14 -15
leaf_value=-0.0020500073787759168 0.0018224170677992708 0.0030681298416856012 0.0034310032781782588 -0.0022775248538225196 -0.002180765009449144 -0.0006694961926653135 0.00021921414910580034 0.0016526465200227807 -0.00016121256915440705 -0.0041210162891103059 0.0034006981880826525 0.0016239911621230578 0.0031524886321891007 0.004816294417366614
leaf_weight=525.89900609850883 157.51257717609406 74.927283003926277 135.86140123009682 53.807441532611847 80.420365005731583 555.59871232509613 270.84162381291389 170.28633524477482 174.33248141407967 93.574852719902992 51.366886392235756 86.049102023243904 69.985236167907715 58.020139425992966
leaf_count=1900 508 232 416 196 292 1931 917 552 597 358 157 279 216 169
internal_value=4.0796e-08 -0.00124867 0.00194498 0.000263853 -0.00161362 -0.00134334 0.00128562 0.000777516 -0.000675806 -0.00325921 0.00326001 0.00275107 0.00225549 0.00422454
internal_weight=2558.48 1558.56 999.923 303.067 1255.49 1081.5 668.626 441.128 228.14 173.995 331.298 221.911 227.498 109.387
internal_count=8720 5506 3214 1025 4481 3831 2193 1469 793 650 1021 695 724 326
is_linear=0
shrinkage=0.003


Tree=7
num_leaves=15
num_cat=0
split_feature=70 70 51 70 51 71 57 70 57 70 71 70 38 52
split_gain=647.255 221.587 119.847 69.7566 50.0062 49.3879 79.9586 48.5968 45.6833 41.2293 27.2935 18.1792 12.6155 4.50422
threshold=0.22307837009429934 0.35129773616790777 0.23294406384229663 0.095422774553298964 0.10104103758931161 1.0000000180025095e-35 1.929886184370844e-05 0.18279099464416507 0.00015544283814961093 0.59542936086654674 1.0000000180025095e-35 0.09378701820969583 -0.0004802193288924172 0.13102727383375171
decision_type=2 2 2 2 2 2 2 2 2 2 2 2 2 2
left_child=2 5 3 4 -1 6 -2 11 -7 12 -5 -4 -3 -11
right_child=1 9 7 10 -6 8 -8 -9 -10 13 -12 -13 -14 -15
leaf_value=-0.00052647272891187492 0.00027011082936285248 0.0026986227829145374 -0.0051514801003651692 -0.0008293781083694436 -0.0033850249545328026 0.0037257790005531147 -0.0034884223513061601 -0.0013489691973327805 0.00071810980936381065 0.0034825761789489778 0.00081956508101202117 -0.0032445263647851593 0.0015871617200903492 0.0050518910798409682
leaf_weight=84.287879824638367 573.9788736552 304.35615442693233 85.709970459342003 464.19864816963673 161.63570617139339 61.793340280652046 53.884593978524208 88.28347997367382 162.81316375732422 61.013359144330025 110.35169000923634 137.09197103977203 148.14223106205463 60.917263820767403
leaf_count=292 1941 955 337 1621 606 187 203 313 543 186 367 512 481 176
internal_value=6.82008e-08 0.00134299 -0.00169275 -0.00108686 -0.00241744 0.000370596 -6.25071e-05 -0.00327359 0.00157115 0.00277977 -0.000510928 -0.00401742 0.00234333 0.00433549
internal_weight=2558.46 1426.9 1131.56 820.474 245.924 852.47 627.863 311.085 224.607 574.429 574.55 222.802 452.498 121.931
internal_count=8720 4672 4048 2886 898 2874 2144 1162 730 1798 1988 849 1436 362
is_linear=0
shrinkage=0.003


Tree=8
num_leaves=15
num_cat=0
split_feature=69 70 51 70 70 70 70 51 69 31 42 8 70 69
split_gain=684.21 180.25 138.278 137.33 33.1714 29.2333 29.0893 26.1345 19.4988 17.9239 15.9641 11.2499 6.9248 0.69339
threshold=31.546728134155277 0.19739740341901782 0.19348438829183581 0.35430820286273962 0.095422774553298964 0.60370662808418285 0.071711312979459776 0.22038463503122332 3.9417641162872319 0.1607979238033295 8.0662088394165057 0.034437218680977828 0.22465483099222186 75.784576416015639
decision_type=2 2 2 2 2 2 2 2 2 2 2 2 2 2
left_child=1 2 4 7 -1 11 -4 12 -3 -10 -9 -5 -2 -7
right_child=3 8 6 5 -6 13 -8 10 9 -11 -12 -13 -14 -15
leaf_value=-0.0021162511398877095 0.00092491493824980119 -0.0013079105018333472 -0.0050602442833003461 0.0028587901173219251 -0.00056907560870037282 0.0037039104186325118 -0.0030259220163103922 0.0016849294643306544 0.00031816290113536038 -0.0013746737407373246 -1.7528899830406874e-05 0.0014168260448427247 0.0022019859848025382 0.0049653808891356168
leaf_weight=200.41499254107475 65.182064667344093 96.578960627317429 92.519966557621956 329.38313239812851 330.60627190768719 52.590479254722595 259.70449271798134 59.035014361143112 517.57302004098892 61.147718280553818 263.72603811323643 64.406915009021759 109.2545550018549 56.303195729851723
leaf_count=726 216 342 363 1028 1146 159 964 191 1748 217 899 210 348 163
internal_value=6.89236e-08 -0.00124204 -0.00213255 0.0019348 -0.00115875 0.00303782 -0.00358584 0.000811904 -7.44591e-05 0.000135179 0.00030232 0.0026313 0.00174067 0.00443394
internal_weight=2558.43 1558.55 883.246 999.881 531.021 502.684 352.224 497.198 675.3 578.721 322.761 393.79 174.437 108.894
internal_count=8720 5506 3199 3214 1872 1560 1327 1654 2307 1965 1090 1238 564 322
is_linear=0
shrinkage=0.003


Tree=9
num_leaves=15
num_cat=0
split_feature=70 70 70 71 57 57 70 43 71 57 57 57 8 70
split_gain=639.794 219.04 111.004 49.0462 79.5141 45.4102 40.791 23.6727 19.9679 33.9766 18.5911 14.536 11.8153 9.6327
threshold=0.22307837009429934 0.35129773616790777 0.095422774553298964 1.0000000180025095e-35 1.929886184370844e-05 0.00015544283814961093 0.59542936086654674 36.197418212890632 1.0000000180025095e-35 0.00042866416333708918 5.0420090701663873e-05 -0.00084152966155670572 0.035692075267434127 0.069345712661743178
decision_type=2 2 2 2 2 2 2 2 2 2 2 2 2 2
left_child=2 3 7 4 -2 -5 12 11 10 -10 -4 -1 -3 -9
right_child=1 6 8 5 -6 -7 -8 13 9 -11 -12 -13 -14 -15
leaf_value=-0.0033325119746658491 0.00026858957493291178 0.0025092589440154885 -0.001139120095849549 0.0037131399378078443 -0.0034795014294797463 0.0007144485412103579 0.0043113796829483469 -0.0045223093266346459 0.0016804607690893848 -0.0012007982925746573 -0.0029802106939427584 -0.0015320398850788908 0.00096688231455442793 -0.002711678211834336
leaf_weight=73.596157476305962 573.97671714425087 398.3242556899786 592.90154205262661 61.789969116449356 53.883992731571198 162.81160806119442 121.91221606731415 108.0430420935154 58.077324062585831 93.222609639167786 53.011528521776199 101.22230370342731 54.149845913052559 51.468599617481232
leaf_count=276 1941 1257 2089 187 203 543 362 418 188 329 197 361 179 190
internal_value=7.9527e-08 0.00133527 -0.00168295 0.000368493 -6.31046e-05 0.00156491 0.00276384 -0.00312997 -0.0010698 -8.73162e-05 -0.00129896 -0.00231913 0.00232974 -0.0039789
internal_weight=2558.39 1426.85 1131.54 852.462 627.861 224.602 574.386 334.33 797.213 151.3 645.913 174.818 452.474 159.512
internal_count=8720 4672 4048 2874 2144 730 1798 1245 2803 517 2286 637 1436 608
is_linear=0
shrinkage=0.003


Tree=10
num_leaves=15
num_cat=0
split_feature=69 69 69 43 41 43 65 69 47 69 41 63 69 34
split_gain=677.042 93.5798 86.9319 38.4173 37.116 35.9435 19.237 18.2533 15.6485 15.2875 17.6072 13.5324 8.45241 3.54361
threshold=31.546728134155277 60.656625747680671 7.5551369190216073 40.164888381958015 0.33734738826751715 39.358699798583991 -6.9977402687072745 3.3700643777847294 -0.0015006625908426938 73.850730895996108 0.34218750894069677 0.15427892655134204 50.896373748779304 1.0038160681724551
decision_type=2 2 2 2 2 2 2 2 2 2 2 2 2 2
left_child=2 5 3 7 6 12 -4 -1 -7 10 -3 -6 -2 -5
right_child=1 9 4 13 11 8 -8 -9 -10 -11 -12 -13 -14 -15
leaf_value=-0.0022609602281074242 0.0018082747947480724 0.0033977174201971611 0.0003190890654050111 -0.0040629821029847454 -0.0012472030033125578 0.00018326494254022787 -0.00071143850580178305 -0.0010753456779727568 0.0013133465179779077 0.0041809553948529508 0.0016024689704625455 -0.0033457142633968621 0.0031250418043259312 -0.0027698642462482422
leaf_weight=252.98757266998291 157.50487829744816 135.83824150264263 221.38411696255207 73.983223348855972 64.168178528547287 214.55643394589424 606.28818614780903 228.23294433951378 226.55418540537357 109.35730567574501 86.04174630343914 52.487468630075455 69.976789996027946 58.989944994449615
leaf_count=920 508 416 748 283 227 727 2110 803 742 326 279 197 216 218
internal_value=6.35443e-08 0.0019247 -0.00123552 -0.00211256 -0.000661826 0.00127233 -0.00043569 -0.00170543 0.000766982 0.00322593 0.00272208 -0.00223188 0.00223704 -0.00353887
internal_weight=2558.35 999.83 1558.52 614.194 944.328 668.592 827.672 481.221 441.111 331.237 221.88 116.656 227.482 132.973
internal_count=8720 3214 5506 2224 3282 2193 2858 1723 1469 1021 695 424 724 501
is_linear=0
shrinkage=0.003


Tree=11
num_leaves=10
num_cat=0
split_feature=72 57 72 57 73 57 73 38 76
split_gain=83.168 133.241 102.247 138.99 37.1175 36.4195 21.1949 18.1981 15.8007
threshold=0.66666667163372051 9.3323935288935913e-05 -0.66666667163372029 -7.3750445608311557e-06 0.0012343485141173007 0.00016555629554204645 -0.0010787617648020385 -0.00055365695152431716 1.6233550906181338
decision_type=2 2 2 2 2 2 2 2 2
left_child=1 2 4 -4 -1 -2 -3 -7 -9
right_child=5 6 3 -5 -6 7 -8 8 -10
leaf_value=-0.00021293779892099328 0.0030229752647661012 -0.0018322866022393086 0.0040877172528348592 -0.0010840461309917758 -0.0023592086294618678 0.002387104022901028 -0.0042978989878202766 0.00087643719609455638 -0.00041421721000957644
leaf_weight=1613.930401340127 70.37073977291584 65.330095633864403 113.2511038184166 77.545140847563744 73.971953853964806 51.257592514157295 69.105553761124611 306.97018696367741 116.58208572864532
leaf_count=5536 218 235 339 273 270 162 266 1019 402
internal_value=6.44627e-08 -0.000281577 -7.36126e-05 0.00199632 -0.000309678 0.00103728 -0.00314414 0.00073154 0.00052091
internal_weight=2558.31 2013.13 1878.7 190.796 1687.9 545.181 134.436 474.81 423.552
internal_count=8720 6919 6418 612 5806 1801 501 1583 1421
is_linear=0
shrinkage=0.003


Tree=12
num_leaves=15
num_cat=0
split_feature=69 70 51 70 71 57 38 70 70 70 51 71 78 34
split_gain=672.45 177.769 137.087 134.923 36.4591 45.4731 37.1832 32.7311 28.7229 28.6176 25.9303 17.6228 11.1988 6.80486
threshold=31.546728134155277 0.19739740341901782 0.19348438829183581 0.35430820286273962 1.0000000180025095e-35 -8.2701804785756381e-05 -0.00030780768429394806 0.095422774553298964 0.60370662808418285 0.071711312979459776 0.22038463503122332 1.0000000180025095e-35 8.7345848442055299e-05 0.81651738286018383
decision_type=2 2 2 2 2 2 2 2 2 2 2 2 2 2
left_child=1 2 7 10 5 -3 -6 -1 12 -4 13 -12 -5 -2
right_child=3 4 9 8 6 -7 -8 -9 -10 -11 11 -13 -14 -15
leaf_value=-0.0020972754179737038 0.0024817150703309349 -9.245553515694779e-05 -0.0050254699746244873 0.0028042451699940678 0.0030115514668750051 -0.0026345715259361428 1.582015225775073e-05 -0.00056044286077882189 0.0043957497894400429 -0.0030072896142954194 -0.0001877381730694847 0.0013007290619445903 0.0012181516645343711 0.0012225812207240837
leaf_weight=200.40771597623825 67.208279892802238 449.57305248081684 92.506880477070808 343.4129880219698 59.722381070256233 71.74458321928978 94.252811640501022 330.60438278317451 108.86178483068943 259.69497118890285 218.60012996196747 104.15433548390865 50.33282832801342 107.22155833244324
leaf_count=726 212 1537 363 1073 185 264 321 1146 322 964 749 341 165 352
internal_value=6.46915e-08 -0.00123132 -0.0021157 0.00191821 -7.18049e-05 -0.000451037 0.00120149 -0.00114615 0.00301163 -0.00356275 0.000805214 0.000297649 0.00260867 0.00173036
internal_weight=2558.3 1558.51 883.214 999.792 675.293 521.318 153.975 531.012 502.608 352.202 497.184 322.754 393.746 174.43
internal_count=8720 5506 3199 3214 2307 1801 506 1872 1560 1327 1654 1090 1238 564
is_linear=0
shrinkage=0.003


Tree=13
num_leaves=15
num_cat=0
split_feature=69 70 70 73 70 71 57 38 70 61 69 14 78 69
split_gain=668.49 176.721 134.136 96.8597 42.0636 36.2476 45.2091 36.9697 28.5666 17.636 17.3503 13.7026 11.1316 0.736476
threshold=31.546728134155277 0.19739740341901782 0.35430820286273962 0.00014106966409599411 0.096482966095209136 1.0000000180025095e-35 -8.2701804785756381e-05 -0.00030780768429394806 0.60370662808418285 0.44196027517318731 9.5478024482727069 152590.00000000003 8.7345848442055299e-05 75.784576416015639
decision_type=2 2 2 2 2 2 2 2 2 2 2 2 2 2
left_child=1 3 9 4 -1 6 -3 -7 12 11 -5 -2 -4 -10
right_child=2 5 8 10 -6 7 -8 -9 13 -11 -12 -13 -14 -15
leaf_value=-0.0025886905215338043 0.00082339892061019456 -9.2179385122227525e-05 0.0027960131827903228 -0.0051489018253437456 -0.0010970686468301748 0.0030029266675957109 -0.0026269213998133482 1.5773649346660107e-05 0.0036576016197626716 0.0021756861180582533 -0.0028324639072235852 -0.0005484515974724021 0.0012146576902823251 0.0049124113675661626
leaf_weight=272.59157422184944 347.71167512238026 449.57310126721859 343.3967000246048 91.441104769706726 462.74052755534649 59.719977393746376 71.743482902646065 94.252803787589073 52.57185260951519 70.313265830278397 56.424854591488838 79.15520504117012 50.331934422254562 56.277502253651619
leaf_count=1001 1156 1537 1073 360 1629 185 264 321 159 224 209 274 165 163
internal_value=7.11973e-08 -0.00122768 0.0019126 -0.00210946 -0.00165554 -7.15872e-05 -0.000449716 0.00119802 0.00300287 0.000802863 -0.00431456 0.000567641 0.00260102 0.00438329
internal_weight=2558.25 1558.49 999.758 883.198 735.332 675.289 521.317 153.973 502.578 497.18 147.866 426.867 393.729 108.849
internal_count=8720 5506 3214 3199 2630 2307 1801 506 1560 1654 569 1430 1238 322
is_linear=0
shrinkage=0.003


Tree=14
num_leaves=14
num_cat=0
split_feature=69 73 69 69 69 43 52 41 41 52 69 69 49
split_gain=664.559 117.455 92.044 52.3632 43.6704 35.6229 27.1113 22.3697 15.0895 14.082 8.34336 8.262 3.75812
threshold=31.546728134155277 0.00039648672100156551 60.656625747680671 12.737261772155763 11.966566085815431 39.358699798583991 0.099015209823846831 0.25582627952098852 0.34038768708705908 0.15661392360925677 50.896373748779304 72.883335113525405 0.00087114732014015328
decision_type=2 2 2 2 2 2 2 2 2 2 2 2 2
left_child=1 3 5 6 -3 10 -1 -5 12 -7 -2 -10 -4
right_child=2 4 8 7 -6 9 -8 -9 11 -11 -12 -13 -14
leaf_value=-0.0032437904019176731 0.0017945297139089569 -0.0051054022309277259 0.0040467601036376965 0.00017750817960367129 -0.0017053024557747794 0.0013401451117106594 -0.0012765932766593371 -0.0010156329444089328 0.0016935980680850224 0.00026376753469407215 0.0031027022197133427 0.0033111061754903387 0.0028131261380219493
leaf_weight=68.13303416967392 157.49604442715645 86.937594398856163 143.57656653225422 369.36177921295166 59.662140086293221 200.54918976128101 747.68517471849918 226.68645004928112 82.616367250680923 240.54228596389294 69.967415004968643 50.986446961760521 53.988601133227348
leaf_count=255 508 342 430 1253 214 656 2646 796 267 813 216 156 168
internal_value=7.96017e-08 -0.00122406 0.00190701 -0.000955452 -0.00376323 0.00126005 -0.00144841 -0.000278141 0.00319769 0.000757 0.00222046 0.00235061 0.00374122
internal_weight=2558.19 1558.47 999.723 1411.87 146.6 668.555 815.818 596.048 331.168 441.091 227.463 133.603 197.565
internal_count=8720 5506 3214 4950 556 2193 2901 2049 1021 1469 724 423 598
is_linear=0
shrinkage=0.003


Tree=15
num_leaves=15
num_cat=0
split_feature=70 70 70 71 57 57 70 73 73 0 33 67 70 71
split_gain=623.276 212.719 108.548 47.8329 78.3835 44.8223 39.7085 38.5661 33.7883 20.0555 15.3681 15.1972 10.3811 3.00185
threshold=0.22307837009429934 0.35129773616790777 0.095422774553298964 1.0000000180025095e-35 1.929886184370844e-05 0.00015544283814961093 0.59542936086654674 0.00022322937002172696 0.00011628965876298027 0.76040923595428478 12.339208126068117 0.36413000524044042 0.17569208890199664 1.0000000180025095e-35
decision_type=2 2 2 2 2 2 2 2 2 2 2 2 2 2
left_child=2 3 8 4 -2 -5 11 10 9 -1 -4 -3 -9 -8
right_child=1 6 7 5 -6 -7 13 12 -10 -11 -12 -13 -14 -15
leaf_value=-0.0020275596267480861 0.00026844368977180141 0.00074699086456622059 -0.00046870374565891005 0.0036813922819666665 -0.0034530483564591458 0.00070213802767616436 0.0034480364367532605 -0.0034878336841227195 -0.0049479561922260683 -0.0039408440589435703 -0.0014338114175464309 0.0024971996516576773 -0.0015718068958258864 0.0048602909457011881
leaf_weight=193.47753004729748 573.96926766633987 52.619244769215584 464.76098956167698 61.778455257415771 53.879348993301392 162.80404104292393 58.105837464332581 62.042771682143211 70.325499296188354 70.47746530175209 218.59710332751274 399.77124606072903 51.7869883030653 63.742782413959503
leaf_count=700 1941 175 1607 187 203 543 177 234 276 269 777 1261 185 185
internal_value=9.39306e-08 0.00131804 -0.0016611 0.000365354 -6.08698e-05 0.00154694 0.00272609 -0.0010548 -0.00309215 -0.00256421 -0.000780712 0.00229781 -0.00265833 0.00425339
internal_weight=2558.14 1426.67 1131.47 852.431 627.849 224.582 574.239 797.188 334.28 263.955 683.358 452.39 113.83 121.849
internal_count=8720 4672 4048 2874 2144 730 1798 2803 1245 969 2384 1436 419 362
is_linear=0
shrinkage=0.003


Tree=16
num_leaves=15
num_cat=0
split_feature=69 70 51 70 71 57 70 70 70 51 57 71 8 34
split_gain=657.601 174.378 135.675 131.991 35.8285 44.7937 32.1114 28.1648 28.1171 25.7287 25.1487 17.3972 11.0936 6.77915
threshold=31.546728134155277 0.19739740341901782 0.19348438829183581 0.35430820286273962 1.0000000180025095e-35 -8.2701804785756381e-05 0.095422774553298964 0.60370662808418285 0.071711312979459776 0.22038463503122332 0.00025007703516166663 1.0000000180025095e-35 0.034437218680977828 0.81651738286018383
decision_type=2 2 2 2 2 2 2 2 2 2 2 2 2 2
left_child=1 2 6 9 5 -3 -1 12 -4 13 -6 -11 -5 -2
right_child=3 4 8 7 10 -7 -8 -9 -10 11 -12 -13 -14 -15
leaf_value=-0.0020712184283348889 0.0024675537817661149 -8.9303259543188762e-05 -0.0049834151132937855 0.0028055464659816533 0.0028844376232674833 -0.0026124140147622582 -0.00054903301104371855 0.0043496457816707993 -0.0029826480451665299 -0.00019147354766419869 0.00032788545407684295 0.0012874386873878293 0.0013756288464593374 0.0012113584439834011
leaf_weight=200.39083835482597 67.204241380095482 449.57205304503441 92.481139451265335 329.28008137643337 50.523525357246399 71.739787071943283 330.60069118440151 108.80987259745598 259.67335955798626 218.5977962911129 103.44462019205093 104.14793136715889 64.392493367195129 107.21670816838741
leaf_count=726 212 1537 363 1028 157 264 1146 322 964 749 349 341 210 352
internal_value=8.16695e-08 -0.00121763 -0.00209358 0.00189709 -6.92345e-05 -0.000445176 -0.00112911 0.00297877 -0.00353326 0.000796299 0.00119303 0.000290752 0.00257979 0.00171786
internal_weight=2558.08 1558.43 883.146 999.649 675.28 521.312 530.992 502.482 352.154 497.167 153.968 322.746 393.673 174.421
internal_count=8720 5506 3199 3214 2307 1801 1872 1560 1327 1654 506 1090 1238 564
is_linear=0
shrinkage=0.003


Tree=17
num_leaves=15
num_cat=0
split_feature=69 70 51 70 71 57 38 70 70 70 51 71 78 70
split_gain=653.733 173.353 134.889 131.226 35.6211 44.5341 36.5987 31.9227 28.0143 27.967 25.5791 17.2951 11.0395 6.74923
threshold=31.546728134155277 0.19739740341901782 0.19348438829183581 0.35430820286273962 1.0000000180025095e-35 -8.2701804785756381e-05 -0.00030780768429394806 0.095422774553298964 0.60370662808418285 0.071711312979459776 0.22038463503122332 1.0000000180025095e-35 8.7345848442055299e-05 0.22465483099222186
decision_type=2 2 2 2 2 2 2 2 2 2 2 2 2 2
left_child=1 2 7 10 5 -3 -6 -1 12 -4 13 -12 -5 -2
right_child=3 4 9 8 6 -7 -8 -9 -10 -11 11 -13 -14 -15
leaf_value=-0.0020651152596128986 0.00090779317172185771 -8.9036535026092975e-05 -0.0049693362534427472 0.0027663888343007932 0.002985546316844495 -0.0026048532487235676 1.3370736203357968e-05 -0.00054739672734529349 0.0043374655558631276 -0.0029738670682070895 -0.00019090418179197713 0.0012836713825597216 0.0011927710454701197 0.0021682621283248488
leaf_weight=200.386035785079 65.179191872477531 449.57208146154881 92.470604583621025 343.32524937391281 59.713559314608574 71.737980723381042 94.251979500055313 330.60014097392559 108.79372090101242 259.66469888389111 218.59801350533962 104.1460966616869 50.325293481349945 109.23832383751869
leaf_count=726 216 1537 363 1073 185 264 321 1146 322 964 749 341 165 348
internal_value=8.90249e-08 -0.00121403 -0.00208743 0.00189156 -6.90227e-05 -0.000443873 0.00118959 -0.00112576 0.00297016 -0.00352298 0.000793976 0.000289901 0.00257226 0.00171286
internal_weight=2558 1558.4 883.121 999.606 675.276 521.31 153.966 530.986 502.444 352.135 497.162 322.744 393.651 174.418
internal_count=8720 5506 3199 3214 2307 1801 506 1872 1560 1327 1654 1090 1238 564
is_linear=0
shrinkage=0.003


Tree=18
num_leaves=15
num_cat=0
split_feature=69 70 70 51 71 57 57 70 70 69 51 71 78 70
split_gain=649.888 172.369 130.468 101.597 50.585 53.4074 46.8983 28.7004 27.8655 26.9853 25.4298 17.1937 10.9738 6.70971
threshold=31.546728134155277 0.13697365671396258 0.35430820286273962 0.13781655579805377 1.0000000180025095e-35 -7.3750445608311557e-06 0.0001749344446579926 0.071711312979459776 0.60370662808418285 6.9907109737396249 0.22038463503122332 1.0000000180025095e-35 8.7345848442055299e-05 0.22465483099222186
decision_type=2 2 2 2 2 2 2 2 2 2 2 2 2 2
left_child=1 3 10 9 5 -3 -6 -5 12 -1 13 -12 -4 -2
right_child=2 4 8 7 6 -7 -8 -9 -10 -11 11 -13 -14 -15
leaf_value=-0.0019588264126213545 0.00090515738687874559 -0.00054345690831757122 0.0027583152450165178 -0.0045944874951105961 0.0032219151554484806 -0.0030541790297669027 7.8413030624058271e-06 -0.002751934253091524 0.0043253577133728792 0.00013251856774639838 -0.00019033647983487644 0.0012799160163096115 0.0011893554314898196 0.0021619428050198243
leaf_weight=113.21006247401237 65.178706616163254 705.25420722365379 343.30305776000023 147.30888046324253 52.710330784320831 83.730971723794937 161.42481899261475 187.99055698513985 108.77659286558628 106.73478604853153 218.59822757542133 104.1441814750433 50.324153184890747 109.23480449616909
leaf_count=409 216 2444 1073 572 162 312 550 694 322 363 749 341 165 348
internal_value=9.39777e-08 -0.00121046 0.00188605 -0.00254845 -0.000466259 -0.000816956 0.000821493 -0.00358388 0.00296159 -0.00095189 0.000791653 0.000289053 0.00256475 0.00170787
internal_weight=2557.92 1558.36 999.56 555.244 1003.12 788.985 214.135 335.299 502.404 219.945 497.156 322.742 393.627 174.414
internal_count=8720 5506 3214 2038 3468 2756 712 1266 1560 772 1654 1090 1238 564
is_linear=0
shrinkage=0.003


Tree=19
num_leaves=15
num_cat=0
split_feature=70 70 51 70 51 71 57 70 57 70 71 70 67 52
split_gain=609.643 207.816 116.221 65.84 48.9592 46.7974 77.3772 46.2653 44.299 38.8621 26.368 17.1095 15.0954 4.68481
threshold=0.22307837009429934 0.35129773616790777 0.23294406384229663 0.095422774553298964 0.10104103758931161 1.0000000180025095e-35 1.929886184370844e-05 0.18279099464416507 0.00015544283814961093 0.59542936086654674 1.0000000180025095e-35 0.09378701820969583 0.36413000524044042 0.13102727383375171
decision_type=2 2 2 2 2 2 2 2 2 2 2 2 2 2
left_child=2 5 3 4 -1 6 -2 11 -7 12 -5 -4 -3 -11
right_child=1 9 7 10 -6 8 -8 -9 -10 13 -12 -13 -14 -15
leaf_value=-0.00046953942581768032 0.00026765343397634609 0.00072720691449765749 -0.0050277024706384009 -0.00079992112088210249 -0.003296754344688829 0.0036530278377851252 -0.0034300721613423715 -0.0013218164450899414 0.00069112822438723151 0.0033583578445771593 0.00082075255174678162 -0.0031749950303869364 0.0024706882414115994 0.0049231927776801822
leaf_weight=84.276400521397591 573.96309044957161 52.611767217516899 85.645797401666641 464.17595092952251 161.57735340297222 61.765022158622742 53.872776716947556 88.278959274291992 162.79647861421108 60.940223768353462 110.34729541838169 137.06294620037079 399.69081746041775 60.838382706046104
leaf_count=292 1941 175 337 1621 606 187 203 313 543 186 367 512 1261 176
internal_value=1.00511e-07 0.00130366 -0.00164289 -0.00104633 -0.00233922 0.000362058 -5.95221e-05 -0.00319985 0.00153085 0.00269564 -0.000486875 -0.00392589 0.00227198 0.00420704
internal_weight=2557.84 1426.48 1131.36 820.377 245.854 852.397 627.836 310.988 224.562 574.081 574.523 222.709 452.303 121.779
internal_count=8720 4672 4048 2886 898 2874 2144 1162 730 1798 1988 849 1436 362
is_linear=0
shrinkage=0.003


Tree=20
num_leaves=14
num_cat=0
split_feature=70 70 70 70 73 73 33 67 36 59 14 70 52
split_gain=606.061 206.616 105.399 38.6616 38.1905 33.2894 15.2248 15.0061 14.8795 13.304 13.2923 10.1481 4.66074
threshold=0.22307837009429934 0.35129773616790777 0.095422774553298964 0.59542936086654674 0.00022322937002172696 0.00011628965876298027 12.339208126068117 0.36413000524044042 0.0024785619461908941 3.42115330696106 223034.50000000003 0.17569208890199664 0.13102727383375171
decision_type=2 2 2 2 2 2 2 2 2 2 2 2 2
left_child=2 8 5 7 6 9 -4 -3 10 -1 -2 -6 -5
right_child=1 3 4 12 11 -7 -8 -9 -10 -11 -12 -13 -14
leaf_value=-0.0019868027920990918 0.00057662452096075888 0.00072511508672874552 -0.00045745610188213383 0.0033490229437037038 -0.0034568545996136939 -0.004890477296965034 -0.0014179747543346228 0.0024634533802101459 -0.0011210692365766388 -0.0034578809307588606 -0.0008746145821147182 -0.0015616044623269461 0.0049098342143287354
leaf_weight=171.36144764721394 737.53807704150677 52.611022606492043 464.74419558048248 60.932342395186424 62.031403139233589 70.285901740193367 218.58812889456749 399.66797442734241 55.079963982105255 92.536951571702957 59.769343331456184 51.784840002655983 60.826357871294022
leaf_count=620 2471 175 1607 186 234 276 777 1261 194 349 209 185 176
internal_value=9.88096e-08 0.00129985 -0.00163808 0.00268788 -0.00104066 -0.00304846 -0.000767954 0.00226533 0.000360985 -0.00252477 0.000465918 -0.0026364 0.00419549
internal_weight=2557.76 1426.43 1131.33 574.038 797.149 334.184 683.332 452.279 852.387 263.898 797.307 113.816 121.759
internal_count=8720 4672 4048 1798 2803 1245 2384 1436 2874 969 2680 419 362
is_linear=0
shrinkage=0.003


Tree=21
num_leaves=15
num_cat=0
split_feature=69 70 70 73 70 71 57 70 57 69 43 71 8 66
split_gain=640.154 169.544 127.942 94.0309 40.2707 34.9795 43.9433 27.4149 24.6911 16.9847 16.9415 19.8374 10.9881 6.0189
threshold=31.546728134155277 0.19739740341901782 0.35430820286273962 0.00014106966409599411 0.096482966095209136 1.0000000180025095e-35 -8.2701804785756381e-05 0.60370662808418285 0.00025007703516166663 9.5478024482727069 39.168231964111335 1.0000000180025095e-35 0.034437218680977828 0.48871502280235296
decision_type=2 2 2 2 2 2 2 2 2 2 2 2 2 2
left_child=1 3 10 4 -1 6 -3 12 -7 -5 13 -12 -4 -2
right_child=2 5 7 9 -6 8 -8 -9 -10 -11 11 -13 -14 -15
leaf_value=-0.0025312801596733998 0.0008294695800606486 -8.8018017268968424e-05 0.0027682849210979208 -0.005063551670629266 -0.0010716652250423405 0.0028544184443079685 -0.0025871866202674169 0.0042903794803616996 0.00032114504261321179 -0.0027742104120832044 -9.3982093767262844e-05 0.0013612450158330116 0.0013465594375277725 0.0021670974674492336
leaf_weight=272.51057943701744 52.124538376927376 449.56997042894363 329.17603433132172 91.374904960393906 462.7136470079422 50.512459486722946 71.73122176527977 108.72084246575832 103.44209168851376 56.405871942639351 228.58099657297134 131.35513189435005 64.378501132130623 85.082682102918625
leaf_count=1001 173 1537 1028 360 1629 157 264 322 349 209 781 429 210 271
internal_value=8.16638e-08 -0.00120138 0.00187202 -0.00206521 -0.00161807 -6.90256e-05 -0.000440478 0.0029373 0.00117826 -0.00423845 0.00078829 0.000441676 0.0025437 0.00167816
internal_weight=2557.68 1558.26 999.419 883.005 735.224 675.256 521.301 502.275 153.955 147.781 497.143 359.936 393.555 137.207
internal_count=8720 5506 3214 3199 2630 2307 1801 1560 506 569 1654 1210 1238 444
is_linear=0
shrinkage=0.003


Tree=22
num_leaves=15
num_cat=0
split_feature=69 69 69 43 41 43 65 69 41 22 10 69 69 49
split_gain=636.395 88.4135 83.5917 36.9876 36.3061 34.8989 19.1337 17.9574 14.761 12.9154 8.80794 8.07442 8.01351 3.80404
threshold=31.546728134155277 60.656625747680671 7.5551369190216073 40.164888381958015 0.33889922499656683 39.358699798583991 -6.9977402687072745 3.3700643777847294 0.34038768708705908 3.5000000000000004 161.50000000000003 50.896373748779304 72.883335113525405 0.00087114732014015328
decision_type=2 2 2 2 2 2 2 2 2 2 2 2 2 2
left_child=2 5 3 7 6 11 -4 -1 13 -7 -6 -2 -10 -3
right_child=1 8 4 -5 10 9 -8 -9 12 -11 -12 -13 -14 -15
leaf_value=-0.0022094964419088732 0.0017642587757249219 0.0039739986816595988 0.00033702889768133369 -0.0034577657983622589 -0.0012178924738975882 0.001116652213600142 -0.00068949056590279138 -0.0010341915097600179 0.0016491694229988426 4.7123236677068917e-05 -0.0029700146264573053 0.0030513236073869102 0.003240942901703936 0.0027463366149403923
leaf_weight=252.93224228918552 157.46669609844685 143.45639841258526 221.61528462171555 132.89664669334888 50.838116094470024 282.73690895736217 609.62399519979954 228.19440557062626 82.587786227464676 158.28839576244354 62.119741663336754 69.936617568135262 50.943539455533028 53.947544738650322
leaf_count=920 508 430 749 501 180 931 2122 803 267 538 231 216 156 168
internal_value=8.55064e-08 0.00186658 -0.00119785 -0.002058 -0.000635314 0.00123257 -0.00041566 -0.00165865 0.00313208 0.000734733 -0.00221636 0.00218324 0.00229531 0.00366941
internal_weight=2557.58 999.364 1558.22 614.023 944.197 668.429 831.239 481.127 330.935 441.025 112.958 227.403 133.531 197.404
internal_count=8720 3214 5506 2224 3282 2193 2871 1723 1021 1469 411 724 423 598
is_linear=0
shrinkage=0.003


Tree=23
num_leaves=15
num_cat=0
split_feature=70 70 51 70 51 71 57 70 57 70 71 70 67 52
split_gain=596.792 203.194 115.117 64.5785 48.562 46.2298 76.7235 45.577 43.9685 38.1094 26.0993 16.7844 14.8977 4.6701
threshold=0.22307837009429934 0.35129773616790777 0.23294406384229663 0.095422774553298964 0.10104103758931161 1.0000000180025095e-35 1.929886184370844e-05 0.18279099464416507 0.00015544283814961093 0.59542936086654674 1.0000000180025095e-35 0.09378701820969583 0.36413000524044042 0.13102727383375171
decision_type=2 2 2 2 2 2 2 2 2 2 2 2 2 2
left_child=2 5 3 4 -1 6 -2 11 -7 12 -5 -4 -3 -11
right_child=1 9 7 10 -6 8 -8 -9 -10 13 -12 -13 -14 -15
leaf_value=-0.00045080324399344925 0.00026572007123261426 0.00071298359599011028 -0.0049879260908994123 -0.00078931462421782527 -0.0032662202358570633 0.0036350956070461625 -0.0034165031263269133 -0.001311294463238631 0.00068418025781795649 0.0033199402659532759 0.00082305127261998853 -0.0031520083897490403 0.002444593626797234 0.0048766767383305997
leaf_weight=84.268988057971001 573.95517110824585 52.605381280183792 85.606460884213448 464.16136692464352 161.5393917709589 61.754864111542702 53.867848873138428 88.276221856474876 162.79067116975784 60.905042871832848 110.34607768058777 137.04350896179676 399.5959534496069 60.792568355798721
leaf_count=292 1941 175 337 1621 606 187 203 313 543 186 367 512 1261 176
internal_value=1.00187e-07 0.00128996 -0.00162555 -0.00103188 -0.00231246 0.000358945 -6.00642e-05 -0.00317525 0.00152067 0.00266667 -0.000477845 -0.00389602 0.00224718 0.00416386
internal_weight=2557.51 1426.27 1131.24 820.316 245.808 852.369 627.823 310.926 224.546 573.899 574.507 222.65 452.201 121.698
internal_count=8720 4672 4048 2886 898 2874 2144 1162 730 1798 1988 849 1436 362
is_linear=0
shrinkage=0.003


Tree=24
num_leaves=14
num_cat=0
split_feature=69 73 69 71 38 38 69 43 71 41 69 69 71
split_gain=629.715 113.713 87.457 75.4627 75.7477 51.861 42.452 34.6655 22.4103 14.6435 7.98917 7.94259 4.52704
threshold=31.546728134155277 0.00039648672100156551 60.656625747680671 1.0000000180025095e-35 -0.00029346700466703618 -0.00071152977761812497 11.966566085815431 39.358699798583991 1.0000000180025095e-35 0.34038768708705908 50.896373748779304 72.883335113525405 1.0000000180025095e-35
decision_type=2 2 2 2 2 2 2 2 2 2 2 2 2
left_child=1 3 7 5 -5 -1 -3 10 -9 12 -2 -11 -4
right_child=2 6 9 4 -6 -7 -8 8 -10 11 -12 -13 -14
leaf_value=-0.0010106214763953407 0.0017570307498858413 -0.0050146619734746543 0.0031037539830463192 0.0023450255874269718 -0.00079309724040514012 -0.0028522442796604548 -0.0016626464428959834 0.00019059067572931514 0.0015764439284447127 0.0016392264850307895 0.0030375046020030779 0.0032238459747998458 0.0042672887257874234
leaf_weight=965.75492958724499 157.45831140875816 86.85885015130043 110.94162258505821 112.26868180930614 173.88068626821041 159.74018123745918 59.646433472633362 270.7961895018816 170.21323296427727 82.580171346664429 69.926346465945244 50.930638208985329 86.41054493188858
leaf_count=3395 508 342 342 356 607 592 214 917 552 267 216 156 256
internal_value=9.84791e-08 -0.00119154 0.0018569 -0.000927308 0.000445854 -0.0012766 -0.00369073 0.00122633 0.000730181 0.0031157 0.00217386 0.00228237 0.00365091
internal_weight=2557.41 1558.15 999.257 1411.64 286.149 1125.5 146.505 668.394 441.009 330.863 227.385 133.511 197.352
internal_count=8720 5506 3214 4950 963 3987 556 2193 1469 1021 724 423 598
is_linear=0
shrinkage=0.003


Tree=25
num_leaves=9
num_cat=0
split_feature=73 33 73 73 28 43 41 38
split_gain=53.7379 24.6286 40.5733 20.843 18.4363 17.9242 12.6231 10.9862
threshold=0.0012343485141173007 12.276239871978762 -0.0024458041880279775 -0.0039126104675233355 0.17892495542764666 44.739547729492195 0.19317452609539035 -0.0057773005682975045
decision_type=2 2 2 2 2 2 2 2
left_child=1 2 6 7 -5 -4 -1 -3
right_child=-2 3 5 4 -6 -7 -8 -9
leaf_value=0.0010093957556921518 -0.0022092538777612469 -0.00022305982958621115 -4.3981056640979082e-05 -0.00039339784238708156 -0.0017661834135506537 0.00064308044903577089 0.0030489850798124099 0.0013434565063320456
leaf_weight=60.868970841169357 93.389726236462593 81.827446848154068 1207.6292187124491 398.48627963662148 111.70997698605061 474.48156487941742 52.460485681891441 76.460250645875931
leaf_count=201 340 281 4124 1375 401 1586 162 250
internal_value=1.21224e-07 8.55867e-05 0.000268562 -0.00040519 -0.000699699 0.000150355 0.00199003 0.000540961
internal_weight=2557.31 2463.92 1795.44 668.484 510.196 1682.11 113.329 158.288
internal_count=8720 8380 6073 2307 1776 5710 363 531
is_linear=0
shrinkage=0.003


Tree=26
num_leaves=15
num_cat=0
split_feature=69 70 51 70 71 57 38 71 70 70 51 71 38 34
split_gain=625.647 167.116 131.839 125.444 34.3301 43.4679 35.8304 31.2868 26.9157 26.9075 25.1065 16.7195 10.991 6.78214
threshold=31.546728134155277 0.19739740341901782 0.19348438829183581 0.35430820286273962 1.0000000180025095e-35 -8.2701804785756381e-05 -0.00030780768429394806 1.0000000180025095e-35 0.071711312979459776 0.60370662808418285 0.22038463503122332 1.0000000180025095e-35 -0.00054301024647429575 0.81651738286018383
decision_type=2 2 2 2 2 2 2 2 2 2 2 2 2 2
left_child=1 2 7 10 5 -3 -6 -1 -4 12 13 -12 -5 -2
right_child=3 4 8 9 6 -7 -8 -9 -10 -11 11 -13 -14 -15
leaf_value=-0.001420456087654507 0.0024374807783528762 -8.0967486495255091e-05 -0.0048849993445122938 0.0028935050373674422 0.0029495531689080448 -0.0025666793188386752 8.5736078204810558e-06 0.00051907859685723895 -0.0029261682763181362 0.0042470672089217456 -0.0001940485625718646 0.0012558366580837949 0.0017839971746625195 0.0011827943794342319
leaf_weight=441.95807096362114 67.191870674490929 449.5667807161808 92.378746122121811 255.75701902806759 59.69600735604763 71.722056955099106 94.249699205160141 88.952694296836853 259.58522172272205 108.63851407170296 218.59345003962517 104.12796980142593 137.68356128036976 107.19983142614365
leaf_count=1573 212 1537 363 795 185 264 321 299 964 322 749 341 443 352
internal_value=1.2417e-07 -0.00118766 -0.00204537 0.00185099 -6.34673e-05 -0.000431469 0.00117221 -0.00109476 -0.00346499 0.0029061 0.000777957 0.000278619 0.00251622 0.00168837
internal_weight=2557.3 1558.11 882.875 999.192 675.235 521.289 153.946 530.911 351.964 502.079 497.113 322.721 393.441 174.392
internal_count=8720 5506 3199 3214 2307 1801 506 1872 1327 1560 1654 1090 1238 564
is_linear=0
shrinkage=0.003


Tree=27
num_leaves=14
num_cat=0
split_feature=69 73 69 69 69 43 52 41 47 41 69 69 49
split_gain=621.977 112.65 86.49 49.924 42.1073 34.3926 26.6765 21.9664 14.932 14.5167 7.91252 7.86293 3.82617
threshold=31.546728134155277 0.00039648672100156551 60.656625747680671 12.737261772155763 11.966566085815431 39.358699798583991 0.099015209823846831 0.25582627952098852 -0.0015006625908426938 0.34038768708705908 50.896373748779304 72.883335113525405 0.00087114732014015328
decision_type=2 2 2 2 2 2 2 2 2 2 2 2 2
left_child=1 3 5 6 -3 10 -1 -5 -7 12 -2 -11 -4
right_child=2 4 9 7 -6 8 -8 -9 -10 11 -12 -13 -14
leaf_value=-0.0031832764106931141 0.0017476306753609345 -0.0049907333507298555 0.0039346186500522845 0.00019160154537593184 -0.0016522993851108207 0.00015445217512075944 -0.001232310692568205 -0.00099076804710671235 0.0012582092376243557 0.0016282894064699042 0.0030219688385567873 0.0032048702645509405 0.0027102905681606051
leaf_weight=68.104538768529892 157.44758734107018 86.8313048183918 143.37129479646683 369.322201192379 59.642114117741585 214.51719999313354 747.5090576261282 226.65014778077602 226.47319279611111 82.571293830871582 69.913978025317192 50.915108278393745 53.919128820300102
leaf_count=255 508 342 430 1253 214 727 2646 796 742 267 216 156 168
internal_value=1.36034e-07 -0.00118417 0.00184563 -0.000921192 -0.00367193 0.00121859 -0.00140261 -0.000259867 0.000724414 0.00309766 0.00216243 0.00226807 0.00363057
internal_weight=2557.19 1558.06 999.129 1411.59 146.473 668.352 815.614 595.972 440.99 330.777 227.362 133.486 197.29
internal_count=8720 5506 3214 4950 556 2193 2901 2049 1469 1021 724 423 598
is_linear=0
shrinkage=0.003


Tree=28
num_leaves=15
num_cat=0
split_feature=69 70 70 73 71 57 57 69 70 61 14 8 69 43
split_gain=618.341 166.107 124.309 70.326 48.7299 52.307 45.9493 36.7671 26.687 17.4568 13.522 10.9514 0.95935 0.637992
threshold=31.546728134155277 0.13697365671396258 0.35430820286273962 0.00011628965876298027 1.0000000180025095e-35 -7.3750445608311557e-06 0.0001749344446579926 7.438796043395997 0.60370662808418285 0.44196027517318731 152590.00000000003 0.034437218680977828 75.784576416015639 42.894924163818366
decision_type=2 2 2 2 2 2 2 2 2 2 2 2 2 2
left_child=1 3 9 7 5 -3 -6 -1 11 10 -2 -4 -10 -5
right_child=2 4 8 13 6 -7 -8 -9 12 -11 -12 -13 -14 -15
leaf_value=-0.0028164667581167422 0.00079247399930412851 -0.0005238239975011563 0.0027266236095393379 -0.0039603585024925577 0.0031901998525475069 -0.0030087691996923682 8.4325157712065531e-06 -0.0010875986093143439 0.0035075347777013943 0.0021379054701598853 -0.00057008805540258991 0.0013093721824843901 0.0047545486817638424 -0.005294100343996448
leaf_weight=224.35317130386829 347.65233965218067 705.20805609226227 329.02214007079601 55.46703214943409 52.694189071655273 83.705153465270996 161.41734074056149 224.71469724178314 52.459402233362198 70.29909260571003 79.144978135824203 64.355035349726677 56.134983956813812 50.466005563735962
leaf_count=831 1156 2444 1028 213 162 312 550 793 159 224 274 210 163 201
internal_value=1.49282e-07 -0.00118068 0.00184031 -0.0024945 -0.000450194 -0.000794423 0.000813762 -0.00196 0.0028908 0.000772194 0.000538321 0.00250256 0.00422647 -0.00468207
internal_weight=2557.09 1558.03 999.068 555.001 1003.02 788.913 214.112 449.068 501.972 497.096 426.797 393.377 108.594 105.933
internal_count=8720 5506 3214 2038 3468 2756 712 1624 1560 1654 1430 1238 322 414
is_linear=0
shrinkage=0.003


Tree=29
num_leaves=15
num_cat=0
split_feature=69 70 51 70 70 70 70 51 69 42 41 38 34 69
split_gain=614.726 165.235 130.747 123.609 30.6068 26.6046 26.5586 24.8732 18.7502 15.6142 15.1434 10.9351 6.75486 0.955794
threshold=31.546728134155277 0.19739740341901782 0.19348438829183581 0.35430820286273962 0.095422774553298964 0.071711312979459776 0.60370662808418285 0.22038463503122332 3.9417641162872319 8.0662088394165057 0.097256474196910872 -0.00054301024647429575 0.81651738286018383 75.784576416015639
decision_type=2 2 2 2 2 2 2 2 2 2 2 2 2 2
left_child=1 2 4 7 -1 -4 11 12 -3 -9 -10 -5 -2 -8
right_child=3 8 5 6 -6 -7 13 9 10 -11 -12 -13 -14 -15
leaf_value=-0.0020035395915254149 0.0024235195063588514 -0.0012690112922229969 -0.0048562388218841611 0.0028715310935497032 -0.00051744084076979968 -0.0029084365928668953 0.0034980320898877937 0.00164050291222833 0.0012467942809504678 -4.3202150191036932e-05 -6.6852946516038307e-05 0.0017654414538808704 0.0011718627191475834 0.0047420618757578218
leaf_weight=200.30525144934654 67.185632199048996 96.57266303896904 92.335925355553627 255.68884763121605 330.57164879143238 259.54616260528564 52.449554398655891 59.020411089062691 92.248684853315353 263.6922018378973 486.39612287282944 137.65383033454418 107.19264668226242 56.119240254163742
leaf_count=726 212 342 363 795 1146 964 159 191 303 899 1662 443 352 163
internal_value=1.51608e-07 -0.00117723 -0.00203018 0.001835 -0.00108358 -0.00344411 0.00288262 0.000769914 -5.94075e-05 0.000272936 0.000146144 0.00249533 0.00167612 0.00421522
internal_weight=2556.98 1557.98 882.759 999.002 530.877 351.882 501.911 497.091 675.217 322.713 578.645 393.343 174.378 108.569
internal_count=8720 5506 3199 3214 1872 1327 1560 1654 2307 1090 1965 1238 564 322
is_linear=0
shrinkage=0.003


Tree=30
num_leaves=15
num_cat=0
split_feature=69 71 69 57 57 69 41 69 71 41 51 69 27 71
split_gain=611.137 88.6889 85.2786 74.7857 53.4924 53.2214 33.8202 19.9786 14.682 14.3774 8.69719 7.75909 4.80791 4.5611
threshold=31.546728134155277 1.0000000180025095e-35 60.656625747680671 0.0001749344446579926 4.0126151361619129e-05 3.6858468055725102 0.19811058044433597 11.966566085815431 1.0000000180025095e-35 0.34038768708705908 0.18951778858900073 72.883335113525405 0.76977780461311351 1.0000000180025095e-35
decision_type=2 2 2 2 2 2 2 2 2 2 2 2 2 2
left_child=1 4 6 -3 5 -1 12 -5 -8 13 -6 -11 -2 -4
right_child=2 3 9 7 10 -7 8 -9 -10 11 -12 -13 -14 -15
leaf_value=-0.0023457246477839645 0.0018992063748979658 0.0029578499740636815 0.0030581444908541924 -0.0020206157642457404 -0.0023087388130879492 -0.00090368983081081516 0.00044855583146420451 -2.2638518540401565e-05 0.0015095977058672196 0.0016126317783650235 -0.0041243710526813037 0.0031785904875198949 0.0030896467577217453 0.0042188927937559066
leaf_weight=322.70104220509529 90.752273201942444 69.882770255208015 110.86374604701996 58.757672905921936 51.364015907049179 810.75669586658478 330.74035400152206 174.32653971016407 182.26191115379333 82.557291388511658 70.137520089745522 50.891094982624054 64.531999379396439 86.33510322868824
leaf_count=1180 291 217 342 213 188 2843 1111 595 592 267 270 156 199 256
internal_value=1.69233e-07 -0.00117378 0.00182973 0.000281535 -0.001525 -0.00131765 0.00120714 -0.00053921 0.000829926 0.00307325 -0.00340664 0.00224793 0.00242692 0.00360358
internal_weight=2556.86 1557.93 998.934 302.967 1254.96 1133.46 668.287 233.084 513.002 330.647 121.502 133.448 155.284 197.199
internal_count=8720 5506 3214 1025 4481 4023 2193 808 1703 1021 458 423 490 598
is_linear=0
shrinkage=0.003


Tree=31
num_leaves=14
num_cat=0
split_feature=69 73 69 71 38 38 69 43 71 69 43 69 71
split_gain=607.566 111.317 84.8095 73.5685 74.6845 51.1947 41.6259 33.9406 22.001 14.2227 11.3605 7.82618 2.63229
threshold=31.546728134155277 0.00039648672100156551 60.656625747680671 1.0000000180025095e-35 -0.00029346700466703618 -0.00071152977761812497 11.966566085815431 39.358699798583991 1.0000000180025095e-35 73.850730895996108 41.683387756347663 50.896373748779304 1.0000000180025095e-35
decision_type=2 2 2 2 2 2 2 2 2 2 2 2 2
left_child=1 3 7 5 -5 -1 -3 11 -9 10 -4 -2 -11
right_child=2 6 9 4 -6 -7 -8 8 -10 12 -12 -13 -14
leaf_value=-0.00098964352977700082 0.0017290533566429683 -0.0049554801603096015 0.0035942728765544535 0.0023328182636149376 -0.00078337872742474722 -0.0028194849947924747 -0.0016361033805795807 0.00017819132737667426 0.0015513319687834332 0.0031764620151863042 0.0020635048922135837 0.0029959624871127607 0.0045725808137494694
leaf_weight=965.65012744069099 157.42385977506638 86.782675832509995 70.689825668931007 112.2538607865572 173.86994375288486 159.69532503187656 59.633830472826958 270.77502529323101 170.17759475111961 51.228805869817734 150.85945609211922 69.890523284673691 57.822238400578499
leaf_count=3395 508 342 214 356 607 592 214 917 552 157 481 216 169
internal_value=1.92832e-07 -0.00117032 0.00182448 -0.000908945 0.000446894 -0.00125385 -0.0036438 0.00120362 0.000712742 0.00306468 0.00257971 0.00214131 0.00398575
internal_weight=2556.75 1557.89 998.867 1411.47 286.124 1125.35 146.417 668.267 440.953 330.6 221.549 227.314 109.051
internal_count=8720 5506 3214 4950 963 3987 556 2193 1469 1021 695 724 326
is_linear=0
shrinkage=0.003


Tree=32
num_leaves=14
num_cat=0
split_feature=69 73 69 71 38 38 69 43 71 41 69 71 71
split_gain=604.021 110.697 84.3461 73.1339 74.2461 50.9003 41.4023 33.7462 21.8722 14.2826 7.78448 7.71299 4.53989
threshold=31.546728134155277 0.00039648672100156551 60.656625747680671 1.0000000180025095e-35 -0.00029346700466703618 -0.00071152977761812497 11.966566085815431 39.358699798583991 1.0000000180025095e-35 0.34038768708705908 50.896373748779304 1.0000000180025095e-35 1.0000000180025095e-35
decision_type=2 2 2 2 2 2 2 2 2 2 2 2 2
left_child=1 3 7 5 -5 -1 -3 10 -9 12 -2 -11 -4
right_child=2 6 9 4 -6 -7 -8 8 -10 11 -12 -13 -14
leaf_value=-0.00098669256837581078 0.0017239994936346773 -0.0049420003877550219 0.0030411876124935154 0.0023260112730479443 -0.00078105762946150499 -0.002811318421269218 -0.0016313998564954947 0.00017766105638749547 0.0015467926365316325 0.0015063497315858988 0.0029875542051658703 0.0030311536268037989 0.0041981420398169884
leaf_weight=965.6385415494442 157.41755974292755 86.763809099793434 110.83194537460804 112.25047761201859 173.86942519247532 159.68457086384296 59.632112875580788 270.7744447439909 170.17085781693459 72.791374906897545 69.882605016231537 60.629699379205704 86.299067765474319
leaf_count=3395 508 342 342 356 607 592 214 917 552 236 216 187 256
internal_value=2.18126e-07 -0.00116688 0.00181925 -0.000906244 0.000445591 -0.00125014 -0.00363364 0.0012001 0.000710639 0.00305617 0.00213514 0.00223379 0.00358475
internal_weight=2556.64 1557.84 998.798 1411.44 286.12 1125.32 146.396 668.245 440.945 330.552 227.3 133.421 197.131
internal_count=8720 5506 3214 4950 963 3987 556 2193 1469 1021 724 423 598
is_linear=0
shrinkage=0.003


Tree=33
num_leaves=15
num_cat=0
split_feature=70 70 51 70 51 71 57 70 57 70 71 70 38 71
split_gain=572.015 193.36 112.607 62.7526 47.8428 44.2949 75.5975 44.2171 43.2401 36.5405 24.8912 16.2904 12.5329 3.17989
threshold=0.22307837009429934 0.35129773616790777 0.23294406384229663 0.095422774553298964 0.10104103758931161 1.0000000180025095e-35 1.929886184370844e-05 0.18279099464416507 0.00015544283814961093 0.59542936086654674 1.0000000180025095e-35 0.09378701820969583 -0.0004802193288924172 1.0000000180025095e-35
decision_type=2 2 2 2 2 2 2 2 2 2 2 2 2 2
left_child=2 5 3 4 -1 6 -2 11 -7 12 -5 -4 -3 -11
right_child=1 9 7 10 -6 8 -8 -9 -10 13 -12 -13 -14 -15
leaf_value=-0.00041995911040255566 0.00026846550612877866 0.0025495893713912031 -0.0049114736372588268 -0.00076258986775377307 -0.003214114177801253 0.0035899636136133475 -0.0033871948509589839 -0.0012888973108631356 0.00066333493757123486 0.0032789405252542244 0.00081204442638684829 -0.0031021876791684729 0.0014467319948543945 0.0046781825123500933
leaf_weight=84.250891044735909 573.91903936862946 303.94993415474892 85.499096721410751 464.09762924909592 161.44398832321167 61.72254604101181 53.849438339471817 88.264062896370888 162.76500198245049 57.947618708014488 110.33538438379765 136.98022195696831 147.96338059008121 63.527593165636063
leaf_count=292 1941 955 337 1621 606 187 203 313 543 177 367 512 481 185
internal_value=2.3954e-07 0.00126335 -0.00159153 -0.00100443 -0.0022671 0.000355277 -5.4875e-05 -0.00312471 0.0014926 0.00260714 -0.000458371 -0.00383506 0.00219646 0.00407462
internal_weight=2556.52 1425.64 1130.87 820.128 245.695 852.256 627.768 310.743 224.488 573.389 574.433 222.479 451.913 121.475
internal_count=8720 4672 4048 2886 898 2874 2144 1162 730 1798 1988 849 1436 362
is_linear=0
shrinkage=0.003


Tree=34
num_leaves=15
num_cat=0
split_feature=69 71 69 57 57 69 41 69 71 41 37 71 27 71
split_gain=597.698 86.7928 83.4567 73.7582 52.8219 52.7049 33.3122 19.8181 14.347 14.1741 10.0026 7.6654 4.79775 4.51159
threshold=31.546728134155277 1.0000000180025095e-35 60.656625747680671 0.0001749344446579926 4.0126151361619129e-05 3.6858468055725102 0.19811058044433597 11.966566085815431 1.0000000180025095e-35 0.34038768708705908 -0.00088621873874217261 1.0000000180025095e-35 0.76977780461311351 1.0000000180025095e-35
decision_type=2 2 2 2 2 2 2 2 2 2 2 2 2 2
left_child=1 4 6 -3 5 -1 12 -5 -8 13 -6 -11 -2 -4
right_child=2 3 9 7 10 -7 8 -9 -10 11 -12 -13 -14 -15
leaf_value=-0.0023253708749539411 0.0018786357289051342 0.0029371420260218737 0.0030255880872928358 -0.0020116546649866359 -0.0023902527713439235 -0.00089030010054260062 0.00044269882427127493 -2.1617402755958419e-05 0.0014916240095894622 0.0014964039377407094 -0.0042841776222839216 0.0030161796097064862 0.0030659374972510042 0.0041783413667250214
leaf_weight=322.6347703486681 90.730989262461662 69.86902904510498 110.79989539086819 58.749386101961136 61.57684950530529 810.68979203701019 330.72326539456844 174.32059259712696 182.23037576675415 72.780901685357094 59.884144827723503 60.61384217441082 64.51394972205162 86.261218160390854
leaf_count=1180 291 217 342 213 226 2843 1111 595 592 236 232 187 199 256
internal_value=2.39321e-07 -0.00116075 0.00180988 0.000278978 -0.00150823 -0.00130221 0.00119403 -0.000536089 0.000819683 0.00304049 -0.00337829 0.00222133 0.00240475 0.0035671
internal_weight=2556.38 1557.72 998.654 302.939 1254.79 1133.32 668.199 233.07 512.954 330.456 121.461 133.395 155.245 197.061
internal_count=8720 5506 3214 1025 4481 4023 2193 808 1703 1021 458 423 490 598
is_linear=0
shrinkage=0.003


Tree=35
num_leaves=15
num_cat=0
split_feature=70 70 70 71 57 57 73 70 73 0 33 38 70 52
split_gain=566.361 191.326 100.212 43.7611 75.0307 42.8879 36.9388 36.2197 31.4721 19.5581 14.8366 12.4918 9.5339 4.81562
threshold=0.22307837009429934 0.35129773616790777 0.095422774553298964 1.0000000180025095e-35 1.929886184370844e-05 0.00015544283814961093 0.00022322937002172696 0.59542936086654674 0.00011628965876298027 0.76040923595428478 12.339208126068117 -0.0004802193288924172 0.17569208890199664 0.13102727383375171
decision_type=2 2 2 2 2 2 2 2 2 2 2 2 2 2
left_child=2 3 8 4 -2 -5 10 11 9 -1 -4 -3 -8 -9
right_child=1 7 6 5 -6 -7 12 13 -10 -11 -12 -13 -14 -15
leaf_value=-0.0019223522563903267 0.00026837716457397205 0.0025377675530676132 -0.00042681226192525513 0.0035735108219632702 -0.003373774202773789 0.00065863308549219855 -0.0033672536438573786 0.0032146500953129271 -0.0047529951488561864 -0.0038087462357036159 -0.0013748440595835524 0.0014369400080755106 -0.001528234036782605 0.0047685585082699166
leaf_weight=193.32692316174507 573.91211211681366 303.89879466593266 464.65584486722946 61.709014907479286 53.842050150036812 162.75915353000164 61.969341740012169 60.774009749293327 70.121641501784325 70.390536457300186 218.54062204062939 147.94355344772339 51.769927263259888 60.644420221447945
leaf_count=700 1941 955 1607 187 203 543 234 186 276 269 777 481 185 176
internal_value=2.61225e-07 0.00125719 -0.00158368 0.00035394 -5.37302e-05 0.00148445 -0.00100128 0.00259409 -0.00295975 -0.00245074 -0.000733196 0.00218525 -0.00257107 0.00405547
internal_weight=2556.26 1425.48 1130.77 852.222 627.754 224.468 796.936 573.261 333.839 263.717 683.196 451.842 113.739 121.418
internal_count=8720 4672 4048 2874 2144 730 2803 1798 1245 969 2384 1436 419 362
is_linear=0
shrinkage=0.003


Tree=36
num_leaves=15
num_cat=0
split_feature=69 70 70 51 70 51 70 69 70 51 69 42 8 34
split_gain=591.481 161.672 119.8 97.6053 33.7979 44.1071 27.3955 26.1373 25.7927 24.4973 18.3032 15.4754 10.9309 6.76142
threshold=31.546728134155277 0.13697365671396258 0.35430820286273962 0.13781655579805377 0.19739740341901782 0.19348438829183581 0.071711312979459776 6.9907109737396249 0.60370662808418285 0.22038463503122332 3.9417641162872319 8.0662088394165057 0.034437218680977828 0.81651738286018383
decision_type=2 2 2 2 2 2 2 2 2 2 2 2 2 2
left_child=1 3 9 7 5 -3 -5 -1 12 13 -6 -11 -4 -2
right_child=2 4 8 6 10 -7 -8 -9 -10 11 -12 -13 -14 -15
leaf_value=-0.0018783236301853725 0.0023987965089709564 -0.00027327520616233565 0.0026747091413694998 -0.0044548331494873427 -0.0012446166523687771 -0.0024955231430915889 -0.0026549653513404286 0.00017949873822704817 0.0041468064370272575 0.0016206856539702878 0.00015361956240527149 -5.5565306042252495e-05 0.0012614547422030208 0.0011479693710570857
leaf_weight=113.14945892989635 67.169786721467972 189.3048088401556 328.77864894270897 147.02885681390762 96.564243748784065 138.43184992671013 187.83127501606941 106.71010978519917 108.39009591937065 59.010397791862488 578.59247636795044 263.66926318407059 64.31632362306118 107.17162053287029
leaf_count=409 212 652 1028 572 342 509 694 363 322 191 1965 899 210 352
internal_value=2.50879e-07 -0.0011547 0.00180061 -0.00245127 -0.00043409 -0.00122137 -0.003467 -0.000886933 0.00283257 0.000752206 -4.94484e-05 0.000259076 0.00245104 0.00165163
internal_weight=2556.12 1557.61 998.506 554.72 1002.89 327.737 334.86 219.86 501.485 497.021 675.157 322.68 393.095 174.341
internal_count=8720 5506 3214 2038 3468 1161 1266 772 1560 1654 2307 1090 1238 564
is_linear=0
shrinkage=0.003


Tree=37
num_leaves=15
num_cat=0
split_feature=69 70 70 51 71 39 70 47 69 70 51 71 8 2
split_gain=588.027 160.74 119.123 97.0546 46.6769 47.3763 27.2536 27.2209 25.985 25.6664 24.3552 16.115 10.8677 6.73128
threshold=31.546728134155277 0.13697365671396258 0.35430820286273962 0.13781655579805377 1.0000000180025095e-35 1.0000000180025095e-35 0.071711312979459776 -0.00078525644494220604 6.9907109737396249 0.60370662808418285 0.22038463503122332 1.0000000180025095e-35 0.034437218680977828 -0.11712700128555296
decision_type=2 2 2 2 2 2 2 2 2 2 2 2 2 2
left_child=1 3 10 8 5 -3 -5 -6 -1 12 13 -12 -4 -2
right_child=2 4 9 6 7 -7 -8 -9 -10 -11 11 -13 -14 -15
leaf_value=-0.0018728715366805844 0.0023025482514121101 -0.00051844611919766583 0.0026670503051231223 -0.0044425926339432542 0.0017928750286151968 -0.0029306098327456045 -0.0026472915757784531 -0.00033694516260696159 0.00017896970186427618 0.0041357907176504793 -0.00020556740684241548 0.001217943784351349 0.0012578441579401294 0.001079880594547662
leaf_weight=113.14424131810665 78.003038436174393 708.84887783229351 328.73942138254642 146.99721610546112 114.09898313879967 79.956202551722527 187.81643868982792 99.978473141789436 106.71037973463535 108.35813248157501 218.58261638879776 104.09546867012978 64.313183799386024 96.331806793808937
leaf_count=409 247 2458 1028 572 368 298 694 344 363 322 749 341 210 317
internal_value=2.51398e-07 -0.00115133 0.00179544 -0.00244423 -0.000432815 -0.000769745 -0.0034572 0.000804294 -0.000884338 0.00282459 0.000750023 0.000258329 0.002444 0.00164685
internal_weight=2555.97 1557.55 998.424 554.668 1002.88 788.805 334.814 214.077 219.855 501.411 497.013 322.678 393.053 174.335
internal_count=8720 5506 3214 2038 3468 2756 1266 712 772 1560 1654 1090 1238 564
is_linear=0
shrinkage=0.003


Tree=38
num_leaves=13
num_cat=0
split_feature=69 73 69 69 69 43 47 47 47 69 43 69
split_gain=584.591 108.815 81.8654 47.8447 40.7464 33.1972 25.8257 15.7262 14.5101 14.0001 10.8926 7.61701
threshold=31.546728134155277 0.00039648672100156551 60.656625747680671 12.737261772155763 11.966566085815431 39.358699798583991 -0.00045395309280138457 -0.00018840347183868286 -0.0015006625908426938 75.784576416015639 41.683387756347663 50.896373748779304
decision_type=2 2 2 2 2 2 2 2 2 2 2 2
left_child=1 3 5 6 -3 11 -1 -5 -7 10 -4 -2
right_child=2 4 9 7 -6 8 -8 -9 -10 -11 -12 -13
leaf_value=-0.0012175491164164315 0.001701349208444797 -0.0048933213173803225 0.0035630030050018795 -3.9683173191734957e-06 -0.0016087359053100422 0.0001332938267201119 -0.0034143497933883994 -0.0012358754757080472 0.0012212689439460979 0.004078218810096612 0.0021178327463351461 0.0029512499136251889
leaf_weight=765.05581507086754 157.37891013920307 86.675467178225517 75.941503822803497 482.24664044380188 59.616100162267685 214.47865970432758 50.26245205104351 113.62753865122795 226.39194171130657 87.353801369667053 166.95085203647614 69.842083737254143
leaf_count=2711 508 342 230 1647 214 727 190 402 742 260 531 216
internal_value=2.54631e-07 -0.00114797 0.00179028 -0.000889612 -0.00359455 0.00118039 -0.001361 -0.00024223 0.000694973 0.00300958 0.00259508 0.00210794
internal_weight=2555.82 1557.48 998.338 1411.19 146.292 668.092 815.318 595.874 440.871 330.246 242.892 227.221
internal_count=8720 5506 3214 4950 556 2193 2901 2049 1469 1021 761 724
is_linear=0
shrinkage=0.003


Tree=39
num_leaves=15
num_cat=0
split_feature=69 70 51 70 71 72 71 70 70 51 71 37 78 2
split_gain=581.181 159.76 127.729 118.065 32.4023 32.1263 30.0334 25.639 25.4466 24.146 16.001 13.5997 10.8175 6.69863
threshold=31.546728134155277 0.19739740341901782 0.19348438829183581 0.35430820286273962 1.0000000180025095e-35 -0.66666667163372029 1.0000000180025095e-35 0.071711312979459776 0.60370662808418285 0.22038463503122332 1.0000000180025095e-35 -0.00040862134483177209 8.7345848442055299e-05 -0.11712700128555296
decision_type=2 2 2 2 2 2 2 2 2 2 2 2 2 2
left_child=1 2 6 9 5 -3 -1 -4 12 13 -11 -6 -5 -2
right_child=3 4 7 8 11 -7 -8 -9 -10 10 -12 -13 -14 -15
leaf_value=-0.0013673971945478204 0.0022914713266943033 -0.00014108173937664261 -0.0047695797473376418 0.0026229061499292643 0.0017883941818904287 -0.0025172501940382364 0.00053271527689425081 -0.0028560454170434547 0.0041158417596894124 -0.00020734221758012303 0.0012111417692200505 -8.1488427768131589e-05 0.0010722643084476304 0.0010720467004783454
leaf_weight=441.78604903817177 77.995207548141479 465.6516115963459 92.172279953956604 342.70784623920918 101.18948508799076 55.578835994005203 88.938532412052155 259.39490967988968 108.29719819128513 218.58098025619984 104.08904613554478 52.723257675766945 50.260729476809502 96.325173541903496
leaf_count=1573 247 1596 363 1073 326 205 299 964 322 749 341 180 165 317
internal_value=2.61886e-07 -0.00114461 -0.00198363 0.00178515 -4.55344e-05 -0.000403106 -0.00104817 -0.00338187 0.00280993 0.000744441 0.000254884 0.00115503 0.00243101 0.00163745
internal_weight=2555.69 1557.43 882.292 998.256 675.143 521.23 530.725 351.567 501.266 496.99 322.67 153.913 392.969 174.32
internal_count=8720 5506 3199 3214 2307 1801 1872 1327 1560 1654 1090 506 1238 564
is_linear=0
shrinkage=0.003


Tree=40
num_leaves=15
num_cat=0
split_feature=69 70 70 73 71 38 72 69 70 61 19 38 52 43
split_gain=577.785 158.911 117.401 67.898 46.0908 64.1465 46.4216 35.9725 25.3237 17.2838 15.0288 10.8831 4.34178 0.756569
threshold=31.546728134155277 0.13697365671396258 0.35430820286273962 0.00011628965876298027 1.0000000180025095e-35 -0.00055365695152431716 -0.66666667163372029 7.438796043395997 0.60370662808418285 0.44196027517318731 40138.500000000007 -0.00054301024647429575 0.13102727383375171 42.894924163818366
decision_type=2 2 2 2 2 2 2 2 2 2 2 2 2 2
left_child=1 3 9 7 6 -6 -3 -1 11 10 -2 -4 -10 -5
right_child=2 4 8 13 5 -7 -8 -9 12 -11 -12 -13 -14 -15
leaf_value=-0.0027494285194528422 0.0008128307399760564 -0.00050502868775701066 0.0027987795686579744 -0.0038634739051220971 0.0034180842845479668 -0.00021645149089206215 -0.0028341812128155875 -0.0010395783415813656 0.0032231522824559653 0.0021011668454395025 -0.00052458358145014705 0.0016979658286637518 0.0048268738567657978 -0.0051873199537049068
leaf_weight=224.19631007313728 330.3212812691927 704.05136586725712 255.40371091663837 55.368102431297302 58.69113789498806 155.37972472608089 84.711148008704185 224.61362126469612 53.6518694460392 70.278293028473854 96.380611941218376 137.51942779123783 54.611044719815254 50.350411370396614
leaf_count=831 1097 2441 795 213 179 533 315 793 164 224 333 443 158 201
internal_value=2.67637e-07 -0.00114126 0.00178003 -0.00242699 -0.000426886 0.000802433 -0.000761709 -0.00190212 0.00280203 0.000742276 0.000509706 0.00242406 0.004105 -0.00457859
internal_weight=2555.53 1557.36 998.166 554.528 1002.83 214.071 788.763 448.81 501.186 496.98 426.702 392.923 108.263 105.719
internal_count=8720 5506 3214 2038 3468 712 2756 1624 1560 1654 1430 1238 322 414
is_linear=0
shrinkage=0.003


Tree=41
num_leaves=15
num_cat=0
split_feature=69 70 70 70 71 57 38 70 71 43 61 19 38 52
split_gain=574.42 158.215 116.751 55.6416 32.0224 41.8703 34.4796 25.2082 24.5429 19.6062 17.1852 14.94 10.8217 4.32259
threshold=31.546728134155277 0.19739740341901782 0.35430820286273962 0.066594675183296217 1.0000000180025095e-35 -8.2701804785756381e-05 -0.00030780768429394806 0.60370662808418285 1.0000000180025095e-35 36.197418212890632 0.44196027517318731 40138.500000000007 -0.00054301024647429575 0.13102727383375171
decision_type=2 2 2 2 2 2 2 2 2 2 2 2 2 2
left_child=1 3 10 9 5 -3 -6 12 -5 -1 11 -2 -4 -9
right_child=2 4 7 8 6 -7 -8 13 -10 -11 -12 -13 -14 -15
leaf_value=-0.0023342336067872361 0.00081041887808683407 -5.5873437034238848e-05 0.0027908314888287072 -0.0018068490875966267 0.0028936112703353079 -0.0024960454586248067 8.0380886053530266e-06 0.0032145917944963018 -0.00029750799207461888 -0.0042517220939225784 0.0020951319207171979 -0.00052303761387230267 0.0016930766441195537 0.004814739448938888
leaf_weight=107.08064314723015 330.31638358533382 449.54556441307068 255.36843520402908 551.91004857420921 59.656949296593666 71.673837095499039 94.246929571032524 53.638706564903259 118.60465326905251 104.57086604833603 70.275049656629562 96.381402879953384 137.50859269499779 54.589505344629288
leaf_count=393 1097 1537 795 1991 185 264 321 164 409 406 224 333 443 158
internal_value=2.7149e-07 -0.00113794 0.00177494 -0.00197298 -4.42132e-05 -0.000399684 0.00114933 0.00279423 -0.00154155 -0.00331254 0.000740089 0.000508186 0.00241713 0.00409441
internal_weight=2555.37 1557.29 998.078 882.166 675.123 521.219 153.904 501.105 670.515 211.652 496.973 426.698 392.877 108.228
internal_count=8720 5506 3214 3199 2307 1801 506 1560 2400 799 1654 1430 1238 322
is_linear=0
shrinkage=0.003


Tree=42
num_leaves=15
num_cat=0
split_feature=69 70 51 70 70 70 70 51 69 31 42 8 34 69
split_gain=571.069 157.293 126.866 116.105 28.4043 26.5916 25.0938 23.9912 18.1077 17.4579 15.3443 10.8021 6.74706 1.11143
threshold=31.546728134155277 0.19739740341901782 0.19242110848426822 0.35430820286273962 0.095422774553298964 0.071711312979459776 0.60370662808418285 0.22038463503122332 3.9417641162872319 0.1607979238033295 8.0662088394165057 0.034437218680977828 0.81651738286018383 75.784576416015639
decision_type=2 2 2 2 2 2 2 2 2 2 2 2 2 2
left_child=1 2 4 7 -1 -4 11 12 -3 -10 -9 -5 -2 -8
right_child=3 8 5 6 -6 -7 13 10 9 -11 -12 -13 -14 -15
leaf_value=-0.0019082885766253199 0.002373978942250542 -0.0012328894839958757 -0.0047468617162038399 0.0026325492596249458 -0.00046880471459228781 -0.0028143550280448006 0.0033734442433277522 0.0016058756180743902 0.00033844491941105112 -0.0013324786692476571 -6.3293747503059049e-05 0.0012289227237901499 0.001125685762831663 0.0046088651466935455
leaf_weight=198.66094654798508 67.154347896575928 96.558743759989738 92.851079046726227 328.54455961287022 325.12775151431561 265.46384964883327 52.286889597773552 59.003472149372101 517.41684140264988 61.136317655444145 263.65621833503246 64.285304054617882 107.15119333565235 55.905816167593002
leaf_count=720 212 342 366 1028 1127 986 159 191 1748 217 899 210 352 163
internal_value=2.86137e-07 -0.00113461 -0.00196726 0.00176986 -0.00101995 -0.0033387 0.00278645 0.000737908 -4.40782e-05 0.000157895 0.000249953 0.00241024 0.00162809 0.00408388
internal_weight=2555.2 1557.22 882.104 997.988 523.789 358.315 501.023 496.965 675.112 578.553 322.66 392.83 174.306 108.193
internal_count=8720 5506 3199 3214 1847 1352 1560 1654 2307 1965 1090 1238 564 322
is_linear=0
shrinkage=0.003


Tree=43
num_leaves=14
num_cat=0
split_feature=69 73 69 71 38 38 69 41 71 41 71 27 71
split_gain=567.749 107.237 80.0601 70.0247 72.6203 49.7304 40.2239 32.55 13.995 13.869 7.63713 4.80068 4.5932
threshold=31.546728134155277 0.00039648672100156551 60.656625747680671 1.0000000180025095e-35 -0.00029346700466703618 -0.00071152977761812497 11.966566085815431 0.19811058044433597 1.0000000180025095e-35 0.34038768708705908 1.0000000180025095e-35 0.76977780461311351 1.0000000180025095e-35
decision_type=2 2 2 2 2 2 2 2 2 2 2 2 2
left_child=1 3 7 5 -5 -1 -3 11 -9 12 -11 -2 -4
right_child=2 6 9 4 -6 -7 -8 8 -10 10 -12 -13 -14
leaf_value=-0.00095116352224861131 0.0018350369505001427 -0.0048522104600581756 0.0029521289094359485 0.0023080417033674644 -0.00076528858631567367 -0.0027550697977898214 -0.0015884361498221223 0.00041964116676069109 0.0014555757803199189 0.0014410142168368089 0.0029542128165553744 0.0030183160552657209 0.0041031595435754411
leaf_weight=965.34533041715622 90.674495190382004 86.586636513471603 110.61884301900864 112.21173799037933 173.83401809632778 159.56536178290844 59.599165126681328 330.64689174294472 182.15142002701759 72.709799155592918 60.534956365823746 64.467472746968269 86.089813455939293
leaf_count=3395 291 342 342 356 607 592 214 1111 592 236 187 199 256
internal_value=2.96396e-07 -0.00113131 0.00176482 -0.000874893 0.00044799 -0.00121148 -0.00356098 0.00116177 0.000791842 0.00297123 0.002162 0.00235889 0.00349211
internal_weight=2555.04 1557.14 997.894 1410.96 286.046 1124.91 146.186 667.94 512.798 329.953 133.245 155.142 196.709
internal_count=8720 5506 3214 4950 963 3987 556 2193 1703 1021 423 490 598
is_linear=0
shrinkage=0.003


Tree=44
num_leaves=15
num_cat=0
split_feature=69 70 70 69 71 38 57 43 70 43 43 71 38 66
split_gain=564.444 156.288 115.129 48.4133 45.1913 63.3323 50.148 34.6304 24.905 24.6208 15.916 18.3327 10.8 5.99329
threshold=31.546728134155277 0.13697365671396258 0.35430820286273962 7.5551369190216073 1.0000000180025095e-35 -0.00055365695152431716 -7.3750445608311557e-06 40.691349029541023 0.60370662808418285 33.80473709106446 39.168231964111335 1.0000000180025095e-35 -0.00054301024647429575 0.48871502280235296
decision_type=2 2 2 2 2 2 2 2 2 2 2 2 2 2
left_child=1 3 10 9 6 -6 -3 -5 12 -1 13 -12 -4 -2
right_child=2 4 8 7 5 -7 -8 -9 -10 -11 11 -13 -14 -15
leaf_value=-0.0023840281030303901 0.00075249259684733252 -0.00048634480045430808 0.0027707712372499649 -0.00067059062949306519 0.0033971342562288246 -0.00021461119341091887 -0.0029203033572015903 -0.0029898954241834087 0.0040652037641430291 -0.0041969747237705669 -0.0001181491229848419 0.0012809349861437318 0.0016747580944215515 0.0020818905326777412
leaf_weight=158.20859423279762 52.094462439417839 705.07719196379185 255.27233648300171 175.72161550819874 58.675545006990433 155.37619425356388 83.623797327280045 85.681709080934525 108.12704028189182 134.71073111891747 228.55664265155792 131.26396660506725 137.46482570469379 85.025218814611435
leaf_count=581 173 2444 795 614 179 533 312 321 322 522 781 429 443 271
internal_value=3.18046e-07 -0.001128 0.00175979 -0.00240337 -0.000419588 0.000797718 -0.000751145 -0.00144773 0.00277232 -0.00324059 0.000732242 0.000396501 0.00239758 0.0015949
internal_weight=2554.88 1557.08 997.804 554.323 1002.75 214.052 788.701 261.403 500.864 292.919 496.94 359.821 392.737 137.12
internal_count=8720 5506 3214 2038 3468 712 2756 935 1560 1103 1654 1210 1238 444
is_linear=0
shrinkage=0.003


Tree=45
num_leaves=15
num_cat=0
split_feature=70 70 51 70 51 70 71 39 70 71 70 67 67 71
split_gain=538.445 180.846 109.791 59.565 46.7028 42.201 42.1052 66.7537 34.5554 23.633 15.4075 14.6079 11.6832 3.29393
threshold=0.22307837009429934 0.35129773616790777 0.23294406384229663 0.095422774553298964 0.10104103758931161 0.18279099464416507 1.0000000180025095e-35 1.0000000180025095e-35 0.59542936086654674 1.0000000180025095e-35 0.09378701820969583 0.36413000524044042 0.67938989400863659 1.0000000180025095e-35
decision_type=2 2 2 2 2 2 2 2 2 2 2 2 2 2
left_child=2 6 3 4 -1 10 7 -2 11 -5 -4 -3 -8 -10
right_child=1 8 5 9 -6 -7 12 -9 13 -11 -12 -13 -14 -15
leaf_value=-0.00037177108889535257 0.00026047257753567785 0.0006128755053110232 -0.004803502649990775 -0.00072950161244064542 -0.0031321887940479838 -0.0012656875147962897 0.00094127846814488856 -0.0031015478386159853 0.0031669476517989358 0.00080486132720073399 -0.0030404139873398718 0.0023236158052803483 0.0023957958492457697 0.0045588404603790567
leaf_weight=84.212866768240929 571.09651592373848 52.534011796116829 85.283923000097275 463.97677226364613 161.23840962350368 88.245820268988609 147.34179459512234 56.585697025060654 57.774787083268166 110.31875871121883 136.86930805444717 398.87146879732609 77.05547146499157 63.295025750994682
leaf_count=292 1932 175 337 1621 606 313 487 212 177 367 512 1261 243 185
internal_value=3.21953e-07 0.00122632 -0.00154449 -0.000964865 -0.00219577 -0.00305927 0.000348378 -5.15028e-05 0.00252729 -0.000432989 -0.00375408 0.0021281 0.0014575 0.00395689
internal_weight=2554.7 1424.55 1130.15 819.747 245.451 310.399 852.079 627.682 572.475 574.296 222.153 451.405 224.397 121.07
internal_count=8720 4672 4048 2886 898 1162 2874 2144 1798 1988 849 1436 730 362
is_linear=0
shrinkage=0.003


Tree=46
num_leaves=15
num_cat=0
split_feature=69 70 51 70 71 57 70 70 70 51 57 71 78 34
split_gain=558.517 154.674 125.236 113.747 31.2372 41.2674 27.9836 26.1747 24.6621 23.7395 23.1955 15.6489 10.7635 6.72892
threshold=31.546728134155277 0.19739740341901782 0.19242110848426822 0.35430820286273962 1.0000000180025095e-35 -8.2701804785756381e-05 0.066594675183296217 0.071711312979459776 0.60370662808418285 0.22038463503122332 0.00025007703516166663 1.0000000180025095e-35 8.7345848442055299e-05 0.81651738286018383
decision_type=2 2 2 2 2 2 2 2 2 2 2 2 2 2
left_child=1 2 6 9 5 -3 -1 -4 12 13 -6 -11 -5 -2
right_child=3 4 7 8 10 -7 -8 -9 -10 11 -12 -13 -14 -15
leaf_value=-0.0022347187445263981 0.0023596458056258087 -5.0530956819398437e-05 -0.0047088876967958234 0.0025758866696659975 0.0027639606368022583 -0.0024733410302304032 -0.00061242548553645012 -0.0027908428816649741 0.0040444483887747667 -0.00021297601419355879 0.00030773917739798656 0.0011898828943468017 0.0010313788393820536 0.0011136025598014539
leaf_weight=125.05055612325668 67.142957329750061 449.53720244765282 92.753458723425865 342.41154718399048 50.453595548868179 71.65324755012989 398.65971080958843 265.37192733585835 108.05115574598312 218.57446165382862 103.42862130701542 104.06656724214554 50.228721454739571 107.1374909132719
leaf_count=458 212 1537 366 1073 157 264 1389 986 322 749 349 341 165 352
internal_value=3.17777e-07 -0.00112209 -0.00194796 0.00175073 -4.07076e-05 -0.0003918 -0.00100682 -0.003311 0.00275742 0.00072941 0.00113819 0.000244053 0.00238453 0.00161498
internal_weight=2554.52 1556.91 881.836 997.613 675.073 521.19 523.71 358.125 500.691 496.921 153.882 322.641 392.64 174.28
internal_count=8720 5506 3199 3214 2307 1801 1847 1352 1560 1654 506 1090 1238 564
is_linear=0
shrinkage=0.003


Tree=47
num_leaves=15
num_cat=0
split_feature=70 70 51 70 51 70 71 57 57 70 71 70 67 52
split_gain=532.407 178.81 108.762 58.9322 46.3764 41.7341 41.6405 73.1344 42.2546 34.2307 23.4457 15.2753 15.2101 3.98569
threshold=0.22307837009429934 0.35129773616790777 0.23294406384229663 0.095422774553298964 0.10104103758931161 0.18279099464416507 1.0000000180025095e-35 1.929886184370844e-05 0.00015544283814961093 0.57046645879745495 1.0000000180025095e-35 0.09378701820969583 0.36413000524044042 0.13102727383375171
decision_type=2 2 2 2 2 2 2 2 2 2 2 2 2 2
left_child=2 6 3 4 -1 11 7 -2 -8 12 -5 -4 -3 -11
right_child=1 9 5 10 -6 -7 8 -9 -10 13 -12 -13 -14 -15
leaf_value=-0.00036605247908490604 0.0002668627512873285 0.00049938782344842642 -0.0047802129040784933 -0.00072535627855718743 -0.0031168601274421605 -0.0012601838958989572 0.0035239986292406392 -0.0033300443005712665 0.00063033082079697338 0.0030872145253572941 0.0008029309089542144 -0.00302452072388854 0.0022782015258507845 0.0044129587705842108
leaf_weight=84.207961603999138 573.86296111345291 50.261496111750603 85.228784516453743 463.95974829792976 161.1934135556221 88.242044448852539 61.659500047564507 53.805807515978813 162.71811239421368 71.899462044239044 110.31580112874508 136.83882273733616 379.71648223698139 70.418170347809792
leaf_count=292 1941 168 337 1621 606 313 187 203 543 221 367 512 1202 207
internal_value=3.22284e-07 0.00121952 -0.00153591 -0.00095903 -0.00218353 -0.00304382 0.000346589 -5.10736e-05 0.00144963 0.00251342 -0.000430011 -0.003735 0.00207355 0.00379525
internal_weight=2554.33 1424.34 1129.99 819.677 245.401 310.31 852.046 627.669 224.378 572.296 574.276 222.068 429.978 142.318
internal_count=8720 4672 4048 2886 898 1162 2874 2144 730 1798 1988 849 1370 428
is_linear=0
shrinkage=0.003


Tree=48
num_leaves=15
num_cat=0
split_feature=70 70 51 70 51 70 71 39 70 38 71 70 67 52
split_gain=529.301 177.801 108.158 58.5956 46.115 41.5113 41.4014 65.8211 34.0847 25.3213 23.3071 15.2086 14.4397 4.90362
threshold=0.22307837009429934 0.35129773616790777 0.23294406384229663 0.095422774553298964 0.10104103758931161 0.18279099464416507 1.0000000180025095e-35 1.0000000180025095e-35 0.59542936086654674 -0.00036823909613303835 1.0000000180025095e-35 0.09378701820969583 0.36413000524044042 0.13102727383375171
decision_type=2 2 2 2 2 2 2 2 2 2 2 2 2 2
left_child=2 6 3 4 -1 11 7 -2 12 -8 -5 -4 -3 -10
right_child=1 8 5 10 -6 -7 9 -9 13 -11 -12 -13 -14 -15
leaf_value=-0.00036498361267209365 0.00025880511882821113 0.00060371377941081689 -0.0047678633710738876 -0.00072319863366788215 -0.0031081106952703381 -0.0012565097829973567 0.003006092686342908 -0.0030800296680988295 0.0030931136171258558 0.00078698357669857192 0.00080056987137020342 -0.003015940383839249 0.0023044173595927302 0.0046372648071301382
leaf_weight=84.207062125205994 571.09153035283089 52.526271983981133 85.198418125510216 463.95391291379929 161.1679053902626 88.240420818328857 64.460868716239929 56.57099175453186 60.562258258461952 159.90408600866795 110.31512162089348 136.8221587240696 398.73244509100914 60.384668052196503
leaf_count=292 1932 175 337 1621 606 313 199 212 186 531 367 512 1261 176
internal_value=3.18763e-07 0.001216 -0.00153148 -0.000956216 -0.00217729 -0.00303534 0.000345565 -5.09501e-05 0.00250638 0.00144547 -0.000428725 -0.00372479 0.00210999 0.00392695
internal_weight=2554.14 1424.23 1129.9 819.644 245.375 310.261 852.027 627.663 572.206 224.365 574.269 222.021 451.259 120.947
internal_count=8720 4672 4048 2886 898 1162 2874 2144 1798 730 1988 849 1436 362
is_linear=0
shrinkage=0.003


Tree=49
num_leaves=15
num_cat=0
split_feature=70 70 51 70 51 70 71 57 57 70 71 70 67 52
split_gain=526.214 176.799 107.558 58.2612 45.8555 41.2903 41.1629 72.3343 41.9437 33.9271 23.1694 15.1428 14.3565 4.88252
threshold=0.22307837009429934 0.35129773616790777 0.23294406384229663 0.095422774553298964 0.10104103758931161 0.18279099464416507 1.0000000180025095e-35 1.929886184370844e-05 0.00015544283814961093 0.59542936086654674 1.0000000180025095e-35 0.09378701820969583 0.36413000524044042 0.13102727383375171
decision_type=2 2 2 2 2 2 2 2 2 2 2 2 2 2
left_child=2 6 3 4 -1 11 7 -2 -8 12 -5 -4 -3 -11
right_child=1 9 5 10 -6 -7 8 -9 -10 13 -12 -13 -14 -15
leaf_value=-0.00036391788482036412 0.00026534007815446037 0.00060198343101260272 -0.0047555941616412595 -0.00072104754755676626 -0.0030993992536469763 -0.0012528472787310505 0.0035083623106925772 -0.0033121609231361229 0.00062512307170642086 0.0030849375226743802 0.0007982159762235393 -0.003007396890098984 0.0022978120305941546 0.0046257729281656305
leaf_weight=84.206159770488739 573.86152100563049 52.524974018335342 85.167177855968475 463.94797250628471 161.14169609546661 88.238731741905212 61.642164558172226 53.794758379459381 162.71125875413418 60.545924931764603 110.31440858542919 136.80492234230042 398.6848322302103 60.358087047934532
leaf_count=292 1941 175 337 1621 606 313 187 203 543 186 367 512 1261 176
internal_value=3.15898e-07 0.0012125 -0.00152706 -0.000953412 -0.00217108 -0.00302689 0.000344542 -5.08247e-05 0.00144131 0.00249938 -0.000427443 -0.00371463 0.00210393 0.00391692
internal_weight=2553.94 1424.12 1129.82 819.61 245.348 310.211 852.01 627.656 224.353 572.114 574.262 221.972 451.21 120.904
internal_count=8720 4672 4048 2886 898 1162 2874 2144 730 1798 1988 849 1436 362
is_linear=0
shrinkage=0.003


Tree=50
num_leaves=15
num_cat=0
split_feature=69 69 69 41 43 43 65 69 47 41 10 76 69 46
split_gain=547.569 77.3628 76.2239 34.5258 34.2186 32.2905 19.5037 17.1163 14.1041 13.6243 8.73525 7.54407 7.30631 5.83828
threshold=31.546728134155277 60.656625747680671 7.5551369190216073 0.33889922499656683 40.164888381958015 39.358699798583991 -6.9977402687072745 3.3700643777847294 -0.0015006625908426938 0.34038768708705908 161.50000000000003 0.04535279422998429 72.883335113525405 1.0000000180025095e-35
decision_type=2 2 2 2 2 2 2 2 2 2 2 2 2 2
left_child=2 5 4 6 7 11 -4 -1 -7 -3 -5 -2 -11 -6
right_child=1 9 3 10 13 8 -8 -9 -10 12 -12 -13 -14 -15
leaf_value=-0.0020872777240170679 0.0014692954386292569 0.0034371585555804671 0.00039983221455134428 -0.0011275368951089262 -0.0026417103004745886 0.00010896651686369545 -0.00063657357635872667 -0.00094077218249785752 0.0011815858118798797 0.0015056649195268174 -0.0028660156728892278 0.002618558731977074 0.0030221513098273212 -0.0041469622750429673
leaf_weight=252.60329192876816 114.60371576249599 196.39244805276394 221.5077792853117 50.768245562911034 80.834804937243462 214.41214853525162 609.18398706614971 227.97328549623489 226.26592762768269 82.420764833688736 62.023138970136642 112.42808637022972 50.691756159067154 51.635297924280167
leaf_count=920 372 598 749 180 300 727 2122 803 742 267 231 352 156 201
internal_value=3.13326e-07 0.00173388 -0.00111112 -0.000573979 -0.00193323 0.00114118 -0.000359915 -0.00154956 0.000662552 0.0029208 -0.00211679 0.00205632 0.00211936 -0.00328139
internal_weight=2553.74 997.215 1556.53 943.483 613.047 667.71 830.692 480.577 440.678 329.505 112.791 227.032 133.113 132.47
internal_count=8720 3214 5506 3282 2224 2193 2871 1723 1469 1021 411 724 423 501
is_linear=0
shrinkage=0.003


Tree=51
num_leaves=15
num_cat=0
split_feature=69 70 70 51 71 38 57 70 69 70 51 71 8 34
split_gain=544.382 151.028 110.579 93.1435 43.7471 62.4493 48.997 26.052 25.3089 24.1343 23.5317 15.3032 10.7532 6.68989
threshold=31.546728134155277 0.13697365671396258 0.35430820286273962 0.13781655579805377 1.0000000180025095e-35 -0.00055365695152431716 -7.3750445608311557e-06 0.071711312979459776 6.9907109737396249 0.60370662808418285 0.22038463503122332 1.0000000180025095e-35 0.034437218680977828 0.81651738286018383
decision_type=2 2 2 2 2 2 2 2 2 2 2 2 2 2
left_child=1 3 10 8 6 -6 -3 -5 -1 12 13 -12 -4 -2
right_child=2 4 9 7 5 -7 -8 -9 -10 -11 11 -13 -14 -15
leaf_value=-0.0018106492848150219 0.0023462322505351193 -0.00047613187740283151 0.0025750554342961101 -0.0043206591292850758 0.0033682169503001097 -0.00021885141942383867 -0.002882618069831114 -0.0025645711202524281 0.00021423645275559482 0.0039964362823209885 -0.00021306096740227832 0.0011743061655038517 0.0011771090787248111 0.0011040965395056092
leaf_weight=113.06383620202541 67.129841670393944 705.00265365839005 328.16061370074749 146.56399627029896 58.647244617342949 155.36220948398113 83.572232127189636 187.57964080572128 106.68078561127186 107.86019665002823 218.56804983317852 104.04549206793308 64.226548880338669 107.12394973635674
leaf_count=409 212 2444 1028 572 179 533 312 694 363 322 749 341 210 352
internal_value=3.10828e-07 -0.00110788 0.00172893 -0.00236224 -0.000411578 0.000786235 -0.000737816 -0.00335596 -0.00083455 0.00272214 0.000722063 0.000238855 0.00235337 0.00160381
