{"learner":{"attributes":{"best_iteration":"1477","best_score":"0.7070534646709041"},"feature_names":["scanner_score","dir_obi","obi_1","obi_5","obi_20","obi_shock","obi_zscore","obi_slope_5","ob_spread_bps","spread_bps_ratio","ob_depth_bid_1","ob_depth_ask_1","ob_depth_bid_5","ob_depth_ask_5","ob_depth_bid_20","ob_depth_ask_20","depth_ratio_5","depth_delta_5","ob_ask_wall_size_20","ob_bid_wall_size_20","ob_ask_wall_conc_20","ob_bid_wall_conc_20","ob_ask_wall_levels_20","ob_bid_wall_levels_20","ob_microprice_dev_bps","ob_mid_close_dist","ob_quote_count","trade_gini","dir_aggressor","dir_net_taker","large_trade_vol_ratio","volume_pressure_5","signed_flow_accel","trade_intensity","rvol","vol_change_rate","natr_20","dir_ema20_dist","dir_ema50_dist","ema_trend","dir_z_vwap","bb_percent_b","bb_width","rsi_7","adx_14","dir_ret_1","dir_ret_5","dir_ret_20","realized_vol_5","realized_vol_20","ret_vol_ratio","range_pos_20","price_efficiency_20","price_velocity_1","price_velocity_3","price_accel_1","price_accel_3","ema_spread","ema_spread_slope","rsi_slope_3","upper_wick_frac","lower_wick_frac","time_sin","time_cos","event_dir","breakout_strength","range_compression","vol_regime","data_from_orderbook","rsi_7_5m","range_pos_20_5m","ema_trend_15m","tf_alignment","momentum_divergence_5m","obi_momentum_3","depth_absorption_rate","depth_divergence","flow_persistence_5","spread_vol_10","quote_intensity_change","price_impact"],"feature_types":["float","float","float","float","float","float","float","float","float","float","float","float","float","float","float","float","float","float","float","float","float","float","float","float","float","float","float","float","float","float","float","float","float","float","float","float","float","float","float","float","float","float","float","float","float","float","float","float","float","float","float","float","float","float","float","float","float","float","float","float","float","float","float","float","float","float","float","float","float","float","float","float","float","float","float","float","float","float","float","float","float"],"gradient_booster":{"model":{"cats":{"enc":[],"feature_segments":[],"sorted_idx":[]},"gbtree_model_param":{"num_parallel_tree":"1","num_trees":"1500"},"iteration_indptr":[0,1,2,3,4,5,6,7,8,9,10,11,12,13,14,15,16,17,18,19,20,21,22,23,24,25,26,27,28,29,30,31,32,33,34,35,36,37,38,39,40,41,42,43,44,45,46,47,48,49,50,51,52,53,54,55,56,57,58,59,60,61,62,63,64,65,66,67,68,69,70,71,72,73,74,75,76,77,78,79,80,81,82,83,84,85,86,87,88,89,90,91,92,93,94,95,96,97,98,99,100,101,102,103,104,105,106,107,108,109,110,111,112,113,114,115,116,117,118,119,120,121,122,123,124,125,126,127,128,129,130,131,132,133,134,135,136,137,138,139,140,141,142,143,144,145,146,147,148,149,150,151,152,153,154,155,156,157,158,159,160,161,162,163,164,165,166,167,168,169,170,171,172,173,174,175,176,177,178,179,180,181,182,183,184,185,186,187,188,189,190,191,192,193,194,195,196,197,198,199,200,201,202,203,204,205,206,207,208,209,210,211,212,213,214,215,216,217,218,219,220,221,222,223,224,225,226,227,228,229,230,231,232,233,234,235,236,237,238,239,240,241,242,243,244,245,246,247,248,249,250,251,252,253,254,255,256,257,258,259,260,261,262,263,264,265,266,267,268,269,270,271,272,273,274,275,276,277,278,279,280,281,282,283,284,285,286,287,288,289,290,291,292,293,294,295,296,297,298,299,300,301,302,303,304,305,306,307,308,309,310,311,312,313,314,315,316,317,318,319,320,321,322,323,324,325,326,327,328,329,330,331,332,333,334,335,336,337,338,339,340,341,342,343,344,345,346,347,348,349,350,351,352,353,354,355,356,357,358,359,360,361,362,363,364,365,366,367,368,369,370,371,372,373,374,375,376,377,378,379,380,381,382,383,384,385,386,387,388,389,390,391,392,393,394,395,396,397,398,399,400,401,402,403,404,405,406,407,408,409,410,411,412,413,414,415,416,417,418,419,420,421,422,423,424,425,426,427,428,429,430,431,432,433,434,435,436,437,438,439,440,441,442,443,444,445,446,447,448,449,450,451,452,453,454,455,456,457,458,459,460,461,462,463,464,465,466,467,468,469,470,471,472,473,474,475,476,477,478,479,480,481,482,483,484,485,486,487,488,489,490,491,492,493,494,495,496,497,498,499,500,501,502,503,504,505,506,507,508,509,510,511,512,513,514,515,516,517,518,519,520,521,522,523,524,525,526,527,528,529,530,531,532,533,534,535,536,537,538,539,540,541,542,543,544,545,546,547,548,549,550,551,552,553,554,555,556,557,558,559,560,561,562,563,564,565,566,567,568,569,570,571,572,573,574,575,576,577,578,579,580,581,582,583,584,585,586,587,588,589,590,591,592,593,594,595,596,597,598,599,600,601,602,603,604,605,606,607,608,609,610,611,612,613,614,615,616,617,618,619,620,621,622,623,624,625,626,627,628,629,630,631,632,633,634,635,636,637,638,639,640,641,642,643,644,645,646,647,648,649,650,651,652,653,654,655,656,657,658,659,660,661,662,663,664,665,666,667,668,669,670,671,672,673,674,675,676,677,678,679,680,681,682,683,684,685,686,687,688,689,690,691,692,693,694,695,696,697,698,699,700,701,702,703,704,705,706,707,708,709,710,711,712,713,714,715,716,717,718,719,720,721,722,723,724,725,726,727,728,729,730,731,732,733,734,735,736,737,738,739,740,741,742,743,744,745,746,747,748,749,750,751,752,753,754,755,756,757,758,759,760,761,762,763,764,765,766,767,768,769,770,771,772,773,774,775,776,777,778,779,780,781,782,783,784,785,786,787,788,789,790,791,792,793,794,795,796,797,798,799,800,801,802,803,804,805,806,807,808,809,810,811,812,813,814,815,816,817,818,819,820,821,822,823,824,825,826,827,828,829,830,831,832,833,834,835,836,837,838,839,840,841,842,843,844,845,846,847,848,849,850,851,852,853,854,855,856,857,858,859,860,861,862,863,864,865,866,867,868,869,870,871,872,873,874,875,876,877,878,879,880,881,882,883,884,885,886,887,888,889,890,891,892,893,894,895,896,897,898,899,900,901,902,903,904,905,906,907,908,909,910,911,912,913,914,915,916,917,918,919,920,921,922,923,924,925,926,927,928,929,930,931,932,933,934,935,936,937,938,939,940,941,942,943,944,945,946,947,948,949,950,951,952,953,954,955,956,957,958,959,960,961,962,963,964,965,966,967,968,969,970,971,972,973,974,975,976,977,978,979,980,981,982,983,984,985,986,987,988,989,990,991,992,993,994,995,996,997,998,999,1000,1001,1002,1003,1004,1005,1006,1007,1008,1009,1010,1011,1012,1013,1014,1015,1016,1017,1018,1019,1020,1021,1022,1023,1024,1025,1026,1027,1028,1029,1030,1031,1032,1033,1034,1035,1036,1037,1038,1039,1040,1041,1042,1043,1044,1045,1046,1047,1048,1049,1050,1051,1052,1053,1054,1055,1056,1057,1058,1059,1060,1061,1062,1063,1064,1065,1066,1067,1068,1069,1070,1071,1072,1073,1074,1075,1076,1077,1078,1079,1080,1081,1082,1083,1084,1085,1086,1087,1088,1089,1090,1091,1092,1093,1094,1095,1096,1097,1098,1099,1100,1101,1102,1103,1104,1105,1106,1107,1108,1109,1110,1111,1112,1113,1114,1115,1116,1117,1118,1119,1120,1121,1122,1123,1124,1125,1126,1127,1128,1129,1130,1131,1132,1133,1134,1135,1136,1137,1138,1139,1140,1141,1142,1143,1144,1145,1146,1147,1148,1149,1150,1151,1152,1153,1154,1155,1156,1157,1158,1159,1160,1161,1162,1163,1164,1165,1166,1167,1168,1169,1170,1171,1172,1173,1174,1175,1176,1177,1178,1179,1180,1181,1182,1183,1184,1185,1186,1187,1188,1189,1190,1191,1192,1193,1194,1195,1196,1197,1198,1199,1200,1201,1202,1203,1204,1205,1206,1207,1208,1209,1210,1211,1212,1213,1214,1215,1216,1217,1218,1219,1220,1221,1222,1223,1224,1225,1226,1227,1228,1229,1230,1231,1232,1233,1234,1235,1236,1237,1238,1239,1240,1241,1242,1243,1244,1245,1246,1247,1248,1249,1250,1251,1252,1253,1254,1255,1256,1257,1258,1259,1260,1261,1262,1263,1264,1265,1266,1267,1268,1269,1270,1271,1272,1273,1274,1275,1276,1277,1278,1279,1280,1281,1282,1283,1284,1285,1286,1287,1288,1289,1290,1291,1292,1293,1294,1295,1296,1297,1298,1299,1300,1301,1302,1303,1304,1305,1306,1307,1308,1309,1310,1311,1312,1313,1314,1315,1316,1317,1318,1319,1320,1321,1322,1323,1324,1325,1326,1327,1328,1329,1330,1331,1332,1333,1334,1335,1336,1337,1338,1339,1340,1341,1342,1343,1344,1345,1346,1347,1348,1349,1350,1351,1352,1353,1354,1355,1356,1357,1358,1359,1360,1361,1362,1363,1364,1365,1366,1367,1368,1369,1370,1371,1372,1373,1374,1375,1376,1377,1378,1379,1380,1381,1382,1383,1384,1385,1386,1387,1388,1389,1390,1391,1392,1393,1394,1395,1396,1397,1398,1399,1400,1401,1402,1403,1404,1405,1406,1407,1408,1409,1410,1411,1412,1413,1414,1415,1416,1417,1418,1419,1420,1421,1422,1423,1424,1425,1426,1427,1428,1429,1430,1431,1432,1433,1434,1435,1436,1437,1438,1439,1440,1441,1442,1443,1444,1445,1446,1447,1448,1449,1450,1451,1452,1453,1454,1455,1456,1457,1458,1459,1460,1461,1462,1463,1464,1465,1466,1467,1468,1469,1470,1471,1472,1473,1474,1475,1476,1477,1478,1479,1480,1481,1482,1483,1484,1485,1486,1487,1488,1489,1490,1491,1492,1493,1494,1495,1496,1497,1498,1499,1500],"tree_info":[0,0,0,0,0,0,0,0,0,0,0,0,0,0,0,0,0,0,0,0,0,0,0,0,0,0,0,0,0,0,0,0,0,0,0,0,0,0,0,0,0,0,0,0,0,0,0,0,0,0,0,0,0,0,0,0,0,0,0,0,0,0,0,0,0,0,0,0,0,0,0,0,0,0,0,0,0,0,0,0,0,0,0,0,0,0,0,0,0,0,0,0,0,0,0,0,0,0,0,0,0,0,0,0,0,0,0,0,0,0,0,0,0,0,0,0,0,0,0,0,0,0,0,0,0,0,0,0,0,0,0,0,0,0,0,0,0,0,0,0,0,0,0,0,0,0,0,0,0,0,0,0,0,0,0,0,0,0,0,0,0,0,0,0,0,0,0,0,0,0,0,0,0,0,0,0,0,0,0,0,0,0,0,0,0,0,0,0,0,0,0,0,0,0,0,0,0,0,0,0,0,0,0,0,0,0,0,0,0,0,0,0,0,0,0,0,0,0,0,0,0,0,0,0,0,0,0,0,0,0,0,0,0,0,0,0,0,0,0,0,0,0,0,0,0,0,0,0,0,0,0,0,0,0,0,0,0,0,0,0,0,0,0,0,0,0,0,0,0,0,0,0,0,0,0,0,0,0,0,0,0,0,0,0,0,0,0,0,0,0,0,0,0,0,0,0,0,0,0,0,0,0,0,0,0,0,0,0,0,0,0,0,0,0,0,0,0,0,0,0,0,0,0,0,0,0,0,0,0,0,0,0,0,0,0,0,0,0,0,0,0,0,0,0,0,0,0,0,0,0,0,0,0,0,0,0,0,0,0,0,0,0,0,0,0,0,0,0,0,0,0,0,0,0,0,0,0,0,0,0,0,0,0,0,0,0,0,0,0,0,0,0,0,0,0,0,0,0,0,0,0,0,0,0,0,0,0,0,0,0,0,0,0,0,0,0,0,0,0,0,0,0,0,0,0,0,0,0,0,0,0,0,0,0,0,0,0,0,0,0,0,0,0,0,0,0,0,0,0,0,0,0,0,0,0,0,0,0,0,0,0,0,0,0,0,0,0,0,0,0,0,0,0,0,0,0,0,0,0,0,0,0,0,0,0,0,0,0,0,0,0,0,0,0,0,0,0,0,0,0,0,0,0,0,0,0,0,0,0,0,0,0,0,0,0,0,0,0,0,0,0,0,0,0,0,0,0,0,0,0,0,0,0,0,0,0,0,0,0,0,0,0,0,0,0,0,0,0,0,0,0,0,0,0,0,0,0,0,0,0,0,0,0,0,0,0,0,0,0,0,0,0,0,0,0,0,0,0,0,0,0,0,0,0,0,0,0,0,0,0,0,0,0,0,0,0,0,0,0,0,0,0,0,0,0,0,0,0,0,0,0,0,0,0,0,0,0,0,0,0,0,0,0,0,0,0,0,0,0,0,0,0,0,0,0,0,0,0,0,0,0,0,0,0,0,0,0,0,0,0,0,0,0,0,0,0,0,0,0,0,0,0,0,0,0,0,0,0,0,0,0,0,0,0,0,0,0,0,0,0,0,0,0,0,0,0,0,0,0,0,0,0,0,0,0,0,0,0,0,0,0,0,0,0,0,0,0,0,0,0,0,0,0,0,0,0,0,0,0,0,0,0,0,0,0,0,0,0,0,0,0,0,0,0,0,0,0,0,0,0,0,0,0,0,0,0,0,0,0,0,0,0,0,0,0,0,0,0,0,0,0,0,0,0,0,0,0,0,0,0,0,0,0,0,0,0,0,0,0,0,0,0,0,0,0,0,0,0,0,0,0,0,0,0,0,0,0,0,0,0,0,0,0,0,0,0,0,0,0,0,0,0,0,0,0,0,0,0,0,0,0,0,0,0,0,0,0,0,0,0,0,0,0,0,0,0,0,0,0,0,0,0,0,0,0,0,0,0,0,0,0,0,0,0,0,0,0,0,0,0,0,0,0,0,0,0,0,0,0,0,0,0,0,0,0,0,0,0,0,0,0,0,0,0,0,0,0,0,0,0,0,0,0,0,0,0,0,0,0,0,0,0,0,0,0,0,0,0,0,0,0,0,0,0,0,0,0,0,0,0,0,0,0,0,0,0,0,0,0,0,0,0,0,0,0,0,0,0,0,0,0,0,0,0,0,0,0,0,0,0,0,0,0,0,0,0,0,0,0,0,0,0,0,0,0,0,0,0,0,0,0,0,0,0,0,0,0,0,0,0,0,0,0,0,0,0,0,0,0,0,0,0,0,0,0,0,0,0,0,0,0,0,0,0,0,0,0,0,0,0,0,0,0,0,0,0,0,0,0,0,0,0,0,0,0,0,0,0,0,0,0,0,0,0,0,0,0,0,0,0,0,0,0,0,0,0,0,0,0,0,0,0,0,0,0,0,0,0,0,0,0,0,0,0,0,0,0,0,0,0,0,0,0,0,0,0,0,0,0,0,0,0,0,0,0,0,0,0,0,0,0,0,0,0,0,0,0,0,0,0,0,0,0,0,0,0,0,0,0,0,0,0,0,0,0,0,0,0,0,0,0,0,0,0,0,0,0,0,0,0,0,0,0,0,0,0,0,0,0,0,0,0,0,0,0,0,0,0,0,0,0,0,0,0,0,0,0,0,0,0,0,0,0,0,0,0,0,0,0,0,0,0,0,0,0,0,0,0,0,0,0,0,0,0,0,0,0,0,0,0,0,0,0,0,0,0,0,0,0,0,0,0,0,0,0,0,0,0,0,0,0,0,0,0,0,0,0,0,0,0,0,0,0,0,0,0,0,0,0,0,0,0,0,0,0,0,0,0,0,0,0,0,0,0,0,0,0,0,0,0,0,0,0,0,0,0,0,0,0,0,0,0,0,0,0,0,0,0,0,0,0,0,0,0,0,0,0,0,0,0,0,0,0,0,0,0,0,0,0,0,0,0,0,0,0,0,0,0,0,0,0,0,0,0,0,0,0,0,0,0,0,0,0,0,0,0,0,0,0,0,0,0,0,0,0,0,0,0,0,0,0,0,0,0,0,0,0,0,0,0,0,0,0,0,0,0,0,0,0,0,0,0,0,0,0,0,0,0,0,0,0,0,0,0,0,0,0,0,0,0,0,0,0,0,0,0,0,0,0,0,0,0,0,0,0,0,0,0,0,0,0,0,0,0,0,0,0,0,0,0,0,0,0,0,0,0,0,0,0,0,0,0,0,0,0,0,0,0,0,0,0,0,0,0,0,0,0,0,0,0,0,0,0,0,0,0,0,0,0,0,0,0,0,0,0,0,0,0,0,0,0,0,0,0,0,0,0,0,0,0,0,0,0,0,0,0,0,0,0,0,0,0,0,0,0,0,0,0,0,0,0,0,0,0,0,0,0,0,0,0,0,0,0,0,0,0,0,0,0,0],"trees":[{"base_weights":[-3.919773E-2,2.5450957E-1,-1.2071895E-1,-2.7083373E-1,1E0,-4.1646162E-1,6.247026E-1,-4.9507642E-1,-1.1747096E-1,1.8212198E-3,3E-3,-6.701834E-1,-1.7307702E-1,3.9635882E-1,3E-3,-1.0826936E-3,-2.4297412E-3,-8.965165E-4,8.99525E-4,-1.4707356E-3,-3E-3,-2.6900732E-4,-1.9338136E-3,1.5887717E-3,-1.0460716E-3],"categories":[],"categories_nodes":[],"categories_segments":[],"categories_sizes":[],"default_left":[0,0,0,0,0,0,0,0,0,0,0,0,0,0,0,0,0,0,0,0,0,0,0,0,0],"id":0,"left_children":[1,3,5,7,9,11,13,15,17,-1,-1,19,21,23,-1,-1,-1,-1,-1,-1,-1,-1,-1,-1,-1],"loss_changes":[8.679709E1,3.6638922E2,6.250862E2,1.699759E1,7.8960266E0,1.2496854E2,9.194278E1,7.943943E0,2.3279535E1,0E0,0E0,9.302063E1,4.092082E1,5.7445045E1,0E0,0E0,0E0,0E0,0E0,0E0,0E0,0E0,0E0,0E0,0E0],"parents":[2147483647,0,0,1,1,2,2,3,3,4,4,5,5,6,6,7,7,8,8,11,11,12,12,13,13],"right_children":[2,4,6,8,10,12,14,16,18,-1,-1,20,22,24,-1,-1,-1,-1,-1,-1,-1,-1,-1,-1,-1],"split_conditions":[-2.0926823E-3,3.1755297E1,4.1161575E1,6.016844E0,4.3395653E1,1.22973995E1,6.517118E1,1.4848805E-3,2.9680365E-1,1.8212198E-3,3E-3,5.0513554E-5,3.5174754E-1,-1.6392504E-4,3E-3,-1.0826936E-3,-2.4297412E-3,-8.965165E-4,8.99525E-4,-1.4707356E-3,-3E-3,-2.6900732E-4,-1.9338136E-3,1.5887717E-3,-1.0460716E-3],"split_indices":[73,69,69,69,69,69,69,49,52,0,0,73,41,37,0,0,0,0,0,0,0,0,0,0,0],"split_type":[0,0,0,0,0,0,0,0,0,0,0,0,0,0,0,0,0,0,0,0,0,0,0,0,0],"sum_hessian":[3.609291E3,7.8189105E2,2.8274E3,4.946043E2,2.8728677E2,2.0253892E3,8.0201074E2,1.977473E2,2.96857E2,6.464231E1,2.2264445E2,9.889129E2,1.0364762E3,5.672217E2,2.3478908E2,1.4277826E2,5.496904E1,2.0815633E2,8.870068E1,7.7918585E2,2.0972705E2,8.8361536E2,1.5286092E2,4.8223636E2,8.498534E1],"tree_param":{"num_deleted":"0","num_feature":"81","num_nodes":"25","size_leaf_vector":"1"}},{"base_weights":[2.6343348E-3,-3.394114E-1,8.4802777E-1,-4.9364436E-1,2.1170367E-1,5.545675E-1,1E0,-6.0954386E-1,-5.6644246E-2,7.364593E-1,-2.3024231E-1,3E-3,3.713828E-1,3E-3,1.3434386E-3,-1.5303267E-3,-3E-3,1.990822E-4,-2.0697156E-3,3E-3,1.2580394E-3,-1.7913015E-3,2.6333326E-4,1.4036369E-3,-6.2915316E-4],"categories":[],"categories_nodes":[],"categories_segments":[],"categories_sizes":[],"default_left":[0,0,0,0,0,0,0,0,0,0,0,0,0,0,0,0,0,0,0,0,0,0,0,0,0],"id":1,"left_children":[1,3,5,7,9,11,13,15,17,19,21,-1,23,-1,-1,-1,-1,-1,-1,-1,-1,-1,-1,-1,-1],"loss_changes":[1.0499156E3,2.2010431E2,7.4223145E1,1.0197684E2,1.3239375E2,5.3633163E1,2.1737366E1,8.698218E1,3.429516E1,4.083464E1,3.6717827E1,0E0,2.2834225E1,0E0,0E0,0E0,0E0,0E0,0E0,0E0,0E0,0E0,0E0,0E0,0E0],"parents":[2147483647,0,0,1,1,2,2,3,3,4,4,5,5,6,6,7,7,8,8,9,9,10,10,12,12],"right_children":[2,4,6,8,10,12,14,16,18,20,22,-1,24,-1,-1,-1,-1,-1,-1,-1,-1,-1,-1,-1,-1],"split_conditions":[4.1161575E1,1E0,5.728737E1,2.3086472E1,-7.896243E-5,1.9050613E-1,-5.793077E-5,1.8108975E-4,-7.791099E-4,8.945087E-5,2.0730711E1,3E-3,-1.6392504E-4,3E-3,1.3434386E-3,-1.5303267E-3,-3E-3,1.990822E-4,-2.0697156E-3,3E-3,1.2580394E-3,-1.7913015E-3,2.6333326E-4,1.4036369E-3,-6.2915316E-4],"split_indices":[69,71,69,69,38,41,37,73,38,57,69,0,37,0,0,0,0,0,0,0,0,0,0,0,0],"split_type":[0,0,0,0,0,0,0,0,0,0,0,0,0,0,0,0,0,0,0,0,0,0,0,0,0],"sum_hessian":[3.6219082E3,2.5790369E3,1.0428713E3,2.0159707E3,5.6306604E2,5.0527533E2,5.3759607E2,1.591852E3,4.241187E2,2.5732422E2,3.0574182E2,1.1132171E2,3.939536E2,4.5993494E2,7.766112E1,1.3816802E3,2.1017189E2,3.5597482E2,6.8143906E1,7.791764E1,1.7940659E2,1.4188489E2,1.6385693E2,3.38923E2,5.503062E1],"tree_param":{"num_deleted":"0","num_feature":"81","num_nodes":"25","size_leaf_vector":"1"}},{"base_weights":[-8.180715E-3,-3.7592056E-1,7.1921223E-1,-4.5191693E-1,-3.67931E-2,8.256922E-1,2.952407E-1,-5.205634E-1,3E-3,3.1807417E-1,-3.6047775E-1,4.9698225E-1,3E-3,-2.9030687E-1,7.1633804E-1,-1.2976961E-3,-3E-3,4.7348454E-4,2.305043E-3,-2.4288895E-3,-2.1354979E-4,3E-3,1.1343916E-3,-1.585136E-3,-5.473463E-5,1.2326927E-3,3E-3],"categories":[],"categories_nodes":[],"categories_segments":[],"categories_sizes":[],"default_left":[0,0,0,0,0,0,0,0,0,0,0,0,0,0,0,0,0,0,0,0,0,0,0,0,0,0,0],"id":2,"left_children":[1,3,5,7,9,11,13,15,-1,17,19,21,-1,23,25,-1,-1,-1,-1,-1,-1,-1,-1,-1,-1,-1,-1],"loss_changes":[9.736414E2,6.209613E1,5.4459656E1,2.3476459E2,5.2080643E1,9.60083E1,6.275775E1,1.038302E2,0E0,1.5264576E1,3.0465277E1,3.2747574E1,0E0,6.7725716E0,1.3627655E1,0E0,0E0,0E0,0E0,0E0,0E0,0E0,0E0,0E0,0E0,0E0,0E0],"parents":[2147483647,0,0,1,1,2,2,3,3,4,4,5,5,6,6,7,7,9,9,10,10,11,11,13,13,14,14],"right_children":[2,4,6,8,10,12,14,16,-1,18,20,22,-1,24,26,-1,-1,-1,-1,-1,-1,-1,-1,-1,-1,-1,-1],"split_conditions":[3.5503483E1,1E0,-2.464454E-4,1E0,6.54879E-5,5.4432312E1,5.6219604E1,-7.367341E-4,3E-3,2.2292E1,1.7666435E1,3.3199562E1,3E-3,2.2926187E-2,7.1382195E1,-1.2976961E-3,-3E-3,4.7348454E-4,2.305043E-3,-2.4288895E-3,-2.1354979E-4,3E-3,1.1343916E-3,-1.585136E-3,-5.473463E-5,1.2326927E-3,3E-3],"split_indices":[69,72,37,71,38,69,69,38,0,69,69,43,0,31,69,0,0,0,0,0,0,0,0,0,0,0,0],"split_type":[0,0,0,0,0,0,0,0,0,0,0,0,0,0,0,0,0,0,0,0,0,0,0,0,0,0,0],"sum_hessian":[3.6324546E3,2.413794E3,1.2186608E3,1.9701549E3,4.43639E2,9.715762E2,2.4708463E2,1.8984789E3,7.1676E1,2.1090553E2,2.3273347E2,5.0354883E2,4.680273E2,1.0312302E2,1.4396161E2,1.6836877E3,2.1479105E2,1.5835919E2,5.254635E1,8.908951E1,1.4364397E2,8.461589E1,4.1893295E2,5.3012016E1,5.0111E1,7.775343E1,6.620818E1],"tree_param":{"num_deleted":"0","num_feature":"81","num_nodes":"27","size_leaf_vector":"1"}},{"base_weights":[-7.414011E-5,-4.5070958E-1,6.3349974E-1,-3.3794758E-1,-8.672597E-1,1E0,5.44208E-1,-9.0264654E-1,-1.3299918E-1,-3E-3,-3.2282692E-1,1.3307256E-3,3E-3,3.9778045E-1,3E-3,-3E-3,-5.636922E-4,-7.044763E-4,6.71763E-4,-1.705202E-3,-2.1144573E-4,7.7464175E-4,2.0908613E-3],"categories":[],"categories_nodes":[],"categories_segments":[],"categories_sizes":[],"default_left":[0,0,0,0,0,0,0,0,0,0,0,0,0,0,0,0,0,0,0,0,0,0,0],"id":3,"left_children":[1,3,5,7,9,11,13,15,17,-1,19,-1,-1,21,-1,-1,-1,-1,-1,-1,-1,-1,-1],"loss_changes":[1.0361597E3,9.910544E1,5.301935E1,1.934399E2,8.777759E1,2.1825592E1,1.12315E2,4.2380493E1,4.512889E1,0E0,1.3192116E1,0E0,0E0,4.25403E1,0E0,0E0,0E0,0E0,0E0,0E0,0E0,0E0,0E0],"parents":[2147483647,0,0,1,1,2,2,3,3,4,4,5,5,6,6,7,7,8,8,10,10,13,13],"right_children":[2,4,6,8,10,12,14,16,18,-1,20,-1,-1,22,-1,-1,-1,-1,-1,-1,-1,-1,-1],"split_conditions":[2.7494198E-1,3.0673111E-6,-2.4783977E-3,1.0803324E-1,1.7226891E-1,3.4615386E-1,5.121359E-1,1E0,1E0,-3E-3,-6.037239E-1,1.3307256E-3,3E-3,1E0,3E-3,-3E-3,-5.636922E-4,-7.044763E-4,6.71763E-4,-1.705202E-3,-2.1144573E-4,7.7464175E-4,2.0908613E-3],"split_indices":[70,73,73,70,70,70,70,71,71,0,40,0,0,71,0,0,0,0,0,0,0,0,0],"split_type":[0,0,0,0,0,0,0,0,0,0,0,0,0,0,0,0,0,0,0,0,0,0,0],"sum_hessian":[3.6216658E3,2.1171729E3,1.5044929E3,1.6699365E3,4.4723645E2,2.6717178E2,1.237321E3,4.4222253E2,1.227714E3,2.3500745E2,2.1222899E2,7.6751015E1,1.9042076E2,1.02352594E3,2.1379514E2,3.6946194E2,7.276058E1,9.568251E2,2.7088892E2,1.0528386E2,1.0694513E2,7.016149E2,3.21911E2],"tree_param":{"num_deleted":"0","num_feature":"81","num_nodes":"23","size_leaf_vector":"1"}},{"base_weights":[9.239664E-3,-1.6045909E-1,5.0045556E-1,-5.91657E-1,4.6462107E-1,1.7820564E-1,1E0,-9.619535E-1,-4.7247824E-1,5.484459E-1,-1.9201831E-3,9.533245E-1,-1.0895117E-1,3E-3,8.243965E-1,-3E-3,-2.0491392E-3,-3E-3,-7.0347247E-4,9.369153E-4,2.8720982E-3,3E-3,1.4515487E-3,-2.3804242E-3,2.318638E-4,1.035484E-3,3E-3],"categories":[],"categories_nodes":[],"categories_segments":[],"categories_sizes":[],"default_left":[0,0,0,0,0,0,0,0,0,0,0,0,0,0,0,0,0,0,0,0,0,0,0,0,0,0,0],"id":4,"left_children":[1,3,5,7,9,11,13,15,17,19,-1,21,23,-1,25,-1,-1,-1,-1,-1,-1,-1,-1,-1,-1,-1,-1],"loss_changes":[3.0364377E2,7.290668E2,1.7344194E2,6.977173E1,1.0347841E2,1.3621864E2,3.985077E0,1.8989655E1,1.5834808E2,9.8591644E1,0E0,1.3369675E1,5.7708412E1,0E0,2.5282852E1,0E0,0E0,0E0,0E0,0E0,0E0,0E0,0E0,0E0,0E0,0E0,0E0],"parents":[2147483647,0,0,1,1,2,2,3,3,4,4,5,5,6,6,7,7,8,8,9,9,11,11,12,12,14,14],"right_children":[2,4,6,8,10,12,14,16,18,20,-1,22,24,-1,26,-1,-1,-1,-1,-1,-1,-1,-1,-1,-1,-1,-1],"split_conditions":[1E0,2.5925925E-1,3.4962407E-1,1.8E-1,-4.932273E-4,-5.0976407E-4,-2.059597E-4,1.418919E-1,1.0803324E-1,3.8333333E-1,-1.9201831E-3,-8.217043E-4,1.3364056E-1,3E-3,4.477401E-1,-3E-3,-2.0491392E-3,-3E-3,-7.0347247E-4,9.369153E-4,2.8720982E-3,3E-3,1.4515487E-3,-2.3804242E-3,2.318638E-4,1.035484E-3,3E-3],"split_indices":[71,70,70,52,38,38,38,70,70,70,0,38,70,0,70,0,0,0,0,0,0,0,0,0,0,0,0],"split_type":[0,0,0,0,0,0,0,0,0,0,0,0,0,0,0,0,0,0,0,0,0,0,0,0,0,0,0],"sum_hessian":[3.6288313E3,2.6973242E3,9.3150696E2,1.5967488E3,1.1005756E3,6.0319476E2,3.283122E2,3.8431564E2,1.2124331E3,1.0243092E3,7.626633E1,1.6227345E2,4.409213E2,1.3052748E2,1.9778471E2,1.6903647E2,2.1527919E2,3.6369266E2,8.487405E2,6.5234644E2,3.7196277E2,1.03476395E2,5.879706E1,9.348393E1,3.4743738E2,7.710838E1,1.2067634E2],"tree_param":{"num_deleted":"0","num_feature":"81","num_nodes":"27","size_leaf_vector":"1"}},{"base_weights":[-6.3678445E-3,-3.820856E-1,7.45468E-1,-3.2141542E-1,-6.314146E-1,9.4413555E-1,4.554174E-1,-5.3365177E-1,-8.935471E-2,-9.420466E-1,-1.9175258E-1,6.490772E-1,3E-3,1.8632121E-1,9.907758E-1,-3E-3,-6.3875085E-4,-1.5999216E-3,2.0480837E-4,-3E-3,-7.553377E-4,-1.7056981E-3,5.532932E-4,3E-3,1.6039147E-3,1.2630972E-3,-1.5696524E-4,3E-3,2.1838427E-3],"categories":[],"categories_nodes":[],"categories_segments":[],"categories_sizes":[],"default_left":[0,0,0,0,0,0,0,0,0,0,0,0,0,0,0,0,0,0,0,0,0,0,0,0,0,0,0,0,0],"id":5,"left_children":[1,3,5,7,9,11,13,15,17,19,21,23,-1,25,27,-1,-1,-1,-1,-1,-1,-1,-1,-1,-1,-1,-1,-1,-1],"loss_changes":[1.0255457E3,3.628006E1,6.871539E1,9.599727E1,6.3727432E1,4.4788025E1,7.1223404E1,1.6197363E2,6.629016E1,2.8691635E1,2.8980745E1,1.6464478E1,0E0,1.9178066E1,4.6053467E0,0E0,0E0,0E0,0E0,0E0,0E0,0E0,0E0,0E0,0E0,0E0,0E0,0E0,0E0],"parents":[2147483647,0,0,1,1,2,2,3,3,4,4,5,5,6,6,7,7,8,8,9,9,10,10,11,11,13,13,14,14],"right_children":[2,4,6,8,10,12,14,16,18,20,22,24,-1,26,28,-1,-1,-1,-1,-1,-1,-1,-1,-1,-1,-1,-1,-1,-1],"split_conditions":[3.636043E1,-5.5868475E-4,4.453821E1,9.73216E0,1E0,5.571981E1,6.517118E1,1.2106538E-1,1.5570934E-1,2.9090908E-1,2.1941845E1,3.3199562E1,3E-3,-3.0959715E-4,-1.0884398E-4,-3E-3,-6.3875085E-4,-1.5999216E-3,2.0480837E-4,-3E-3,-7.553377E-4,-1.7056981E-3,5.532932E-4,3E-3,1.6039147E-3,1.2630972E-3,-1.5696524E-4,3E-3,2.1838427E-3],"split_indices":[69,37,43,69,72,69,69,70,70,70,69,43,0,37,58,0,0,0,0,0,0,0,0,0,0,0,0,0,0],"split_type":[0,0,0,0,0,0,0,0,0,0,0,0,0,0,0,0,0,0,0,0,0,0,0,0,0,0,0,0,0],"sum_hessian":[3.6231895E3,2.4169878E3,1.2062017E3,1.9492524E3,4.6773532E2,7.1217206E2,4.940296E2,1.01563074E3,9.336217E2,2.7208093E2,1.9565439E2,3.9843085E2,3.137412E2,3.311887E2,1.628409E2,3.951778E2,6.2045294E2,2.4420824E2,6.8941345E2,2.16381E2,5.5699932E1,9.7898415E1,9.7755974E1,8.693706E1,3.1149377E2,1.672555E2,1.6393321E2,7.1853745E1,9.098716E1],"tree_param":{"num_deleted":"0","num_feature":"81","num_nodes":"29","size_leaf_vector":"1"}},{"base_weights":[2.445292E-3,-1.7041528E-1,5.134219E-1,-6.044168E-1,4.5897922E-1,1E0,1.7644504E-1,-1E0,-4.083594E-1,2.0332651E-1,9.313833E-1,6.038886E-4,3E-3,-2.802552E-3,3.7052086E-1,-2.2695751E-3,-3E-3,-1.0949369E-3,-3E-3,8.999385E-4,-2.6574032E-3,3E-3,1.5726051E-3,4.4195808E-4,2.9677723E-3],"categories":[],"categories_nodes":[],"categories_segments":[],"categories_sizes":[],"default_left":[0,0,0,0,0,0,0,0,0,0,0,0,0,0,0,0,0,0,0,0,0,0,0,0,0],"id":6,"left_children":[1,3,5,7,9,11,13,15,17,19,21,-1,-1,-1,23,-1,-1,-1,-1,-1,-1,-1,-1,-1,-1],"loss_changes":[3.1952426E2,7.377179E2,1.840714E2,1.6413007E2,1.3265367E2,3.063208E1,1.2945415E2,1.7966919E0,3.4948532E1,7.673906E1,2.1990875E1,0E0,0E0,0E0,6.992272E1,0E0,0E0,0E0,0E0,0E0,0E0,0E0,0E0,0E0,0E0],"parents":[2147483647,0,0,1,1,2,2,3,3,4,4,5,5,6,6,7,7,8,8,9,9,10,10,14,14],"right_children":[2,4,6,8,10,12,14,16,18,20,22,-1,-1,-1,24,-1,-1,-1,-1,-1,-1,-1,-1,-1,-1],"split_conditions":[1E0,2.6506025E-1,-3.0849891E-4,9.6463025E-2,3.939394E-1,1.3364056E-1,1.4035088E-1,1.0862202E-1,-4.5996896E-4,1E0,-1.2239964E-3,6.038886E-4,3E-3,-2.802552E-3,4.3888888E-1,-2.2695751E-3,-3E-3,-1.0949369E-3,-3E-3,8.999385E-4,-2.6574032E-3,3E-3,1.5726051E-3,4.4195808E-4,2.9677723E-3],"split_indices":[71,70,38,70,70,70,70,53,38,39,38,0,0,0,70,0,0,0,0,0,0,0,0,0,0],"split_type":[0,0,0,0,0,0,0,0,0,0,0,0,0,0,0,0,0,0,0,0,0,0,0,0,0],"sum_hessian":[3.6038494E3,2.693132E3,9.107173E2,1.5945071E3,1.098625E3,3.192694E2,5.914479E2,4.0761746E2,1.1868896E3,7.153925E2,3.8323245E2,5.0405224E1,2.688642E2,8.646056E1,5.0498727E2,6.615464E1,3.4146283E2,1.1217375E3,6.515211E1,6.5883356E2,5.6558968E1,2.6944763E2,1.1378483E2,3.7352655E2,1.3146075E2],"tree_param":{"num_deleted":"0","num_feature":"81","num_nodes":"25","size_leaf_vector":"1"}},{"base_weights":[-7.934604E-3,-3.845638E-1,7.334556E-1,-3.063295E-1,-1E0,1E0,4.9527398E-1,4.3705126E-4,-3.2753226E-1,-3E-3,-7.093497E-1,1.7323146E-3,1E0,6.2220055E-1,3.942948E-2,-1.2602443E-3,-9.276312E-5,-3E-3,-6.7110755E-4,1.381144E-3,3E-3,1.0629859E-3,3E-3,-7.535095E-4,1.8944256E-3],"categories":[],"categories_nodes":[],"categories_segments":[],"categories_sizes":[],"default_left":[0,0,0,0,0,0,0,0,0,0,0,0,0,0,0,0,0,0,0,0,0,0,0,0,0],"id":7,"left_children":[1,3,5,7,9,11,13,-1,15,-1,17,-1,19,21,23,-1,-1,-1,-1,-1,-1,-1,-1,-1,-1],"loss_changes":[1.0192507E3,1.2109506E2,8.980414E1,2.1053802E1,1.3512634E1,6.9838867E0,4.0507797E1,0E0,5.655368E1,0E0,3.5057617E1,0E0,2.1114258E1,6.544522E1,2.8238398E1,0E0,0E0,0E0,0E0,0E0,0E0,0E0,0E0,0E0,0E0],"parents":[2147483647,0,0,1,1,2,2,3,3,4,4,5,5,6,6,8,8,10,10,12,12,13,13,14,14],"right_children":[2,4,6,8,10,12,14,-1,16,-1,18,-1,20,22,24,-1,-1,-1,-1,-1,-1,-1,-1,-1,-1],"split_conditions":[3.5887997E1,3.594294E-4,-9.264198E-4,7.438017E-2,3.764706E-4,1.5246365E1,-1.7613063E-4,4.3705126E-4,2.0730711E1,-3E-3,1.715682E1,1.7323146E-3,4.291358E1,5.771832E1,6.6766556E1,-1.2602443E-3,-9.276312E-5,-3E-3,-6.7110755E-4,1.381144E-3,3E-3,1.0629859E-3,3E-3,-7.535095E-4,1.8944256E-3],"split_indices":[69,73,73,51,46,44,37,0,69,0,69,0,69,69,69,0,0,0,0,0,0,0,0,0,0],"split_type":[0,0,0,0,0,0,0,0,0,0,0,0,0,0,0,0,0,0,0,0,0,0,0,0,0],"sum_hessian":[3.642859E3,2.416768E3,1.226091E3,2.1579248E3,2.5884326E2,5.2428613E2,7.018048E2,9.5104645E1,2.06282E3,7.3772995E1,1.8507027E2,5.067984E1,4.7360626E2,5.47524E2,1.5428082E2,1.5703259E3,4.9249417E2,9.854856E1,8.6521706E1,7.923234E1,3.9437393E2,3.485659E2,1.9895808E2,1.03691795E2,5.0589024E1],"tree_param":{"num_deleted":"0","num_feature":"81","num_nodes":"25","size_leaf_vector":"1"}},{"base_weights":[-8.485692E-3,-3.7366292E-1,7.274931E-1,-5.1206803E-1,1.3801126E-1,8.4942806E-1,2.8665093E-1,-4.2689767E-1,-1E0,7.5903386E-1,-3.0478513E-1,7.06963E-1,3E-3,2.8848262E-3,1.1325601E-1,-1.100213E-3,-3E-3,-3E-3,-1.1896511E-3,3E-3,1.4435243E-3,-1.7309965E-3,6.478417E-4,1.2851541E-3,3E-3,-5.1964837E-4,2.602947E-3],"categories":[],"categories_nodes":[],"categories_segments":[],"categories_sizes":[],"default_left":[0,0,0,0,0,0,0,0,0,0,0,0,0,0,0,0,0,0,0,0,0,0,0,0,0,0,0],"id":8,"left_children":[1,3,5,7,9,11,13,15,17,19,21,23,-1,-1,25,-1,-1,-1,-1,-1,-1,-1,-1,-1,-1,-1,-1],"loss_changes":[9.713262E2,1.715373E2,6.3695007E1,9.076108E1,1.4314845E2,3.57146E1,3.0842016E1,6.947058E1,2.9859314E1,2.8124168E1,4.364378E1,7.398282E1,0E0,0E0,4.745594E1,0E0,0E0,0E0,0E0,0E0,0E0,0E0,0E0,0E0,0E0,0E0,0E0],"parents":[2147483647,0,0,1,1,2,2,3,3,4,4,5,5,6,6,7,7,8,8,9,9,10,10,11,11,14,14],"right_children":[2,4,6,8,10,12,14,16,18,20,22,24,-1,-1,26,-1,-1,-1,-1,-1,-1,-1,-1,-1,-1,-1,-1],"split_conditions":[3.636043E1,1E0,-2.7410296E-4,3.3629144E-4,-1.852042E-4,1E0,-7.152365E-4,-5.534726E-4,1.6968483E1,1E0,2.4442562E1,5.6219604E1,3E-3,2.8848262E-3,6.810088E1,-1.100213E-3,-3E-3,-3E-3,-1.1896511E-3,3E-3,1.4435243E-3,-1.7309965E-3,6.478417E-4,1.2851541E-3,3E-3,-5.1964837E-4,2.602947E-3],"split_indices":[69,71,37,73,38,71,73,38,69,39,69,69,0,0,69,0,0,0,0,0,0,0,0,0,0,0,0],"split_type":[0,0,0,0,0,0,0,0,0,0,0,0,0,0,0,0,0,0,0,0,0,0,0,0,0,0,0],"sum_hessian":[3.606636E3,2.4116765E3,1.1949594E3,1.8989866E3,5.1269E2,9.337111E2,2.612482E2,1.6586326E3,2.4035402E2,2.1327388E2,2.9941614E2,6.859114E2,2.4779973E2,5.0948948E1,2.1029924E2,1.5364707E3,1.2216179E2,1.5320767E2,8.714636E1,5.589393E1,1.5737994E2,1.9711697E2,1.0229915E2,4.1218613E2,2.7372528E2,1.5305597E2,5.7243267E1],"tree_param":{"num_deleted":"0","num_feature":"81","num_nodes":"27","size_leaf_vector":"1"}},{"base_weights":[-3.4223578E-3,-4.218841E-1,6.9049835E-1,-9.189569E-1,-1.3386886E-1,3.719961E-1,1E0,-1E0,-5.9814197E-1,-2.3181364E-1,1.3849126E-1,7.164826E-1,2.1234538E-1,8.343224E-1,3E-3,-5.6106655E-4,-3E-3,-4.739593E-4,-2.8202098E-3,-1.081713E-3,7.5716776E-4,-8.393788E-5,1.7373424E-3,8.2001137E-4,2.698891E-3,1.7929128E-4,1.3965068E-3,1.6617288E-3,2.8690393E-3],"categories":[],"categories_nodes":[],"categories_segments":[],"categories_sizes":[],"default_left":[0,0,0,0,0,0,0,0,0,0,0,0,0,0,0,0,0,0,0,0,0,0,0,0,0,0,0,0,0],"id":9,"left_children":[1,3,5,7,9,11,13,15,17,19,21,23,25,27,-1,-1,-1,-1,-1,-1,-1,-1,-1,-1,-1,-1,-1,-1,-1],"loss_changes":[1.0624603E3,3.2638882E2,1.631806E2,4.3676453E1,3.894925E1,4.123043E1,7.0238647E0,6.706903E1,4.7637085E1,6.710216E1,2.8843779E1,1.8596695E1,2.0031893E1,1.0316727E1,0E0,0E0,0E0,0E0,0E0,0E0,0E0,0E0,0E0,0E0,0E0,0E0,0E0,0E0,0E0],"parents":[2147483647,0,0,1,1,2,2,3,3,4,4,5,5,6,6,7,7,8,8,9,9,10,10,11,11,12,12,13,13],"right_children":[2,4,6,8,10,12,14,16,18,20,22,24,26,28,-1,-1,-1,-1,-1,-1,-1,-1,-1,-1,-1,-1,-1,-1,-1],"split_conditions":[3.1755297E1,1.4035088E-1,3.8333333E-1,9.836066E-2,2.8522336E-1,-1.1954836E-3,5.121359E-1,9.322034E-2,1.4159292E-1,1E0,1E0,3.9451385E1,1E0,1.2857144E-1,3E-3,-5.6106655E-4,-3E-3,-4.739593E-4,-2.8202098E-3,-1.081713E-3,7.5716776E-4,-8.393788E-5,1.7373424E-3,8.2001137E-4,2.698891E-3,1.7929128E-4,1.3965068E-3,1.6617288E-3,2.8690393E-3],"split_indices":[69,70,70,70,70,37,70,51,51,71,71,69,71,52,0,0,0,0,0,0,0,0,0,0,0,0,0,0,0],"split_type":[0,0,0,0,0,0,0,0,0,0,0,0,0,0,0,0,0,0,0,0,0,0,0,0,0,0,0,0,0],"sum_hessian":[3.6515088E3,2.2788042E3,1.3727047E3,8.337516E2,1.4450525E3,7.5152997E2,6.2117474E2,5.169294E2,3.1682227E2,1.0644087E3,3.8064383E2,2.3479453E2,5.167355E2,3.3278513E2,2.8838965E2,1.0373237E2,4.13197E2,1.4043286E2,1.763894E2,8.4204E2,2.2236873E2,2.7680365E2,1.0384019E2,7.0917366E1,1.6387715E2,3.2518723E2,1.9154822E2,1.0550639E2,2.2727873E2],"tree_param":{"num_deleted":"0","num_feature":"81","num_nodes":"29","size_leaf_vector":"1"}},{"base_weights":[-5.9862126E-4,-5.8009416E-1,4.7498894E-1,-1E0,-3.212614E-1,2.0562743E-1,9.9765235E-1,-3.4566134E-1,-3E-3,-6.966702E-2,-7.5457144E-1,5.3502536E-1,4.562985E-2,7.554823E-1,1E0,-1.6834871E-3,1.4247595E-4,-5.5928895E-4,1.152732E-3,-2.6139745E-3,-8.215619E-4,4.1385207E-4,2.3246321E-3,-4.4316537E-4,7.4600626E-4,2.9703788E-3,1.3391566E-3,2.2292514E-3,3E-3],"categories":[],"categories_nodes":[],"categories_segments":[],"categories_sizes":[],"default_left":[0,0,0,0,0,0,0,0,0,0,0,0,0,0,0,0,0,0,0,0,0,0,0,0,0,0,0,0,0],"id":10,"left_children":[1,3,5,7,9,11,13,15,-1,17,19,21,23,25,27,-1,-1,-1,-1,-1,-1,-1,-1,-1,-1,-1,-1,-1,-1],"loss_changes":[9.953101E2,1.9719446E2,2.78593E2,6.630859E1,1.1505272E2,6.9094406E1,2.0467834E1,1.4219658E1,0E0,3.609198E1,2.104956E1,4.039177E1,3.5224155E1,2.6632019E1,1.3221436E0,0E0,0E0,0E0,0E0,0E0,0E0,0E0,0E0,0E0,0E0,0E0,0E0,0E0,0E0],"parents":[2147483647,0,0,1,1,2,2,3,3,4,4,5,5,6,6,7,7,9,9,10,10,11,11,12,12,13,13,14,14],"right_children":[2,4,6,8,10,12,14,16,-1,18,20,22,24,26,28,-1,-1,-1,-1,-1,-1,-1,-1,-1,-1,-1,-1,-1,-1],"split_conditions":[2.2675736E-1,1.0803324E-1,3.8688526E-1,1.0759494E-1,2.1487603E-1,2.3174603E-1,5.121359E-1,9.570383E0,-3E-3,1E0,1E0,2.3418716E1,2.9245708E1,-1.6973745E-3,5.873567E1,-1.6834871E-3,1.4247595E-4,-5.5928895E-4,1.152732E-3,-2.6139745E-3,-8.215619E-4,4.1385207E-4,2.3246321E-3,-4.4316537E-4,7.4600626E-4,2.9703788E-3,1.3391566E-3,2.2292514E-3,3E-3],"split_indices":[70,70,70,51,51,51,70,69,0,71,71,69,69,47,69,0,0,0,0,0,0,0,0,0,0,0,0,0,0],"split_type":[0,0,0,0,0,0,0,0,0,0,0,0,0,0,0,0,0,0,0,0,0,0,0,0,0,0,0,0,0],"sum_hessian":[3.603402E3,1.6245397E3,1.9788625E3,5.710569E2,1.0534827E3,1.3083372E3,6.705254E2,1.5906863E2,4.1198825E2,6.6869275E2,3.8479E2,4.2517908E2,8.831581E2,3.7789893E2,2.9262646E2,1.03018E2,5.6050648E1,5.336885E2,1.3500423E2,3.0745276E2,7.7337234E1,1.6208408E2,2.63095E2,4.5138837E2,4.317697E2,2.1139722E2,1.6650172E2,5.2223682E1,2.4040279E2],"tree_param":{"num_deleted":"0","num_feature":"81","num_nodes":"29","size_leaf_vector":"1"}},{"base_weights":[-1.2204782E-4,-3.5814598E-1,7.0733804E-1,-8.5008514E-1,-1.03531905E-1,4.0363768E-1,1E0,-6.39036E-1,-3E-3,-1.73967E-1,1.891822E-1,5.687404E-1,-8.1027254E-2,6.5960664E-1,3E-3,-2.3418826E-3,-1.1659375E-3,-3.4577504E-4,-3E-3,2.15038E-3,7.128292E-5,2.4505071E-3,1.1857561E-3,-7.1686786E-4,4.7133834E-4,2.9198101E-3,1.0232527E-3],"categories":[],"categories_nodes":[],"categories_segments":[],"categories_sizes":[],"default_left":[0,0,0,0,0,0,0,0,0,0,0,0,0,0,0,0,0,0,0,0,0,0,0,0,0,0,0],"id":11,"left_children":[1,3,5,7,9,11,13,15,-1,17,19,21,23,25,-1,-1,-1,-1,-1,-1,-1,-1,-1,-1,-1,-1,-1],"loss_changes":[9.1762836E2,3.0101062E2,1.3826917E2,5.5031982E1,3.303393E1,5.5638634E1,1.252594E1,1.9921967E1,0E0,7.077115E1,2.6972462E1,2.1524887E1,7.0430455E0,1.2152336E1,0E0,0E0,0E0,0E0,0E0,0E0,0E0,0E0,0E0,0E0,0E0,0E0,0E0],"parents":[2147483647,0,0,1,1,2,2,3,3,4,4,5,5,6,6,7,7,9,9,10,10,11,11,12,12,13,13],"right_children":[2,4,6,8,10,12,14,16,-1,18,20,22,24,26,-1,-1,-1,-1,-1,-1,-1,-1,-1,-1,-1,-1,-1],"split_conditions":[3.5887997E1,1.4035088E-1,4.0329218E-1,-1.979327E-4,1E0,-3.4353393E-4,5.6783554E1,2.807221E-1,-3E-3,1.5237385E-4,3.468083E-4,-1.2449867E-3,5.6640625E-1,-9.18145E-4,3E-3,-2.3418826E-3,-1.1659375E-3,-3.4577504E-4,-3E-3,2.15038E-3,7.128292E-5,2.4505071E-3,1.1857561E-3,-7.1686786E-4,4.7133834E-4,2.9198101E-3,1.0232527E-3],"split_indices":[69,70,70,73,72,37,69,40,0,57,57,37,62,37,0,0,0,0,0,0,0,0,0,0,0,0,0],"split_type":[0,0,0,0,0,0,0,0,0,0,0,0,0,0,0,0,0,0,0,0,0,0,0,0,0,0,0],"sum_hessian":[3.6153533E3,2.4016472E3,1.2137059E3,8.1682355E2,1.5848237E3,6.860384E2,5.276676E2,5.7857227E2,2.3825124E2,1.2794679E3,3.0535583E2,5.1223016E2,1.7380823E2,1.26303986E2,4.0136362E2,3.6559958E2,2.1297272E2,1.2080836E3,7.138427E1,7.057331E1,2.3478252E2,2.0655281E2,3.0567734E2,1.0576211E2,6.804611E1,6.0775093E1,6.552889E1],"tree_param":{"num_deleted":"0","num_feature":"81","num_nodes":"27","size_leaf_vector":"1"}},{"base_weights":[-1.6945833E-2,-1.950763E-1,4.9181736E-1,-7.1689114E-2,-8.4429324E-1,1E0,1.9080247E-1,-4.8479334E-1,5.4141074E-1,-1E0,4.495287E-5,3E-3,1.5236195E-3,-1.264125E-1,8.8842624E-1,-2.7223101E-3,-6.847026E-4,8.774164E-4,3E-3,-1.6020497E-3,-3E-3,-2.1673895E-3,2.2300433E-4,3E-3,1.4602945E-3],"categories":[],"categories_nodes":[],"categories_segments":[],"categories_sizes":[],"default_left":[0,0,0,0,0,0,0,0,0,0,0,0,0,0,0,0,0,0,0,0,0,0,0,0,0],"id":12,"left_children":[1,3,5,7,9,11,13,15,17,19,-1,-1,-1,21,23,-1,-1,-1,-1,-1,-1,-1,-1,-1,-1],"loss_changes":[3.2705923E2,2.1396848E2,1.96305E2,5.7026965E2,6.301233E1,1.0628937E1,1.5004057E2,1.4532898E2,1.1899786E2,1.0233673E1,0E0,0E0,0E0,5.648976E1,9.313522E0,0E0,0E0,0E0,0E0,0E0,0E0,0E0,0E0,0E0,0E0],"parents":[2147483647,0,0,1,1,2,2,3,3,4,4,5,5,6,6,7,7,8,8,9,9,13,13,14,14],"right_children":[2,4,6,8,10,12,14,16,18,20,-1,-1,-1,22,24,-1,-1,-1,-1,-1,-1,-1,-1,-1,-1],"split_conditions":[1E0,-1.3383062E-4,2.4974506E-4,2.7325583E-1,4.16195E1,-2.464454E-4,3.4962407E-1,1.388889E-1,4.1391304E-1,-1.7593756E-3,4.495287E-5,3E-3,1.5236195E-3,1.3364056E-1,-1.4944929E-4,-2.7223101E-3,-6.847026E-4,8.774164E-4,3E-3,-1.6020497E-3,-3E-3,-2.1673895E-3,2.2300433E-4,3E-3,1.4602945E-3],"split_indices":[71,57,57,70,69,37,70,70,70,37,0,0,0,70,58,0,0,0,0,0,0,0,0,0,0],"split_type":[0,0,0,0,0,0,0,0,0,0,0,0,0,0,0,0,0,0,0,0,0,0,0,0,0],"sum_hessian":[3.5990083E3,2.6673274E3,9.3168085E2,2.2438606E3,4.2346683E2,2.6213483E2,6.69546E2,1.3413192E3,9.0254144E2,3.534833E2,6.998352E1,2.0995787E2,5.217696E1,4.6089453E2,2.0865146E2,5.0401166E2,8.3730756E2,6.202099E2,2.8233154E2,5.648587E1,2.9699744E2,1.1543691E2,3.4545764E2,1.5622116E2,5.243031E1],"tree_param":{"num_deleted":"0","num_feature":"81","num_nodes":"25","size_leaf_vector":"1"}},{"base_weights":[5.1973453E-3,-4.1728222E-1,6.5206516E-1,-3.095734E-1,-9.8624474E-1,3.1781444E-1,1E0,-4.6122983E-1,-1.6260532E-1,-3E-3,-4.9970588E-1,6.1858034E-1,8.870341E-2,3E-3,7.3029256E-1,-3E-3,-6.6645746E-4,-1.8470841E-3,-3.6950627E-5,-2.961172E-3,-6.11301E-4,5.488515E-4,2.2378338E-3,-8.790333E-4,4.6443925E-4,5.8817875E-4,3E-3],"categories":[],"categories_nodes":[],"categories_segments":[],"categories_sizes":[],"default_left":[0,0,0,0,0,0,0,0,0,0,0,0,0,0,0,0,0,0,0,0,0,0,0,0,0,0,0],"id":13,"left_children":[1,3,5,7,9,11,13,15,17,-1,19,21,23,-1,25,-1,-1,-1,-1,-1,-1,-1,-1,-1,-1,-1,-1],"loss_changes":[9.9315717E2,1.3415085E2,1.9572406E2,4.1074966E1,3.475055E1,5.496689E1,1.2465698E1,1.3078743E2,6.441882E1,0E0,2.1188389E1,1.8664246E1,1.1904564E1,0E0,3.0941612E1,0E0,0E0,0E0,0E0,0E0,0E0,0E0,0E0,0E0,0E0,0E0,0E0],"parents":[2147483647,0,0,1,1,2,2,3,3,4,4,5,5,6,6,7,7,8,8,10,10,11,11,12,12,14,14],"right_children":[2,4,6,8,10,12,14,16,18,-1,20,22,24,-1,26,-1,-1,-1,-1,-1,-1,-1,-1,-1,-1,-1,-1],"split_conditions":[3.0038359E1,6.188789E-5,5.4432312E1,9.73216E0,1.1907368E1,2.5275087E-1,3.496885E-1,9.6463025E-2,1.4035088E-1,-3E-3,1.591203E-1,2.5167784E-1,2.0537898E-1,3E-3,3.773585E-1,-3E-3,-6.6645746E-4,-1.8470841E-3,-3.6950627E-5,-2.961172E-3,-6.11301E-4,5.488515E-4,2.2378338E-3,-8.790333E-4,4.6443925E-4,5.8817875E-4,3E-3],"split_indices":[69,73,69,69,69,41,41,70,70,0,70,70,70,0,70,0,0,0,0,0,0,0,0,0,0,0,0],"split_type":[0,0,0,0,0,0,0,0,0,0,0,0,0,0,0,0,0,0,0,0,0,0,0,0,0,0,0],"sum_hessian":[3.625784E3,2.193265E3,1.432519E3,1.8474886E3,3.4577628E2,7.9674866E2,6.357704E2,9.054627E2,9.42026E2,1.9874005E2,1.4703622E2,3.420888E2,4.5465982E2,4.3520132E2,2.0056905E2,2.5224272E2,6.5322E2,2.3226709E2,7.097589E2,5.3149517E1,9.388671E1,7.9380104E1,2.627087E2,6.4988914E1,3.896709E2,7.259328E1,1.2797577E2],"tree_param":{"num_deleted":"0","num_feature":"81","num_nodes":"27","size_leaf_vector":"1"}},{"base_weights":[1.0456151E-2,-3.5912615E-1,7.327875E-1,-1E0,-1.7411953E-1,4.095903E-1,1E0,-1.6967642E-1,-1E0,-6.17518E-2,-2.9560262E-1,6.961777E-1,2.5582892E-1,1E0,1.8146097E-3,-1.4697623E-3,5.9822714E-4,-3E-3,-1.8703744E-3,-6.336084E-4,1.4751975E-3,-1.2999795E-3,4.7473537E-4,9.3253347E-4,2.76396E-3,9.6169364E-4,-3.8138492E-4,2.4268953E-3,3E-3],"categories":[],"categories_nodes":[],"categories_segments":[],"categories_sizes":[],"default_left":[0,0,0,0,0,0,0,0,0,0,0,0,0,0,0,0,0,0,0,0,0,0,0,0,0,0,0,0,0],"id":14,"left_children":[1,3,5,7,9,11,13,15,17,19,21,23,25,27,-1,-1,-1,-1,-1,-1,-1,-1,-1,-1,-1,-1,-1,-1,-1],"loss_changes":[9.713416E2,2.91274E2,1.304544E2,7.376135E1,2.5597115E1,2.7600998E1,5.764099E0,1.3991219E1,7.634033E0,8.177286E1,5.679341E1,1.8321297E1,1.06886215E1,3.37854E0,0E0,0E0,0E0,0E0,0E0,0E0,0E0,0E0,0E0,0E0,0E0,0E0,0E0,0E0,0E0],"parents":[2147483647,0,0,1,1,2,2,3,3,4,4,5,5,6,6,7,7,8,8,9,9,10,10,11,11,12,12,13,13],"right_children":[2,4,6,8,10,12,14,16,18,20,22,24,26,28,-1,-1,-1,-1,-1,-1,-1,-1,-1,-1,-1,-1,-1,-1,-1],"split_conditions":[3.5887997E1,1.0027855E-1,3.8688526E-1,9.322034E-2,2.2972973E-1,2.1686748E-1,2.8725564E-1,6.9978867E0,1E0,1E0,1E0,6.014489E-4,2.2323076E1,5.6783554E1,1.8146097E-3,-1.4697623E-3,5.9822714E-4,-3E-3,-1.8703744E-3,-6.336084E-4,1.4751975E-3,-1.2999795E-3,4.7473537E-4,9.3253347E-4,2.76396E-3,9.6169364E-4,-3.8138492E-4,2.4268953E-3,3E-3],"split_indices":[69,70,70,51,51,51,31,69,71,71,71,49,59,69,0,0,0,0,0,0,0,0,0,0,0,0,0,0,0],"split_type":[0,0,0,0,0,0,0,0,0,0,0,0,0,0,0,0,0,0,0,0,0,0,0,0,0,0,0,0,0],"sum_hessian":[3.6297944E3,2.4014177E3,1.2283768E3,5.259374E2,1.8754803E3,6.3093146E2,5.974454E2,1.09093E2,4.168444E2,9.779979E2,8.9748236E2,2.1671014E2,4.142213E2,5.471858E2,5.025955E1,5.878604E1,5.030696E1,3.4823993E2,6.860446E1,7.717511E2,2.0624686E2,6.89454E2,2.080284E2,8.2497314E1,1.3421283E2,3.5572116E2,5.8500137E1,1.5061751E2,3.965683E2],"tree_param":{"num_deleted":"0","num_feature":"81","num_nodes":"29","size_leaf_vector":"1"}},{"base_weights":[-6.1685657E-3,-4.783585E-1,5.7742184E-1,-1E0,-2.587124E-1,3.416446E-1,1E0,-1.6956457E-1,-1E0,-1.3765688E-1,-7.2918665E-1,5.634791E-1,1.7948939E-1,7.7598417E-1,3E-3,-1.6674132E-3,4.7476552E-4,-3E-3,-2.2594596E-3,-2.9602498E-4,-2.7010406E-3,-2.9533536E-3,-1.1046542E-3,1.9195572E-3,7.4494106E-5,1.9517129E-4,1.1444588E-3,1.6275664E-3,3E-3],"categories":[],"categories_nodes":[],"categories_segments":[],"categories_sizes":[],"default_left":[0,0,0,0,0,0,0,0,0,0,0,0,0,0,0,0,0,0,0,0,0,0,0,0,0,0,0,0,0],"id":15,"left_children":[1,3,5,7,9,11,13,15,17,19,21,23,25,27,-1,-1,-1,-1,-1,-1,-1,-1,-1,-1,-1,-1,-1,-1,-1],"loss_changes":[1.009777E3,2.3829242E2,2.014433E2,7.53233E1,8.198315E1,4.0988785E1,6.218872E0,1.5268481E1,3.3457642E0,3.433224E1,2.6253906E1,1.9523666E1,1.53723545E1,1.2013313E1,0E0,0E0,0E0,0E0,0E0,0E0,0E0,0E0,0E0,0E0,0E0,0E0,0E0,0E0,0E0],"parents":[2147483647,0,0,1,1,2,2,3,3,4,4,5,5,6,6,7,7,8,8,9,9,10,10,11,11,12,12,13,13],"right_children":[2,4,6,8,10,12,14,16,18,20,22,24,26,28,-1,-1,-1,-1,-1,-1,-1,-1,-1,-1,-1,-1,-1,-1,-1],"split_conditions":[2.637681E-1,1.0803324E-1,4.3888888E-1,9.322034E-2,2.633229E-1,2.6497695E-1,9.615385E-2,-1.4331301E-3,9.4801225E-2,6.4246706E-4,2.0408164E-1,-3.6438982E0,3.422222E-1,6.061151E-1,3E-3,-1.6674132E-3,4.7476552E-4,-3E-3,-2.2594596E-3,-2.9602498E-4,-2.7010406E-3,-2.9533536E-3,-1.1046542E-3,1.9195572E-3,7.4494106E-5,1.9517129E-4,1.1444588E-3,1.6275664E-3,3E-3],"split_indices":[70,70,70,51,51,51,52,46,70,73,70,65,70,70,0,0,0,0,0,0,0,0,0,0,0,0,0,0,0],"split_type":[0,0,0,0,0,0,0,0,0,0,0,0,0,0,0,0,0,0,0,0,0,0,0,0,0,0,0,0,0],"sum_hessian":[3.6567466E3,2.0219667E3,1.6347799E3,5.840342E2,1.4379325E3,1.1422693E3,4.9251065E2,1.11328316E2,4.7270587E2,1.1465636E3,2.91369E2,4.7897702E2,6.632923E2,1.6624077E2,3.2626987E2,5.117172E1,6.01566E1,3.829236E2,8.978225E1,1.0935836E3,5.29799E1,1.6783922E2,1.2352976E2,4.183556E2,6.0621407E1,4.2668976E2,2.3660255E2,1.0641432E2,5.982644E1],"tree_param":{"num_deleted":"0","num_feature":"81","num_nodes":"29","size_leaf_vector":"1"}},{"base_weights":[1.2353482E-2,-4.1289672E-1,6.277161E-1,-1E0,-1.9375186E-1,2.1647729E-1,1E0,-2.521872E-1,-3E-3,-3.1848156E-1,2.8526196E-1,6.213472E-1,1.1105444E-1,8.123491E-1,3E-3,-1.2684416E-3,-2.915345E-4,-6.548421E-4,-2.3078395E-3,2.9339346E-3,-4.7135504E-4,6.5467734E-4,2.7688108E-3,-9.3602325E-4,5.796956E-4,2.6190178E-3,9.721895E-4],"categories":[],"categories_nodes":[],"categories_segments":[],"categories_sizes":[],"default_left":[0,0,0,0,0,0,0,0,0,0,0,0,0,0,0,0,0,0,0,0,0,0,0,0,0,0,0],"id":16,"left_children":[1,3,5,7,9,11,13,15,-1,17,19,21,23,25,-1,-1,-1,-1,-1,-1,-1,-1,-1,-1,-1,-1,-1],"loss_changes":[9.475299E2,2.9374722E2,2.3247998E2,7.5050354E1,9.555359E1,3.0588444E1,1.5233582E1,3.6051235E0,0E0,5.687097E1,1.0224313E2,1.73676E1,2.0334412E1,1.3873505E1,0E0,0E0,0E0,0E0,0E0,0E0,0E0,0E0,0E0,0E0,0E0,0E0,0E0],"parents":[2147483647,0,0,1,1,2,2,3,3,4,4,5,5,6,6,7,7,9,9,10,10,11,11,12,12,13,13],"right_children":[2,4,6,8,10,12,14,16,-1,18,20,22,24,26,-1,-1,-1,-1,-1,-1,-1,-1,-1,-1,-1,-1,-1],"split_conditions":[2.8744543E1,1.0619469E-1,3.4962407E-1,1.0364146E-1,1E0,3.6744747E1,5.2657E-1,-5.5416044E-2,-3E-3,-2.0565177E-4,4.425803E-4,6.6476164E-4,4.5216887E-4,-1.5015976E-4,3E-3,-1.2684416E-3,-2.915345E-4,-6.548421E-4,-2.3078395E-3,2.9339346E-3,-4.7135504E-4,6.5467734E-4,2.7688108E-3,-9.3602325E-4,5.796956E-4,2.6190178E-3,9.721895E-4],"split_indices":[69,70,70,51,71,43,70,31,0,57,57,49,49,37,0,0,0,0,0,0,0,0,0,0,0,0,0],"split_type":[0,0,0,0,0,0,0,0,0,0,0,0,0,0,0,0,0,0,0,0,0,0,0,0,0,0,0],"sum_hessian":[3.6125854E3,2.136198E3,1.4763873E3,5.490826E2,1.5871154E3,7.143757E2,7.620117E2,1.3711812E2,4.1196448E2,1.260587E3,3.2652835E2,1.4458304E2,5.6979266E2,4.9274033E2,2.692714E2,6.2090675E1,7.502744E1,1.0346815E3,2.2590552E2,1.2675443E2,1.997739E2,6.406085E1,8.052218E1,9.0777596E1,4.7901505E2,4.359812E2,5.6759132E1],"tree_param":{"num_deleted":"0","num_feature":"81","num_nodes":"27","size_leaf_vector":"1"}},{"base_weights":[1.1789183E-2,-4.2362168E-1,6.186794E-1,-9.783642E-1,-1.7941256E-1,3.4145802E-1,9.540197E-1,-3.3060953E-1,-1E0,-6.1430477E-2,-6.839273E-1,6.12984E-1,1.1859871E-1,3E-3,7.0896834E-1,-1.9627102E-3,-5.487511E-4,-3E-3,-2.3591144E-3,-4.103749E-4,8.1359985E-4,-2.7802195E-3,-1.3609901E-3,5.7621644E-4,2.4151378E-3,-7.864402E-4,6.658935E-4,1.5711392E-3,3E-3],"categories":[],"categories_nodes":[],"categories_segments":[],"categories_sizes":[],"default_left":[0,0,0,0,0,0,0,0,0,0,0,0,0,0,0,0,0,0,0,0,0,0,0,0,0,0,0,0,0],"id":17,"left_children":[1,3,5,7,9,11,13,15,17,19,21,23,25,-1,27,-1,-1,-1,-1,-1,-1,-1,-1,-1,-1,-1,-1,-1,-1],"loss_changes":[9.539525E2,2.841725E2,1.3945087E2,8.7585266E1,8.70461E1,5.0030716E1,2.7845093E1,9.5058E0,6.536255E-1,3.0101692E1,1.4586609E1,2.9658203E1,1.8513563E1,0E0,2.1157654E1,0E0,0E0,0E0,0E0,0E0,0E0,0E0,0E0,0E0,0E0,0E0,0E0,0E0,0E0],"parents":[2147483647,0,0,1,1,2,2,3,3,4,4,5,5,6,6,7,7,8,8,9,9,10,10,11,11,12,12,14,14],"right_children":[2,4,6,8,10,12,14,16,18,20,22,24,26,-1,28,-1,-1,-1,-1,-1,-1,-1,-1,-1,-1,-1,-1,-1,-1],"split_conditions":[2.7636364E-1,1.17056854E-1,3.8688526E-1,1.1612903E-1,2.735849E-1,2.7745664E-1,-1.1646207E-3,5.166846E-2,1E0,1E0,2.0408164E-1,1.7036593E-1,5.060319E-4,3E-3,5.2657E-1,-1.9627102E-3,-5.487511E-4,-3E-3,-2.3591144E-3,-4.103749E-4,8.1359985E-4,-2.7802195E-3,-1.3609901E-3,5.7621644E-4,2.4151378E-3,-7.864402E-4,6.658935E-4,1.5711392E-3,3E-3],"split_indices":[70,70,70,51,51,51,73,70,72,72,70,52,49,0,70,0,0,0,0,0,0,0,0,0,0,0,0,0,0],"split_type":[0,0,0,0,0,0,0,0,0,0,0,0,0,0,0,0,0,0,0,0,0,0,0,0,0,0,0,0,0],"sum_hessian":[3.6018318E3,2.0970745E3,1.5047573E3,6.385323E2,1.4585421E3,8.267892E2,6.779681E2,2.0004442E2,4.3848785E2,1.1847256E3,2.738166E2,3.70111E2,4.5667822E2,3.0773813E2,3.7022995E2,5.9475494E1,1.4056892E2,3.7766058E2,6.0827263E1,9.6807745E2,2.1664812E2,1.2927533E2,1.4454126E2,1.1803521E2,2.5207578E2,9.581959E1,3.608586E2,2.3988129E2,1.3034868E2],"tree_param":{"num_deleted":"0","num_feature":"81","num_nodes":"29","size_leaf_vector":"1"}},{"base_weights":[-1.1649492E-2,-3.659447E-1,7.119761E-1,-5.0525284E-1,1.5350409E-1,8.9227426E-1,4.2468315E-1,-1E0,-3.1049198E-1,3E-3,-1.659944E-2,6.008553E-1,1E0,2.8412452E-2,9.350059E-1,-9.5284823E-4,-3E-3,-7.4603397E-4,-2.9757791E-3,-1.4966761E-3,5.2918016E-4,2.655854E-3,1.353999E-3,2.2087726E-3,3E-3,4.1946603E-4,-1.1767879E-3,1.5272034E-3,3E-3],"categories":[],"categories_nodes":[],"categories_segments":[],"categories_sizes":[],"default_left":[0,0,0,0,0,0,0,0,0,0,0,0,0,0,0,0,0,0,0,0,0,0,0,0,0,0,0,0,0],"id":18,"left_children":[1,3,5,7,9,11,13,15,17,-1,19,21,23,25,27,-1,-1,-1,-1,-1,-1,-1,-1,-1,-1,-1,-1,-1,-1],"loss_changes":[9.329153E2,1.7725519E2,6.1058228E1,2.3430771E2,1.04051765E2,5.118628E1,9.4129E1,3.961194E1,6.25383E1,0E0,4.3741695E1,1.580835E1,4.5542603E0,1.2888869E1,1.7965454E1,0E0,0E0,0E0,0E0,0E0,0E0,0E0,0E0,0E0,0E0,0E0,0E0,0E0,0E0],"parents":[2147483647,0,0,1,1,2,2,3,3,4,4,5,5,6,6,7,7,8,8,10,10,11,11,12,12,13,13,14,14],"right_children":[2,4,6,8,10,12,14,16,18,-1,20,22,24,26,28,-1,-1,-1,-1,-1,-1,-1,-1,-1,-1,-1,-1,-1,-1],"split_conditions":[3.636043E1,1E0,3.1318063E-1,1.0027855E-1,1E0,4.0625E-1,3.903904E-1,9.322034E-2,3.3333334E-1,3E-3,1.4035088E-1,-4.079154E-3,5.6783554E1,-5.8966404E-4,6.810088E1,-9.5284823E-4,-3E-3,-7.4603397E-4,-2.9757791E-3,-1.4966761E-3,5.2918016E-4,2.655854E-3,1.353999E-3,2.2087726E-3,3E-3,4.1946603E-4,-1.1767879E-3,1.5272034E-3,3E-3],"split_indices":[69,71,41,70,39,70,70,51,72,0,70,47,69,47,69,0,0,0,0,0,0,0,0,0,0,0,0,0,0],"split_type":[0,0,0,0,0,0,0,0,0,0,0,0,0,0,0,0,0,0,0,0,0,0,0,0,0,0,0,0,0],"sum_hessian":[3.6313232E3,2.4388933E3,1.19243E3,1.9239397E3,5.1495355E2,7.2898474E2,4.6344528E2,4.3689432E2,1.4870454E3,5.771191E1,4.5724164E2,3.8691602E2,3.4206873E2,2.62614E2,2.0083127E2,8.8829025E1,3.480653E2,1.3665474E3,1.2049809E2,1.3051157E2,3.2673007E2,1.2877249E2,2.5814352E2,9.601632E1,2.4605241E2,2.0962242E2,5.299158E1,8.616149E1,1.14669785E2],"tree_param":{"num_deleted":"0","num_feature":"81","num_nodes":"29","size_leaf_vector":"1"}},{"base_weights":[-2.2541028E-3,-3.7093186E-1,6.5576017E-1,-8.55966E-1,-1.0292289E-1,3.4964573E-1,1E0,-6.5614754E-1,-3E-3,-2.4008796E-1,3.7188345E-1,5.7114685E-1,9.608654E-2,4.890819E-1,1E0,-5.6116306E-4,-3E-3,-5.024486E-4,-2.4871363E-3,1.7795234E-3,-4.4051753E-4,9.163857E-4,2.106371E-3,7.132311E-4,-7.2501163E-4,2.1222713E-3,2.596486E-4,3E-3,2.1825237E-3],"categories":[],"categories_nodes":[],"categories_segments":[],"categories_sizes":[],"default_left":[0,0,0,0,0,0,0,0,0,0,0,0,0,0,0,0,0,0,0,0,0,0,0,0,0,0,0,0,0],"id":19,"left_children":[1,3,5,7,9,11,13,15,-1,17,19,21,23,25,27,-1,-1,-1,-1,-1,-1,-1,-1,-1,-1,-1,-1,-1,-1],"loss_changes":[8.7521564E2,3.002645E2,1.3967572E2,5.0933533E1,9.772838E1,3.9084694E1,3.4298462E1,1.1129556E2,0E0,4.9535507E1,3.9123703E1,1.2419975E1,1.623628E1,1.2178944E1,1.9558105E0,0E0,0E0,0E0,0E0,0E0,0E0,0E0,0E0,0E0,0E0,0E0,0E0,0E0,0E0],"parents":[2147483647,0,0,1,1,2,2,3,3,4,4,5,5,6,6,7,7,9,9,10,10,11,11,12,12,13,13,14,14],"right_children":[2,4,6,8,10,12,14,16,-1,18,20,22,24,26,28,-1,-1,-1,-1,-1,-1,-1,-1,-1,-1,-1,-1,-1,-1],"split_conditions":[3.335919E1,1.4035088E-1,3.8688526E-1,-1.8536288E-4,1E0,-6.9076056E-4,5.4432312E1,1.3469388E-1,-3E-3,1E0,-3.2467225E0,2.7494198E-1,-3.7650018E0,-6.684086E-4,-5.793077E-5,-5.6116306E-4,-3E-3,-5.024486E-4,-2.4871363E-3,1.7795234E-3,-4.4051753E-4,9.163857E-4,2.106371E-3,7.132311E-4,-7.2501163E-4,2.1222713E-3,2.596486E-4,3E-3,2.1825237E-3],"split_indices":[69,70,70,73,71,37,69,51,0,39,65,70,65,73,37,0,0,0,0,0,0,0,0,0,0,0,0,0,0],"split_type":[0,0,0,0,0,0,0,0,0,0,0,0,0,0,0,0,0,0,0,0,0,0,0,0,0,0,0,0,0],"sum_hessian":[3.6000789E3,2.3083625E3,1.2917163E3,8.1932367E2,1.4890388E3,6.9614685E2,5.955695E2,5.9150195E2,2.2782172E2,1.1568751E3,3.321637E2,3.6917258E2,3.2697424E2,1.3901195E2,4.565576E2,2.7632117E2,3.1518076E2,1.0329531E3,1.2392202E2,2.3330911E2,9.8854576E1,1.2536102E2,2.4381155E2,2.3182019E2,9.515406E1,8.833837E1,5.0673576E1,4.0161227E2,5.494532E1],"tree_param":{"num_deleted":"0","num_feature":"81","num_nodes":"29","size_leaf_vector":"1"}},{"base_weights":[3.2081068E-3,-1.6338621E-1,4.7645554E-1,-5.0448644E-1,5.867952E-1,1E0,1.6440754E-1,-4.2233074E-1,-1E0,7.0124084E-1,6.428927E-2,3E-3,6.6765706E-4,2.5897232E-1,-1.3015907E-1,-8.716387E-4,-1.9406029E-3,-1.5783893E-3,-3E-3,1.3983884E-3,3E-3,-1.4204342E-3,1.0361073E-3,-4.3886292E-4,2.5115663E-3,-2.8514161E-3,8.74015E-4],"categories":[],"categories_nodes":[],"categories_segments":[],"categories_sizes":[],"default_left":[0,0,0,0,0,0,0,0,0,0,0,0,0,0,0,0,0,0,0,0,0,0,0,0,0,0,0],"id":20,"left_children":[1,3,5,7,9,11,13,15,17,19,21,-1,-1,23,25,-1,-1,-1,-1,-1,-1,-1,-1,-1,-1,-1,-1],"loss_changes":[2.8549432E2,6.847331E2,1.7384883E2,8.305139E1,4.96416E1,4.3599945E1,1.767465E1,4.7216858E1,1.1753387E1,5.0075287E1,2.4148815E1,0E0,0E0,1.1205328E2,5.425E1,0E0,0E0,0E0,0E0,0E0,0E0,0E0,0E0,0E0,0E0,0E0,0E0],"parents":[2147483647,0,0,1,1,2,2,3,3,4,4,5,5,6,6,7,7,8,8,9,9,10,10,13,13,14,14],"right_children":[2,4,6,8,10,12,14,16,18,20,22,-1,-1,24,26,-1,-1,-1,-1,-1,-1,-1,-1,-1,-1,-1,-1],"split_conditions":[1E0,3.3690434E1,-3.0849891E-4,1.0170188E-5,-2.8959496E-4,4.7391644E-4,2.7809228E-4,2.2764882E-1,-1.180229E-3,5.4845158E1,4.5936615E1,3E-3,6.6765706E-4,4.16195E1,2.637333E1,-8.716387E-4,-1.9406029E-3,-1.5783893E-3,-3E-3,1.3983884E-3,3E-3,-1.4204342E-3,1.0361073E-3,-4.3886292E-4,2.5115663E-3,-2.8514161E-3,8.74015E-4],"split_indices":[71,69,38,57,57,57,47,41,38,69,69,0,0,69,69,0,0,0,0,0,0,0,0,0,0,0,0],"split_type":[0,0,0,0,0,0,0,0,0,0,0,0,0,0,0,0,0,0,0,0,0,0,0,0,0,0,0],"sum_hessian":[3.6071357E3,2.6681401E3,9.389956E2,1.8350721E3,8.3306805E2,3.1928622E2,6.197094E2,1.6048138E3,2.3025826E2,6.820385E2,1.5102953E2,2.4455646E2,7.472976E1,4.7057855E2,1.4913084E2,1.01557214E3,5.892417E2,6.1358067E1,1.6890019E2,3.9574936E2,2.8628915E2,5.076229E1,1.00267235E2,2.7703778E2,1.9354076E2,5.016894E1,9.896191E1],"tree_param":{"num_deleted":"0","num_feature":"81","num_nodes":"27","size_leaf_vector":"1"}},{"base_weights":[1.0100573E-2,-3.5407466E-1,7.0539016E-1,-1E0,-1.4820491E-1,3.8868695E-1,1E0,-6.996583E-1,-3E-3,-2.6977643E-1,2.587521E-1,6.2970805E-1,1.3741453E-1,7.998701E-1,1E0,-2.5505947E-3,-7.4223615E-4,-4.8369454E-4,-2.2219382E-3,3E-3,-4.5993907E-5,2.6431687E-3,1.3596613E-3,1.6732867E-3,1.6354816E-4,3E-3,1.8199532E-3,2.1393525E-3,3E-3],"categories":[],"categories_nodes":[],"categories_segments":[],"categories_sizes":[],"default_left":[0,0,0,0,0,0,0,0,0,0,0,0,0,0,0,0,0,0,0,0,0,0,0,0,0,0,0,0,0],"id":21,"left_children":[1,3,5,7,9,11,13,15,-1,17,19,21,23,25,27,-1,-1,-1,-1,-1,-1,-1,-1,-1,-1,-1,-1,-1,-1],"loss_changes":[9.219812E2,3.2116385E2,1.330816E2,1.9993958E1,9.045572E1,3.9352425E1,1.0188049E1,1.6254768E1,0E0,7.15753E1,1.077787E2,1.3947983E1,1.1368206E1,1.4504181E1,2.1752014E0,0E0,0E0,0E0,0E0,0E0,0E0,0E0,0E0,0E0,0E0,0E0,0E0,0E0,0E0],"parents":[2147483647,0,0,1,1,2,2,3,3,4,4,5,5,6,6,7,7,9,9,10,10,11,11,12,12,13,13,14,14],"right_children":[2,4,6,8,10,12,14,16,-1,18,20,22,24,26,28,-1,-1,-1,-1,-1,-1,-1,-1,-1,-1,-1,-1,-1,-1],"split_conditions":[3.5503483E1,1.0803324E-1,3.8688526E-1,3.3937744E1,1E0,4.400232E1,5.121359E-1,8.950312E0,-3E-3,-4.633813E0,2.1069817E-4,-3.9220797E-3,-1.0994706E-1,-2.6944978E-3,6.1247906E1,-2.5505947E-3,-7.4223615E-4,-4.8369454E-4,-2.2219382E-3,3E-3,-4.5993907E-5,2.6431687E-3,1.3596613E-3,1.6732867E-3,1.6354816E-4,3E-3,1.8199532E-3,2.1393525E-3,3E-3],"split_indices":[69,70,70,43,71,43,70,69,0,65,57,47,54,47,69,0,0,0,0,0,0,0,0,0,0,0,0,0,0],"split_type":[0,0,0,0,0,0,0,0,0,0,0,0,0,0,0,0,0,0,0,0,0,0,0,0,0,0,0,0,0],"sum_hessian":[3.632401E3,2.3839895E3,1.2484115E3,5.682755E2,1.8157139E3,6.507302E2,5.976813E2,2.4515065E2,3.2312488E2,1.3995306E3,4.1618332E2,3.2958728E2,3.2114294E2,3.0730402E2,2.9037726E2,1.8177681E2,6.3373844E1,1.1403936E3,2.59137E2,9.05152E1,3.2566812E2,1.3149658E2,1.9809068E2,5.002032E1,2.7112262E2,1.2131935E2,1.8598466E2,5.2215893E1,2.3816135E2],"tree_param":{"num_deleted":"0","num_feature":"81","num_nodes":"29","size_leaf_vector":"1"}},{"base_weights":[2.2535674E-2,5.8139652E-2,-1.3218345E-1,-3.8843206E-1,6.7862856E-1,-6.267186E-1,3.8007548E-1,-2.9569802E-1,-1E0,3.9637306E-1,1E0,-3.8139686E-1,-9.556076E-1,9.995908E-2,9.137148E-1,-1.041305E-3,1.1429389E-4,-3E-3,-1.8382495E-3,2.650974E-3,7.369085E-4,3E-3,2.0794275E-3,-1.704413E-3,-5.367184E-4,-3E-3,-1.8355363E-3,-1.046967E-3,8.792436E-4,3E-3,1.8844968E-3],"categories":[],"categories_nodes":[],"categories_segments":[],"categories_sizes":[],"default_left":[0,0,0,0,0,0,0,0,0,0,0,0,0,0,0,0,0,0,0,0,0,0,0,0,0,0,0,0,0,0,0],"id":22,"left_children":[1,3,5,7,9,11,13,15,17,19,21,23,25,27,29,-1,-1,-1,-1,-1,-1,-1,-1,-1,-1,-1,-1,-1,-1,-1,-1],"loss_changes":[2.0144693E1,8.205693E2,1.7301172E2,1.14867096E2,1.2666046E2,2.721138E1,4.9774094E1,2.6559204E1,6.97937E0,5.150267E1,2.0594177E1,7.436529E0,5.7184296E0,1.992007E1,4.5590744E0,0E0,0E0,0E0,0E0,0E0,0E0,0E0,0E0,0E0,0E0,0E0,0E0,0E0,0E0,0E0,0E0],"parents":[2147483647,0,0,1,1,2,2,3,3,4,4,5,5,6,6,7,7,8,8,9,9,10,10,11,11,12,12,13,13,14,14],"right_children":[2,4,6,8,10,12,14,16,18,20,22,24,26,28,30,-1,-1,-1,-1,-1,-1,-1,-1,-1,-1,-1,-1,-1,-1,-1,-1],"split_conditions":[9.8687375E-1,2.8020048E1,1.4643692E1,2.8055737E-4,5.4845158E1,-1.0141493E-3,4.989324E1,4.269006E-1,1.24704275E1,1.952482E-1,-5.7181035E-4,3.9388648E-1,6.9978867E0,1.4895764E1,1.7796302E-2,-1.041305E-3,1.1429389E-4,-3E-3,-1.8382495E-3,2.650974E-3,7.369085E-4,3E-3,2.0794275E-3,-1.704413E-3,-5.367184E-4,-3E-3,-1.8355363E-3,-1.046967E-3,8.792436E-4,3E-3,1.8844968E-3],"split_indices":[67,69,69,73,69,73,69,52,69,41,73,52,69,42,31,0,0,0,0,0,0,0,0,0,0,0,0,0,0,0,0],"split_type":[0,0,0,0,0,0,0,0,0,0,0,0,0,0,0,0,0,0,0,0,0,0,0,0,0,0,0,0,0,0,0],"sum_hessian":[3.6284146E3,2.9532847E3,6.7513E2,1.7172825E3,1.2360022E3,3.4377682E2,3.3135318E2,1.5301261E3,1.8715636E2,7.027953E2,5.332069E2,2.0024875E2,1.4352806E2,2.1946425E2,1.1188894E2,1.3271644E3,2.0296158E2,1.2669655E2,6.0459805E1,1.629589E2,5.3983636E2,2.9199686E2,2.4121005E2,1.0101243E2,9.923632E1,9.011352E1,5.3414547E1,6.47463E1,1.5471796E2,5.8251095E1,5.3637844E1],"tree_param":{"num_deleted":"0","num_feature":"81","num_nodes":"31","size_leaf_vector":"1"}},{"base_weights":[-2.0707343E-2,-3.4481084E-1,7.693096E-1,-4.7840583E-1,3.1984948E-2,5.1400775E-1,1E0,-3.5978308E-1,-1E0,1.7551647E-1,-1.5314199E-1,6.31431E-1,-6.8360334E-4,3E-3,1.9094433E-3,-1.4241608E-3,4.000522E-4,-3E-3,-1.6233729E-3,2.3686487E-4,1.7825478E-3,-1.601534E-3,6.4279896E-4,2.6291884E-3,1.4154488E-3],"categories":[],"categories_nodes":[],"categories_segments":[],"categories_sizes":[],"default_left":[0,0,0,0,0,0,0,0,0,0,0,0,0,0,0,0,0,0,0,0,0,0,0,0,0],"id":23,"left_children":[1,3,5,7,9,11,13,15,17,19,21,23,-1,-1,-1,-1,-1,-1,-1,-1,-1,-1,-1,-1,-1],"loss_changes":[9.318972E2,1.3022647E2,9.840271E1,1.4041653E2,1.8320599E1,5.871431E1,5.7419434E0,9.191864E1,1.1790405E1,1.5557215E1,4.220607E1,2.1687836E1,0E0,0E0,0E0,0E0,0E0,0E0,0E0,0E0,0E0,0E0,0E0,0E0,0E0],"parents":[2147483647,0,0,1,1,2,2,3,3,4,4,5,5,6,6,7,7,8,8,9,9,10,10,11,11],"right_children":[2,4,6,8,10,12,14,16,18,20,22,24,-1,-1,-1,-1,-1,-1,-1,-1,-1,-1,-1,-1,-1],"split_conditions":[4.1161575E1,2.2292E1,6.295088E1,6.188789E-5,-6.9076056E-4,-1.8760313E-4,-4.2621883E-5,1E0,1.4018787E1,1E0,1E0,-1.1954836E-3,-6.8360334E-4,3E-3,1.9094433E-3,-1.4241608E-3,4.000522E-4,-3E-3,-1.6233729E-3,2.3686487E-4,1.7825478E-3,-1.601534E-3,6.4279896E-4,2.6291884E-3,1.4154488E-3],"split_indices":[69,69,69,73,37,37,37,71,69,71,71,37,0,0,0,0,0,0,0,0,0,0,0,0,0],"split_type":[0,0,0,0,0,0,0,0,0,0,0,0,0,0,0,0,0,0,0,0,0,0,0,0,0],"sum_hessian":[3.632038E3,2.576707E3,1.055331E3,1.9028345E3,6.7387256E2,6.6241486E2,3.9291617E2,1.6101039E3,2.9273062E2,3.8115918E2,2.9271338E2,5.7273474E2,8.968011E1,3.335786E2,5.9337547E1,1.306646E3,3.0345782E2,2.2705963E2,6.5670975E1,3.1262622E2,6.8532936E1,1.4397925E2,1.4873413E2,2.2117593E2,3.5155884E2],"tree_param":{"num_deleted":"0","num_feature":"81","num_nodes":"25","size_leaf_vector":"1"}},{"base_weights":[-1.9034415E-2,-4.477395E-1,5.20221E-1,-1E0,-2.0805404E-1,2.2405997E-1,9.127695E-1,-2.7964908E-1,-3E-3,-1.0267471E-1,-8.2472247E-1,4.987863E-1,9.768554E-2,3E-3,6.793394E-1,-1.741345E-4,-1.4588664E-3,-6.908927E-4,1.120747E-3,-1.960893E-3,-3E-3,2.7782412E-3,1.0271164E-3,-4.9458275E-5,1.0804519E-3,1.4936059E-3,2.693564E-3],"categories":[],"categories_nodes":[],"categories_segments":[],"categories_sizes":[],"default_left":[0,0,0,0,0,0,0,0,0,0,0,0,0,0,0,0,0,0,0,0,0,0,0,0,0,0,0],"id":24,"left_children":[1,3,5,7,9,11,13,15,-1,17,19,21,23,-1,25,-1,-1,-1,-1,-1,-1,-1,-1,-1,-1,-1,-1],"loss_changes":[8.386188E2,2.820566E2,1.8616101E2,7.719519E1,9.335197E1,3.1842602E1,3.1611572E1,6.988431E0,0E0,7.528499E1,7.417328E0,1.8712936E1,1.9412905E1,0E0,1.4197418E1,0E0,0E0,0E0,0E0,0E0,0E0,0E0,0E0,0E0,0E0,0E0,0E0],"parents":[2147483647,0,0,1,1,2,2,3,3,4,4,5,5,6,6,7,7,9,9,10,10,11,11,12,12,14,14],"right_children":[2,4,6,8,10,12,14,16,-1,18,20,22,24,-1,26,-1,-1,-1,-1,-1,-1,-1,-1,-1,-1,-1,-1],"split_conditions":[2.6666668E-1,1.0803324E-1,3.8688526E-1,1.0364146E-1,2.857143E-1,2.3809524E-1,-1.2812329E-3,8E-2,-3E-3,1E0,-7.791099E-4,-1.2647567E-3,1E0,3E-3,1E0,-1.741345E-4,-1.4588664E-3,-6.908927E-4,1.120747E-3,-1.960893E-3,-3E-3,2.7782412E-3,1.0271164E-3,-4.9458275E-5,1.0804519E-3,1.4936059E-3,2.693564E-3],"split_indices":[70,70,70,51,51,51,73,51,0,71,38,57,71,0,71,0,0,0,0,0,0,0,0,0,0,0,0],"split_type":[0,0,0,0,0,0,0,0,0,0,0,0,0,0,0,0,0,0,0,0,0,0,0,0,0,0,0],"sum_hessian":[3.6195708E3,2.0171858E3,1.6023851E3,5.839783E2,1.4332075E3,9.158391E2,6.86546E2,1.5200792E2,4.3197037E2,1.2267229E3,2.0648463E2,2.8544904E2,6.303901E2,3.0843558E2,3.781104E2,7.575178E1,7.6256134E1,9.691121E2,2.5761078E2,1.3131113E2,7.51735E1,7.299696E1,2.1245206E2,4.3927567E2,1.911144E2,2.1139653E2,1.667139E2],"tree_param":{"num_deleted":"0","num_feature":"81","num_nodes":"27","size_leaf_vector":"1"}},{"base_weights":[-5.819197E-3,-4.7115463E-1,5.3144187E-1,-6.048362E-1,3.767557E-2,3.9026E-1,8.152821E-1,-1E0,-3.7761176E-1,2.743063E-3,-2.5237525E-1,1.7248248E-1,9.104534E-1,3E-3,4.6086854E-1,-1.0220736E-3,-3E-3,-1.3847126E-3,4.528985E-4,-2.6669137E-3,-3.2458534E-5,7.246207E-4,-2.2808951E-3,3E-3,3.5086877E-4,6.0417864E-4,2.8542825E-3],"categories":[],"categories_nodes":[],"categories_segments":[],"categories_sizes":[],"default_left":[0,0,0,0,0,0,0,0,0,0,0,0,0,0,0,0,0,0,0,0,0,0,0,0,0,0,0],"id":25,"left_children":[1,3,5,7,9,11,13,15,17,-1,19,21,23,-1,25,-1,-1,-1,-1,-1,-1,-1,-1,-1,-1,-1,-1],"loss_changes":[9.061451E2,1.3250696E2,6.675577E1,1.6992377E2,1.0487529E2,1.27502396E2,7.447366E1,3.685376E1,4.776303E1,0E0,4.7135433E1,5.230953E1,4.380356E1,0E0,4.1670494E1,0E0,0E0,0E0,0E0,0E0,0E0,0E0,0E0,0E0,0E0,0E0,0E0],"parents":[2147483647,0,0,1,1,2,2,3,3,4,4,5,5,6,6,7,7,8,8,10,10,11,11,12,12,14,14],"right_children":[2,4,6,8,10,12,14,16,18,-1,20,22,24,-1,26,-1,-1,-1,-1,-1,-1,-1,-1,-1,-1,-1,-1],"split_conditions":[2.5925925E-1,1E0,1E0,1.0803324E-1,-6.437271E-4,4.1025642E-1,-1.4665234E-4,9.322034E-2,4.149442E1,2.743063E-3,1.1297071E-1,-4.7739773E-4,-8.688817E-4,3E-3,4.477401E-1,-1.0220736E-3,-3E-3,-1.3847126E-3,4.528985E-4,-2.6669137E-3,-3.2458534E-5,7.246207E-4,-2.2808951E-3,3E-3,3.5086877E-4,6.0417864E-4,2.8542825E-3],"split_indices":[70,71,71,70,38,70,38,51,44,0,70,38,38,0,70,0,0,0,0,0,0,0,0,0,0,0,0],"split_type":[0,0,0,0,0,0,0,0,0,0,0,0,0,0,0,0,0,0,0,0,0,0,0,0,0,0,0],"sum_hessian":[3.616615E3,1.9386649E3,1.6779501E3,1.5357839E3,4.0288104E2,1.1249249E3,5.530252E2,4.7346326E2,1.0623207E3,9.9515236E1,3.033658E2,7.955108E2,3.2941412E2,2.2555077E2,3.274744E2,8.889977E1,3.8456348E2,9.177457E2,1.4457492E2,8.140385E1,2.2196198E2,7.4255444E2,5.295635E1,2.6824844E2,6.1165676E1,2.1669588E2,1.10778534E2],"tree_param":{"num_deleted":"0","num_feature":"81","num_nodes":"27","size_leaf_vector":"1"}},{"base_weights":[-6.723736E-4,-1.7146367E-1,2.567851E-2,-4.7412175E-1,7.055045E-1,-3.7545955E-1,6.3088685E-1,-6.695177E-1,-0E0,3E-3,1.0073793E-3,-5.1208395E-1,1.7911564E-1,8.623201E-1,4.614515E-1,-1.307635E-3,-3E-3,8.834612E-4,-9.064674E-4,-1.0461583E-3,-2.351136E-3,3E-3,-1.1622358E-4,1.1460392E-3,3E-3,5.492868E-4,3E-3],"categories":[],"categories_nodes":[],"categories_segments":[],"categories_sizes":[],"default_left":[0,0,0,0,0,0,0,0,0,0,0,0,0,0,0,0,0,0,0,0,0,0,0,0,0,0,0],"id":26,"left_children":[1,3,5,7,9,11,13,15,17,-1,-1,19,21,23,25,-1,-1,-1,-1,-1,-1,-1,-1,-1,-1,-1,-1],"loss_changes":[1.6507778E1,1.302416E2,7.5984766E2,3.4031372E1,1.5352039E1,1.4304391E2,4.8104126E1,2.767434E1,1.0292349E1,0E0,0E0,6.646542E1,8.92475E1,5.4804718E1,1.1118117E2,0E0,0E0,0E0,0E0,0E0,0E0,0E0,0E0,0E0,0E0,0E0,0E0],"parents":[2147483647,0,0,1,1,2,2,3,3,4,4,5,5,6,6,7,7,8,8,11,11,12,12,13,13,14,14],"right_children":[2,4,6,8,10,12,14,16,18,-1,-1,20,22,24,26,-1,-1,-1,-1,-1,-1,-1,-1,-1,-1,-1,-1],"split_conditions":[-2.3449963E-1,3.9451385E1,3.0449072E1,1E0,-2.281302E-1,1E0,-8.837831E-4,2.2764882E-1,-3.8660522E0,3E-3,1.0073793E-3,-5.7694745E0,1E0,4.3395653E1,6.3586983E1,-1.307635E-3,-3E-3,8.834612E-4,-9.064674E-4,-1.0461583E-3,-2.351136E-3,3E-3,-1.1622358E-4,1.1460392E-3,3E-3,5.492868E-4,3E-3],"split_indices":[31,69,69,71,54,71,37,41,65,0,0,65,72,69,69,0,0,0,0,0,0,0,0,0,0,0,0],"split_type":[0,0,0,0,0,0,0,0,0,0,0,0,0,0,0,0,0,0,0,0,0,0,0,0,0,0,0],"sum_hessian":[3.6041782E3,4.8281427E2,3.121364E3,3.6004492E2,1.2276935E2,1.8771221E3,1.244242E3,2.5504306E2,1.05001854E2,6.0071766E1,6.2697582E1,1.5069313E3,3.7019067E2,5.2120013E2,7.2304175E2,1.8019919E2,7.484387E1,5.394142E1,5.106043E1,9.449944E2,5.6193695E2,5.690407E1,3.1328662E2,1.7396582E2,3.4723434E2,4.831352E2,2.3990652E2],"tree_param":{"num_deleted":"0","num_feature":"81","num_nodes":"27","size_leaf_vector":"1"}},{"base_weights":[8.774396E-3,-3.1725916E-1,7.9949075E-1,-1E0,-1.4949109E-1,4.6699107E-1,1E0,-1.4625786E-1,-3E-3,-3.3155322E-1,5.076862E-2,7.044616E-1,2.6198133E-5,7.772355E-1,3E-3,-9.1851683E-4,1.08568165E-4,-3.6764843E-4,-2.0771476E-3,-1.353374E-3,2.4482768E-4,3E-3,1.3747021E-3,7.3986844E-4,-7.2204525E-4,2.8906038E-3,1.0617694E-3],"categories":[],"categories_nodes":[],"categories_segments":[],"categories_sizes":[],"default_left":[0,0,0,0,0,0,0,0,0,0,0,0,0,0,0,0,0,0,0,0,0,0,0,0,0,0,0],"id":27,"left_children":[1,3,5,7,9,11,13,15,-1,17,19,21,23,25,-1,-1,-1,-1,-1,-1,-1,-1,-1,-1,-1,-1,-1],"loss_changes":[9.266655E2,2.9398047E2,9.1869934E1,7.814661E1,7.503296E1,5.3105545E1,8.602844E0,3.5955946E0,0E0,8.0878136E1,1.546441E1,2.3121063E1,1.037332E1,1.6403488E1,0E0,0E0,0E0,0E0,0E0,0E0,0E0,0E0,0E0,0E0,0E0,0E0,0E0],"parents":[2147483647,0,0,1,1,2,2,3,3,4,4,5,5,6,6,7,7,9,9,10,10,11,11,12,12,13,13],"right_children":[2,4,6,8,10,12,14,16,-1,18,20,22,24,26,-1,-1,-1,-1,-1,-1,-1,-1,-1,-1,-1,-1,-1],"split_conditions":[4.1161575E1,9.6463025E-2,3.8688526E-1,9.558824E-2,2.2675736E-1,-4.403612E-4,6.180918E1,6.9978867E0,-3E-3,2.1402214E-1,3.5331835E-4,2.0895523E-1,-1.3110654E-3,-9.905002E-4,3E-3,-9.1851683E-4,1.08568165E-4,-3.6764843E-4,-2.0771476E-3,-1.353374E-3,2.4482768E-4,3E-3,1.3747021E-3,7.3986844E-4,-7.2204525E-4,2.8906038E-3,1.0617694E-3],"split_indices":[69,70,70,51,70,37,69,69,0,51,49,51,47,47,0,0,0,0,0,0,0,0,0,0,0,0,0],"split_type":[0,0,0,0,0,0,0,0,0,0,0,0,0,0,0,0,0,0,0,0,0,0,0,0,0,0,0],"sum_hessian":[3.585312E3,2.5389856E3,1.0463265E3,4.9417682E2,2.0448087E3,4.7793637E2,5.683902E2,1.0913054E2,3.850463E2,1.0716892E3,9.731194E2,3.154363E2,1.6250006E2,2.1615201E2,3.5223816E2,5.88942E1,5.023634E1,6.811884E2,3.9050085E2,5.381865E1,9.193008E2,1.3654626E2,1.7889006E2,8.1269966E1,8.1230095E1,1.4750278E2,6.864924E1],"tree_param":{"num_deleted":"0","num_feature":"81","num_nodes":"27","size_leaf_vector":"1"}},{"base_weights":[-1.7850455E-2,-4.0945947E-1,6.1129946E-1,-5.424534E-1,9.64534E-2,7.7890915E-1,3.5377732E-1,-4.556468E-1,-3E-3,1E0,-2.3893027E-1,5.236457E-1,3E-3,-5.371086E-2,7.279975E-1,-1.1940871E-3,-3E-3,3E-3,1.5592695E-3,-2.8916416E-4,-2.9950107E-3,2.2519766E-3,1.2031718E-3,2.9868493E-4,-8.355313E-4,1.3452347E-3,2.6681547E-3],"categories":[],"categories_nodes":[],"categories_segments":[],"categories_sizes":[],"default_left":[0,0,0,0,0,0,0,0,0,0,0,0,0,0,0,0,0,0,0,0,0,0,0,0,0,0,0],"id":28,"left_children":[1,3,5,7,9,11,13,15,-1,17,19,21,-1,23,25,-1,-1,-1,-1,-1,-1,-1,-1,-1,-1,-1,-1],"loss_changes":[8.90026E2,1.5024228E2,5.914215E1,9.246942E1,1.4575096E2,7.656897E1,8.478768E1,5.801953E1,0E0,1.1176453E1,3.709918E1,1.4126129E1,0E0,9.591556E0,1.2126434E1,0E0,0E0,0E0,0E0,0E0,0E0,0E0,0E0,0E0,0E0,0E0,0E0],"parents":[2147483647,0,0,1,1,2,2,3,3,4,4,5,5,6,6,7,7,9,9,10,10,11,11,13,13,14,14],"right_children":[2,4,6,8,10,12,14,16,-1,18,20,22,-1,24,26,-1,-1,-1,-1,-1,-1,-1,-1,-1,-1,-1,-1],"split_conditions":[3.0895332E1,1E0,3.1064522E-1,-7.367341E-4,3.0561376E-4,5.6219604E1,5.4432312E1,6.138451E-4,-3E-3,-7.062751E-4,-8.234043E-5,1.8677711E-1,3E-3,-3.781146E-4,1.9515093E1,-1.1940871E-3,-3E-3,3E-3,1.5592695E-3,-2.8916416E-4,-2.9950107E-3,2.2519766E-3,1.2031718E-3,2.9868493E-4,-8.355313E-4,1.3452347E-3,2.6681547E-3],"split_indices":[69,71,41,38,57,69,69,73,0,38,73,41,0,38,44,0,0,0,0,0,0,0,0,0,0,0,0],"split_type":[0,0,0,0,0,0,0,0,0,0,0,0,0,0,0,0,0,0,0,0,0,0,0,0,0,0,0],"sum_hessian":[3.6047075E3,2.2227E3,1.3820076E3,1.7606941E3,4.620059E2,8.3351746E2,5.484902E2,1.562436E3,1.982581E2,1.22351845E2,3.3965405E2,5.253611E2,3.081563E2,2.6275415E2,2.8573605E2,1.4430776E3,1.1935839E2,6.5138115E1,5.7213726E1,2.884278E2,5.1226242E1,1.791956E2,3.461655E2,1.5557217E2,1.0718198E2,1.084732E2,1.7726285E2],"tree_param":{"num_deleted":"0","num_feature":"81","num_nodes":"27","size_leaf_vector":"1"}},{"base_weights":[9.3001705E-3,-1.6988276E-1,5.301919E-1,-4.8723498E-1,5.991175E-1,2.0213953E-1,1E0,-3.9966705E-1,-1E0,7.762107E-1,7.791699E-2,8.3952177E-1,-1.4242122E-1,3E-3,5.650734E-1,-9.709948E-4,-2.8044172E-3,-2.3475199E-3,-3E-3,3E-3,1.8887494E-3,8.784263E-4,-7.524108E-4,3E-3,1.6796816E-3,3.6372856E-4,-7.6851156E-4,2.428075E-3,6.3871377E-4],"categories":[],"categories_nodes":[],"categories_segments":[],"categories_sizes":[],"default_left":[0,0,0,0,0,0,0,0,0,0,0,0,0,0,0,0,0,0,0,0,0,0,0,0,0,0,0,0,0],"id":29,"left_children":[1,3,5,7,9,11,13,15,17,19,21,23,25,-1,27,-1,-1,-1,-1,-1,-1,-1,-1,-1,-1,-1,-1,-1,-1],"loss_changes":[3.395121E2,6.6010925E2,1.4494373E2,9.16066E1,7.2520935E1,1.2294238E2,2.153656E1,6.6933136E1,2.9969788E0,2.2242126E1,1.4973674E1,1.9987305E1,1.1177427E1,0E0,1.0503536E1,0E0,0E0,0E0,0E0,0E0,0E0,0E0,0E0,0E0,0E0,0E0,0E0,0E0,0E0],"parents":[2147483647,0,0,1,1,2,2,3,3,4,4,5,5,6,6,7,7,8,8,9,9,10,10,11,11,12,12,14,14],"right_children":[2,4,6,8,10,12,14,16,18,20,22,24,26,-1,28,-1,-1,-1,-1,-1,-1,-1,-1,-1,-1,-1,-1,-1,-1],"split_conditions":[1E0,3.636043E1,4.0769146E1,-7.932129E-4,-1.062067E-3,-3.0849891E-4,4.6866652E-4,2.8055737E-4,-5.3834E-4,-1.8852341E-3,7.874791E-5,1E0,3.9125114E1,3E-3,5.0001152E1,-9.709948E-4,-2.8044172E-3,-2.3475199E-3,-3E-3,3E-3,1.8887494E-3,8.784263E-4,-7.524108E-4,3E-3,1.6796816E-3,3.6372856E-4,-7.6851156E-4,2.428075E-3,6.3871377E-4],"split_indices":[71,69,69,38,38,38,38,73,38,73,73,39,43,0,43,0,0,0,0,0,0,0,0,0,0,0,0,0,0],"split_type":[0,0,0,0,0,0,0,0,0,0,0,0,0,0,0,0,0,0,0,0,0,0,0,0,0,0,0,0,0],"sum_hessian":[3.6243066E3,2.6969602E3,9.273466E2,1.9100859E3,7.868742E2,5.515771E2,3.7576953E2,1.6529271E3,2.571588E2,5.8586975E2,2.0100441E2,1.9304774E2,3.5852933E2,2.5104434E2,1.247252E2,1.450996E3,2.0193117E2,1.08233986E2,1.4892484E2,1.9554584E2,3.903239E2,1.22598595E2,7.840582E1,5.415465E1,1.388931E2,1.066933E2,2.5183604E2,7.127115E1,5.345405E1],"tree_param":{"num_deleted":"0","num_feature":"81","num_nodes":"29","size_leaf_vector":"1"}},{"base_weights":[-1.3388421E-2,-3.6973312E-1,7.0298004E-1,-1E0,-1.6526827E-1,3.9185145E-1,1E0,-6.945168E-1,-3E-3,-2.822663E-1,1.1367843E-1,5.5456644E-1,-1.9527178E-1,1.6763897E-3,3E-3,-2.5922526E-3,-2.787015E-4,-4.1749649E-4,-1.3543926E-3,3.2715914E-5,1.2256895E-3,2.6947013E-3,1.2536619E-3,-1.2948381E-3,2.7411114E-4],"categories":[],"categories_nodes":[],"categories_segments":[],"categories_sizes":[],"default_left":[0,0,0,0,0,0,0,0,0,0,0,0,0,0,0,0,0,0,0,0,0,0,0,0,0],"id":30,"left_children":[1,3,5,7,9,11,13,15,-1,17,19,21,23,-1,-1,-1,-1,-1,-1,-1,-1,-1,-1,-1,-1],"loss_changes":[9.2490625E2,3.1858508E2,1.4000397E2,2.0786377E1,6.038813E1,6.490603E1,1.4744751E1,2.4866737E1,0E0,3.1296532E1,1.6558252E1,2.410611E1,1.0503418E1,0E0,0E0,0E0,0E0,0E0,0E0,0E0,0E0,0E0,0E0,0E0,0E0],"parents":[2147483647,0,0,1,1,2,2,3,3,4,4,5,5,6,6,7,7,9,9,10,10,11,11,12,12],"right_children":[2,4,6,8,10,12,14,16,-1,18,20,22,24,-1,-1,-1,-1,-1,-1,-1,-1,-1,-1,-1,-1],"split_conditions":[3.636043E1,1.0803324E-1,4.0329218E-1,3.3748E1,2.7171904E-1,-2.7410296E-4,5.3577034E1,9.570383E0,-3E-3,3.764486E1,1E0,3.682277E1,4.2156845E-1,1.6763897E-3,3E-3,-2.5922526E-3,-2.787015E-4,-4.1749649E-4,-1.3543926E-3,3.2715914E-5,1.2256895E-3,2.6947013E-3,1.2536619E-3,-1.2948381E-3,2.7411114E-4],"split_indices":[69,70,70,43,70,37,69,69,0,43,72,43,30,0,0,0,0,0,0,0,0,0,0,0,0],"split_type":[0,0,0,0,0,0,0,0,0,0,0,0,0,0,0,0,0,0,0,0,0,0,0,0,0],"sum_hessian":[3.6156553E3,2.4156826E3,1.1999725E3,5.789582E2,1.8367245E3,6.6950934E2,5.3046313E2,2.4544789E2,3.335103E2,1.2952355E3,5.414891E2,5.249794E2,1.4452997E2,8.6286476E1,4.4417667E2,1.9014989E2,5.529799E1,7.053115E2,5.8992395E2,4.0433865E2,1.3715042E2,1.4516734E2,3.7981204E2,7.961718E1,6.491278E1],"tree_param":{"num_deleted":"0","num_feature":"81","num_nodes":"25","size_leaf_vector":"1"}},{"base_weights":[1.1951898E-2,-3.814383E-1,5.6281596E-1,-7.9816365E-1,-1.08135045E-1,2.7505007E-1,9.1799754E-1,-6.0793674E-1,-3E-3,-1.6631603E-1,3.8586372E-1,3.6346847E-1,-1.6837005E-1,5.335084E-1,1E0,-2.6121144E-3,-1.1350525E-3,-2.533028E-4,-1.5639247E-3,-2.7989765E-4,2.1309415E-3,9.0010295E-4,1.9062469E-3,1.807661E-4,-1.003855E-3,8.3471596E-4,2.3886694E-3,2.1947336E-3,3E-3],"categories":[],"categories_nodes":[],"categories_segments":[],"categories_sizes":[],"default_left":[0,0,0,0,0,0,0,0,0,0,0,0,0,0,0,0,0,0,0,0,0,0,0,0,0,0,0,0,0],"id":31,"left_children":[1,3,5,7,9,11,13,15,-1,17,19,21,23,25,27,-1,-1,-1,-1,-1,-1,-1,-1,-1,-1,-1,-1,-1,-1],"loss_changes":[7.8010065E2,2.387136E2,1.5266766E2,5.40495E1,3.6946133E1,3.3070232E1,4.428253E1,3.4691956E1,0E0,3.3125126E1,2.1604885E1,1.170694E1,5.673351E0,1.5328499E1,1.8433228E0,0E0,0E0,0E0,0E0,0E0,0E0,0E0,0E0,0E0,0E0,0E0,0E0,0E0,0E0],"parents":[2147483647,0,0,1,1,2,2,3,3,4,4,5,5,6,6,7,7,9,9,10,10,11,11,12,12,13,13,14,14],"right_children":[2,4,6,8,10,12,14,16,-1,18,20,22,24,26,28,-1,-1,-1,-1,-1,-1,-1,-1,-1,-1,-1,-1,-1,-1],"split_conditions":[2.7636364E-1,1.4035088E-1,3.8688526E-1,-2.3492044E-4,4.16195E1,-3.6178944E0,5.571981E1,8.3636366E-2,-3E-3,2.1807635E-5,1.4583333E-1,3.9130434E-1,-5.002459E-4,6.443199E-1,1.4880716E1,-2.6121144E-3,-1.1350525E-3,-2.533028E-4,-1.5639247E-3,-2.7989765E-4,2.1309415E-3,9.0010295E-4,1.9062469E-3,1.807661E-4,-1.003855E-3,8.3471596E-4,2.3886694E-3,2.1947336E-3,3E-3],"split_indices":[70,70,70,73,69,65,69,70,0,73,60,52,37,67,44,0,0,0,0,0,0,0,0,0,0,0,0,0,0],"split_type":[0,0,0,0,0,0,0,0,0,0,0,0,0,0,0,0,0,0,0,0,0,0,0,0,0,0,0,0,0],"sum_hessian":[3.5911338E3,2.094844E3,1.4962897E3,8.274699E2,1.2673741E3,8.293289E2,6.669607E2,5.8370337E2,2.4376656E2,1.1359283E3,1.3144582E2,6.9269336E2,1.3663554E2,2.3311975E2,4.3384097E2,2.6856256E2,3.151408E2,9.2618146E2,2.097469E2,5.3022923E1,7.842289E1,5.665788E2,1.2611454E2,5.679641E1,7.9839134E1,1.2128915E2,1.118306E2,5.5067112E1,3.7877386E2],"tree_param":{"num_deleted":"0","num_feature":"81","num_nodes":"29","size_leaf_vector":"1"}},{"base_weights":[-7.126704E-3,-4.255507E-1,5.6132543E-1,-4.841173E-1,3.5308158E-1,2.7134037E-1,9.9846613E-1,-1E0,-3.192988E-1,2.3999687E-3,2.1342152E-4,2.8456464E-2,4.8717976E-1,5.309268E-1,1E0,-1.7292608E-3,-3E-3,-7.081898E-4,-2.1043296E-3,-1.09910805E-4,1.0677292E-3,2.0025591E-3,1.2563882E-4,2.7470414E-3,9.842305E-4,3E-3,2.072719E-3],"categories":[],"categories_nodes":[],"categories_segments":[],"categories_sizes":[],"default_left":[0,0,0,0,0,0,0,0,0,0,0,0,0,0,0,0,0,0,0,0,0,0,0,0,0,0,0],"id":32,"left_children":[1,3,5,7,9,11,13,15,17,-1,-1,19,21,23,25,-1,-1,-1,-1,-1,-1,-1,-1,-1,-1,-1,-1],"loss_changes":[8.657652E2,9.6350525E1,1.9489517E2,1.838158E2,1.8504673E1,4.8710922E1,3.4258972E1,1.2576569E1,4.820703E1,0E0,0E0,9.94507E0,3.9255997E1,1.2518028E1,3.5547485E0,0E0,0E0,0E0,0E0,0E0,0E0,0E0,0E0,0E0,0E0,0E0,0E0],"parents":[2147483647,0,0,1,1,2,2,3,3,4,4,5,5,6,6,7,7,8,8,11,11,12,12,13,13,14,14],"right_children":[2,4,6,8,10,12,14,16,18,-1,-1,20,22,24,26,-1,-1,-1,-1,-1,-1,-1,-1,-1,-1,-1,-1],"split_conditions":[2.7494198E-1,4.0769146E1,5.4432312E1,8.82353E-2,2.6380995E-1,3.0895332E1,3.9701492E-1,4.0181273E-1,2.1807635E-5,2.3999687E-3,2.1342152E-4,3.8688526E-1,-5.002459E-4,-3.9220797E-3,-9.414879E-5,-1.7292608E-3,-3E-3,-7.081898E-4,-2.1043296E-3,-1.09910805E-4,1.0677292E-3,2.0025591E-3,1.2563882E-4,2.7470414E-3,9.842305E-4,3E-3,2.072719E-3],"split_indices":[70,69,69,70,41,69,70,0,73,0,0,70,37,47,37,0,0,0,0,0,0,0,0,0,0,0,0],"split_type":[0,0,0,0,0,0,0,0,0,0,0,0,0,0,0,0,0,0,0,0,0,0,0,0,0,0,0],"sum_hessian":[3.6320588E3,2.0929045E3,1.5391544E3,1.9477953E3,1.4510922E2,9.279605E2,6.111939E2,4.2851965E2,1.5192756E3,5.4025116E1,9.108411E1,4.387809E2,4.8917957E2,1.649232E2,4.4627072E2,8.1603485E1,3.4691617E2,1.2512766E3,2.6799893E2,3.6622876E2,7.255216E1,3.4666464E2,1.4251492E2,5.3656937E1,1.11266266E2,3.8689447E2,5.9376263E1],"tree_param":{"num_deleted":"0","num_feature":"81","num_nodes":"27","size_leaf_vector":"1"}},{"base_weights":[1.0141826E-2,-1.1742619E-1,3.838794E-2,-3.4905776E-1,8.8506335E-1,-3.14691E-1,7.74004E-1,-6.1102545E-1,2.3502257E-2,3E-3,1.3496331E-3,-4.553979E-1,-5.8563974E-2,4.8328397E-1,1E0,-2.1687301E-3,-7.89615E-4,6.595177E-4,-1.0200706E-3,-1.1520156E-3,-3E-3,-3.9839084E-5,-1.8352217E-3,2.4249116E-3,7.794874E-4,3E-3,2.4328653E-3],"categories":[],"categories_nodes":[],"categories_segments":[],"categories_sizes":[],"default_left":[0,0,0,0,0,0,0,0,0,0,0,0,0,0,0,0,0,0,0,0,0,0,0,0,0,0,0],"id":33,"left_children":[1,3,5,7,9,11,13,15,17,-1,-1,19,21,23,25,-1,-1,-1,-1,-1,-1,-1,-1,-1,-1,-1,-1],"loss_changes":[1.3106551E1,1.5260532E2,7.696698E2,5.238919E1,1.1885811E1,7.191806E1,1.0048035E2,1.1657753E1,1.6340734E1,0E0,0E0,5.2523407E1,1.807908E1,4.0921875E1,8.093262E-1,0E0,0E0,0E0,0E0,0E0,0E0,0E0,0E0,0E0,0E0,0E0,0E0],"parents":[2147483647,0,0,1,1,2,2,3,3,4,4,5,5,6,6,7,7,8,8,11,11,12,12,13,13,14,14],"right_children":[2,4,6,8,10,12,14,16,18,-1,-1,20,22,24,26,-1,-1,-1,-1,-1,-1,-1,-1,-1,-1,-1,-1],"split_conditions":[9.599879E0,5.6783554E1,3.636043E1,2.4070543E1,-8.895278E-5,1.5575914E1,5.873567E1,7.7949566E-1,2.6410016E-1,3E-3,1.3496331E-3,-6.124727E-4,-2.20084E-4,-1.2449867E-3,-2.3040154E-4,-2.1687301E-3,-7.89615E-4,6.595177E-4,-1.0200706E-3,-1.1520156E-3,-3E-3,-3.9839084E-5,-1.8352217E-3,2.4249116E-3,7.794874E-4,3E-3,2.4328653E-3],"split_indices":[33,69,69,69,58,69,69,27,54,0,0,37,37,37,37,0,0,0,0,0,0,0,0,0,0,0,0],"split_type":[0,0,0,0,0,0,0,0,0,0,0,0,0,0,0,0,0,0,0,0,0,0,0,0,0,0,0],"sum_hessian":[3.603412E3,6.4887585E2,2.9545364E3,5.2855273E2,1.20323105E2,1.9966531E3,9.5788324E2,3.103737E2,2.1817908E2,6.966245E1,5.0660652E1,1.286428E3,7.102251E2,5.665348E2,3.9134848E2,2.3211435E2,7.825933E1,1.4307272E2,7.5106346E1,1.1489607E3,1.374673E2,6.592124E2,5.101273E1,2.2776842E2,3.3876636E2,3.094481E2,8.190038E1],"tree_param":{"num_deleted":"0","num_feature":"81","num_nodes":"27","size_leaf_vector":"1"}},{"base_weights":[1.6773185E-2,-3.9260077E-1,5.9994334E-1,-8.1685776E-1,-1.1851272E-1,3.156855E-1,9.4316036E-1,-6.7474544E-1,-3E-3,-2.18639E-1,2.1920604E-1,6.459382E-1,1.7548E-1,7.119539E-1,3E-3,-9.274031E-4,-3E-3,-2.853374E-4,-2.2263317E-3,1.2770473E-3,-1.2937826E-3,2.9942405E-3,1.2785307E-3,1.981263E-3,1.4361764E-4,3E-3,1.4643585E-3],"categories":[],"categories_nodes":[],"categories_segments":[],"categories_sizes":[],"default_left":[0,0,0,0,0,0,0,0,0,0,0,0,0,0,0,0,0,0,0,0,0,0,0,0,0,0,0],"id":34,"left_children":[1,3,5,7,9,11,13,15,-1,17,19,21,23,25,-1,-1,-1,-1,-1,-1,-1,-1,-1,-1,-1,-1,-1],"loss_changes":[8.6043866E2,2.4576562E2,1.4432831E2,3.6114563E1,4.3956593E1,3.7658836E1,2.6637207E1,9.647693E1,0E0,6.4420334E1,4.0530945E1,1.7898308E1,3.580483E1,2.3640213E1,0E0,0E0,0E0,0E0,0E0,0E0,0E0,0E0,0E0,0E0,0E0,0E0,0E0],"parents":[2147483647,0,0,1,1,2,2,3,3,4,4,5,5,6,6,7,7,9,9,10,10,11,11,12,12,13,13],"right_children":[2,4,6,8,10,12,14,16,-1,18,20,22,24,26,-1,-1,-1,-1,-1,-1,-1,-1,-1,-1,-1,-1,-1],"split_conditions":[2.7636364E-1,1.4035088E-1,3.8688526E-1,-4.2300577E-5,1E0,-6.964447E0,5.121359E-1,1.5434083E-1,-3E-3,2.735849E-1,2.6605505E-1,2.3636363E-1,2.0895523E-1,-2.3685235E-3,3E-3,-9.274031E-4,-3E-3,-2.853374E-4,-2.2263317E-3,1.2770473E-3,-1.2937826E-3,2.9942405E-3,1.2785307E-3,1.981263E-3,1.4361764E-4,3E-3,1.4643585E-3],"split_indices":[70,70,70,73,71,65,70,51,0,51,51,51,51,47,0,0,0,0,0,0,0,0,0,0,0,0,0],"split_type":[0,0,0,0,0,0,0,0,0,0,0,0,0,0,0,0,0,0,0,0,0,0,0,0,0,0,0],"sum_hessian":[3.595668E3,2.112518E3,1.4831499E3,8.268555E2,1.2856625E3,8.141524E2,6.6899756E2,6.2241675E2,2.044388E2,9.9334344E2,2.9231906E2,2.3942018E2,5.7473224E2,3.7206326E2,2.9693433E2,3.4348816E2,2.789286E2,8.063768E2,1.869667E2,2.2299426E2,6.93248E1,8.840422E1,1.5101596E2,1.17173546E2,4.5755865E2,1.5690456E2,2.1515869E2],"tree_param":{"num_deleted":"0","num_feature":"81","num_nodes":"27","size_leaf_vector":"1"}},{"base_weights":[-6.8935333E-3,-1.9175227E-1,5.189331E-1,-7.4659115E-1,1.8976977E-1,1E0,1.3067734E-1,-5.0327635E-1,-1E0,2.54556E-1,-5.92432E-1,3E-3,5.6855416E-1,2.9196194E-1,1.2284357E-3,-2.6091954E-3,-1.3590197E-3,-3E-3,-2.314042E-3,-3.0691604E-4,9.5875957E-4,-3E-3,-5.9999846E-4,7.632836E-4,2.0771082E-3,1.4951596E-3,-2.361981E-5,-1.153423E-3,2.716814E-4],"categories":[],"categories_nodes":[],"categories_segments":[],"categories_sizes":[],"default_left":[0,0,0,0,0,0,0,0,0,0,0,0,0,0,0,0,0,0,0,0,0,0,0,0,0,0,0,0,0],"id":35,"left_children":[1,3,5,7,9,11,13,15,17,19,21,-1,23,25,27,-1,-1,-1,-1,-1,-1,-1,-1,-1,-1,-1,-1,-1,-1],"loss_changes":[3.5137216E2,5.667299E2,1.8087488E2,8.349884E1,8.1050674E1,2.9601501E1,1.1076034E1,1.0994293E1,1.9194336E0,3.4331306E1,2.0055523E1,0E0,6.2455635E0,1.4960125E1,1.0651322E1,0E0,0E0,0E0,0E0,0E0,0E0,0E0,0E0,0E0,0E0,0E0,0E0,0E0,0E0],"parents":[2147483647,0,0,1,1,2,2,3,3,4,4,5,5,6,6,7,7,8,8,9,9,10,10,12,12,13,13,14,14],"right_children":[2,4,6,8,10,12,14,16,18,20,22,-1,24,26,28,-1,-1,-1,-1,-1,-1,-1,-1,-1,-1,-1,-1,-1,-1],"split_conditions":[1E0,1.9377163E-1,-1.02796184E-4,1.8965517E-1,1.0170188E-5,2.4974506E-4,4.3409187E-4,1.4003295E-1,3.7263893E1,1.1729623E-1,1.3253012E-1,3E-3,5.039121E-1,7.7235013E-1,9.599879E0,-2.6091954E-3,-1.3590197E-3,-3E-3,-2.314042E-3,-3.0691604E-4,9.5875957E-4,-3E-3,-5.9999846E-4,7.632836E-4,2.0771082E-3,1.4951596E-3,-2.361981E-5,-1.153423E-3,2.716814E-4],"split_indices":[71,70,38,51,57,57,38,52,44,52,52,0,0,56,33,0,0,0,0,0,0,0,0,0,0,0,0,0,0],"split_type":[0,0,0,0,0,0,0,0,0,0,0,0,0,0,0,0,0,0,0,0,0,0,0,0,0,0,0,0,0],"sum_hessian":[3.6051992E3,2.6690825E3,9.361167E2,1.087277E3,1.5818055E3,4.0833563E2,5.2778107E2,6.2900726E2,4.5826968E2,1.4626493E3,1.1915625E2,2.3824997E2,1.7008566E2,2.3215643E2,2.9562463E2,7.074481E1,5.5826245E2,3.809279E2,7.734182E1,2.240913E2,1.238558E3,5.4635357E1,6.452089E1,5.095585E1,1.19129814E2,1.376992E2,9.445723E1,5.3298122E1,2.423265E2],"tree_param":{"num_deleted":"0","num_feature":"81","num_nodes":"29","size_leaf_vector":"1"}},{"base_weights":[6.5830057E-3,-1.5443708E-1,4.6642718E-1,-7.6711595E-1,2.1928565E-1,1E0,1.8719581E-1,-1E0,-4.609386E-1,-1.4687735E-1,6.4370847E-1,3E-3,1.328833E-3,-2.679481E-1,5.376883E-1,-2.234096E-3,-3E-3,-1.1022689E-3,-2.9846185E-3,-2.0004541E-4,-2.9440233E-3,2.5174262E-3,2.0979966E-4,7.571877E-4,-1.1414834E-3,2.4920227E-3,7.8165054E-4],"categories":[],"categories_nodes":[],"categories_segments":[],"categories_sizes":[],"default_left":[0,0,0,0,0,0,0,0,0,0,0,0,0,0,0,0,0,0,0,0,0,0,0,0,0,0,0],"id":36,"left_children":[1,3,5,7,9,11,13,15,17,19,21,-1,-1,23,25,-1,-1,-1,-1,-1,-1,-1,-1,-1,-1,-1,-1],"loss_changes":[2.689878E2,6.155894E2,1.7209534E2,8.809497E1,2.6007785E2,1.4558624E1,1.077855E2,1.0460327E1,2.4501755E1,6.020227E1,8.638428E1,0E0,0E0,1.7711063E1,3.0374573E1,0E0,0E0,0E0,0E0,0E0,0E0,0E0,0E0,0E0,0E0,0E0,0E0],"parents":[2147483647,0,0,1,1,2,2,3,3,4,4,5,5,6,6,7,7,8,8,9,9,10,10,13,13,14,14],"right_children":[2,4,6,8,10,12,14,16,18,20,22,-1,-1,24,26,-1,-1,-1,-1,-1,-1,-1,-1,-1,-1,-1,-1],"split_conditions":[1E0,1.8673219E-1,2.4974506E-4,1.1515152E-1,3.636043E1,-1.852042E-4,2.54818E-1,3.2052273E1,-4.4288764E0,1.0170188E-5,-1.0296007E-3,3E-3,1.328833E-3,-5.0976407E-4,-4.1109245E-4,-2.234096E-3,-3E-3,-1.1022689E-3,-2.9846185E-3,-2.0004541E-4,-2.9440233E-3,2.5174262E-3,2.0979966E-4,7.571877E-4,-1.1414834E-3,2.4920227E-3,7.8165054E-4],"split_indices":[71,70,57,70,69,38,70,43,65,57,38,0,0,38,37,0,0,0,0,0,0,0,0,0,0,0,0],"split_type":[0,0,0,0,0,0,0,0,0,0,0,0,0,0,0,0,0,0,0,0,0,0,0,0,0,0,0],"sum_hessian":[3.618454E3,2.6801926E3,9.382614E2,1.0151668E3,1.6650258E3,2.7112265E2,6.671388E2,5.162252E2,4.9894156E2,8.93932E2,7.7109375E2,2.1796599E2,5.3156643E1,2.8982333E2,3.7731546E2,1.930879E2,3.2313733E2,4.2824884E2,7.06927E1,8.180709E2,7.586112E1,5.7384125E2,1.972525E2,5.0307087E1,2.3951625E2,1.8059476E2,1.9672069E2],"tree_param":{"num_deleted":"0","num_feature":"81","num_nodes":"27","size_leaf_vector":"1"}},{"base_weights":[-1.9851794E-2,-3.7420368E-1,6.709061E-1,-8.647931E-1,-1.20065995E-1,3.6488128E-1,1E0,-4.0807402E-1,-3E-3,-2.58733E-1,3.454197E-1,5.3941005E-1,3.1704415E-2,1E0,1.989212E-3,-1.7811597E-3,1.0787785E-3,-5.1277666E-4,-2.6600147E-3,3E-3,2.6524355E-4,2.9272493E-3,1.3094498E-3,6.842645E-4,-9.28922E-4,2.0005938E-3,3E-3],"categories":[],"categories_nodes":[],"categories_segments":[],"categories_sizes":[],"default_left":[0,0,0,0,0,0,0,0,0,0,0,0,0,0,0,0,0,0,0,0,0,0,0,0,0,0,0],"id":37,"left_children":[1,3,5,7,9,11,13,15,-1,17,19,21,23,25,-1,-1,-1,-1,-1,-1,-1,-1,-1,-1,-1,-1,-1],"loss_changes":[8.932518E2,3.0038745E2,1.3833356E2,1.2020532E2,1.03289246E2,3.9452194E1,8.415955E0,5.7089424E1,0E0,6.764832E1,7.2493866E1,1.931871E1,1.6494425E1,7.5493774E0,0E0,0E0,0E0,0E0,0E0,0E0,0E0,0E0,0E0,0E0,0E0,0E0,0E0],"parents":[2147483647,0,0,1,1,2,2,3,3,4,4,5,5,6,6,7,7,9,9,10,10,11,11,12,12,13,13],"right_children":[2,4,6,8,10,12,14,16,-1,18,20,22,24,26,-1,-1,-1,-1,-1,-1,-1,-1,-1,-1,-1,-1,-1],"split_conditions":[3.5887997E1,1.4035088E-1,4.0329218E-1,1.614035E-1,1E0,3.4051228E-1,-1.3453065E-4,1E0,-3E-3,-7.932129E-4,2.1069817E-4,3.353215E1,-1.2498364E-4,5.571981E1,1.989212E-3,-1.7811597E-3,1.0787785E-3,-5.1277666E-4,-2.6600147E-3,3E-3,2.6524355E-4,2.9272493E-3,1.3094498E-3,6.842645E-4,-9.28922E-4,2.0005938E-3,3E-3],"split_indices":[69,70,70,51,71,41,47,71,0,38,57,43,38,69,0,0,0,0,0,0,0,0,0,0,0,0,0],"split_type":[0,0,0,0,0,0,0,0,0,0,0,0,0,0,0,0,0,0,0,0,0,0,0,0,0,0,0],"sum_hessian":[3.641697E3,2.4080378E3,1.2336589E3,8.194302E2,1.5886078E3,6.7842E2,5.55239E2,3.9094418E2,4.28486E2,1.2254976E3,3.6311014E2,4.4340924E2,2.3501074E2,4.6251715E2,9.272186E1,3.1570206E2,7.524213E1,1.0780848E3,1.4741272E2,8.6897285E1,2.7621283E2,8.0466805E1,3.6294244E2,1.5053363E2,8.447712E1,8.704792E1,3.754692E2],"tree_param":{"num_deleted":"0","num_feature":"81","num_nodes":"27","size_leaf_vector":"1"}},{"base_weights":[-1.01002E-2,-3.8471442E-1,5.893088E-1,-2.7748823E-1,-9.622684E-1,3.2429087E-1,1E0,-6.9121295E-1,-6.0284708E-2,-3E-3,-2.3488183E-1,6.796903E-1,1.5293297E-1,8.2460843E-4,1E0,-8.303472E-4,-3E-3,1.9924871E-4,-7.509047E-4,-1.2473736E-3,-1.0050215E-4,2.9266672E-4,2.554753E-3,9.002965E-4,-2.545837E-4,2.1277522E-3,3E-3],"categories":[],"categories_nodes":[],"categories_segments":[],"categories_sizes":[],"default_left":[0,0,0,0,0,0,0,0,0,0,0,0,0,0,0,0,0,0,0,0,0,0,0,0,0,0,0],"id":38,"left_children":[1,3,5,7,9,11,13,15,17,-1,19,21,23,-1,25,-1,-1,-1,-1,-1,-1,-1,-1,-1,-1,-1,-1],"loss_changes":[8.142888E2,1.3778796E2,1.5226117E2,1.6932991E2,5.9872955E1,5.1828346E1,4.7176514E1,1.0046686E2,3.0198906E1,0E0,3.8885288E0,2.7240448E1,2.065279E1,0E0,2.7057495E0,0E0,0E0,0E0,0E0,0E0,0E0,0E0,0E0,0E0,0E0,0E0,0E0],"parents":[2147483647,0,0,1,1,2,2,3,3,4,4,5,5,6,6,7,7,8,8,10,10,11,11,12,12,14,14],"right_children":[2,4,6,8,10,12,14,16,18,-1,20,22,24,-1,26,-1,-1,-1,-1,-1,-1,-1,-1,-1,-1,-1,-1],"split_conditions":[3.0449072E1,6.188789E-5,5.6783554E1,1.4035088E-1,2.0241691E-1,3.828314E1,3.6792454E-1,1.4285715E-1,-1.8987489E-3,-3E-3,6.386176E-1,2.5777778E-1,4.6186638E1,8.2460843E-4,9.081029E0,-8.303472E-4,-3E-3,1.9924871E-4,-7.509047E-4,-1.2473736E-3,-1.0050215E-4,2.9266672E-4,2.554753E-3,9.002965E-4,-2.545837E-4,2.1277522E-3,3E-3],"split_indices":[69,73,69,70,70,43,70,51,47,0,55,70,43,0,33,0,0,0,0,0,0,0,0,0,0,0,0],"split_type":[0,0,0,0,0,0,0,0,0,0,0,0,0,0,0,0,0,0,0,0,0,0,0,0,0,0,0],"sum_hessian":[3.618504E3,2.2277634E3,1.3907406E3,1.8821569E3,3.456065E2,8.50936E2,5.398047E2,6.4565674E2,1.2365001E3,2.3982622E2,1.057803E2,2.7393628E2,5.769997E2,9.290362E1,4.4690106E2,3.127634E2,3.3289334E2,7.410479E2,4.9545218E2,5.3292805E1,5.2487488E1,6.3826363E1,2.1010991E2,3.5739438E2,2.196053E2,5.710626E1,3.897948E2],"tree_param":{"num_deleted":"0","num_feature":"81","num_nodes":"27","size_leaf_vector":"1"}},{"base_weights":[2.5522936E-2,-3.919948E-1,5.3478557E-1,-9.5620173E-1,-1.8961123E-1,2.4790688E-1,9.218138E-1,-2.5553623E-1,-3E-3,-3.1496978E-1,2.5820327E-1,5.012301E-1,8.4711835E-2,7.280197E-1,1E0,-2.2869806E-4,-1.8115222E-3,-6.1723095E-4,-2.3495567E-3,3E-3,-1.7371969E-4,2.5227969E-3,7.775038E-4,-5.047255E-4,5.9608126E-4,2.8645718E-3,1.4196351E-3,2.1822194E-3,3E-3],"categories":[],"categories_nodes":[],"categories_segments":[],"categories_sizes":[],"default_left":[0,0,0,0,0,0,0,0,0,0,0,0,0,0,0,0,0,0,0,0,0,0,0,0,0,0,0,0,0],"id":39,"left_children":[1,3,5,7,9,11,13,15,-1,17,19,21,23,25,27,-1,-1,-1,-1,-1,-1,-1,-1,-1,-1,-1,-1,-1,-1],"loss_changes":[7.7274176E2,2.2750998E2,1.812037E2,8.359494E1,8.313861E1,3.8939114E1,2.2979614E1,9.83009E0,0E0,5.8713562E1,1.043857E2,2.985788E1,1.7001862E1,2.207071E1,1.701477E0,0E0,0E0,0E0,0E0,0E0,0E0,0E0,0E0,0E0,0E0,0E0,0E0,0E0,0E0],"parents":[2147483647,0,0,1,1,2,2,3,3,4,4,5,5,6,6,7,7,9,9,10,10,11,11,12,12,13,13,14,14],"right_children":[2,4,6,8,10,12,14,16,-1,18,20,22,24,26,28,-1,-1,-1,-1,-1,-1,-1,-1,-1,-1,-1,-1,-1,-1],"split_conditions":[2.6506025E-1,1.0443864E-1,3.8688526E-1,1.1258278E-1,1E0,2.6497695E-1,5.121359E-1,-7.094982E-2,-3E-3,-4.7662807E0,-7.214751E-4,-3.3442606E-3,-9.7631884E-4,-8.738331E-4,1.5486385E1,-2.2869806E-4,-1.8115222E-3,-6.1723095E-4,-2.3495567E-3,3E-3,-1.7371969E-4,2.5227969E-3,7.775038E-4,-5.047255E-4,5.9608126E-4,2.8645718E-3,1.4196351E-3,2.1822194E-3,3E-3],"split_indices":[70,70,70,51,71,51,70,77,0,65,38,47,73,73,44,0,0,0,0,0,0,0,0,0,0,0,0,0,0],"split_type":[0,0,0,0,0,0,0,0,0,0,0,0,0,0,0,0,0,0,0,0,0,0,0,0,0,0,0,0,0],"sum_hessian":[3.625727E3,1.9920382E3,1.6336888E3,5.2328876E2,1.4687494E3,9.4086224E2,6.9282666E2,1.5552286E2,3.677659E2,1.1488553E3,3.19894E2,3.6581342E2,5.750488E2,3.9572336E2,2.971033E2,1.0522656E2,5.0296288E1,9.347436E2,2.1411179E2,7.017793E1,2.4971608E2,1.4929044E2,2.1652298E2,1.7697017E2,3.9807864E2,2.0540706E2,1.9031631E2,5.148149E1,2.4562181E2],"tree_param":{"num_deleted":"0","num_feature":"81","num_nodes":"29","size_leaf_vector":"1"}},{"base_weights":[-8.512846E-3,-6.034774E-1,3.876079E-1,-3.5784003E-1,-1E0,7.432728E-1,3.173718E-1,-7.74428E-1,-9.0292014E-2,-3E-3,-6.4201343E-1,2.0767234E-1,1E0,1.3730381E-1,8.335241E-1,-3E-3,-1.8719054E-3,-6.6492526E-4,2.0304017E-4,-1.1326035E-3,-2.5663804E-3,1.3529161E-3,-2.0913137E-4,2.204626E-3,3E-3,4.851332E-4,-1.2137061E-3,1.7894234E-3,3E-3],"categories":[],"categories_nodes":[],"categories_segments":[],"categories_sizes":[],"default_left":[0,0,0,0,0,0,0,0,0,0,0,0,0,0,0,0,0,0,0,0,0,0,0,0,0,0,0,0,0],"id":40,"left_children":[1,3,5,7,9,11,13,15,17,-1,19,21,23,25,27,-1,-1,-1,-1,-1,-1,-1,-1,-1,-1,-1,-1,-1,-1],"loss_changes":[8.510064E2,1.4559119E2,5.373929E1,1.01167336E2,3.1195251E1,6.9334885E1,1.6836446E2,1.36436E1,1.1844032E1,0E0,1.410878E1,1.0802768E1,1.5907898E0,1.8247635E1,2.4629059E1,0E0,0E0,0E0,0E0,0E0,0E0,0E0,0E0,0E0,0E0,0E0,0E0,0E0,0E0],"parents":[2147483647,0,0,1,1,2,2,3,3,4,4,5,5,6,6,7,7,8,8,10,10,11,11,12,12,13,13,14,14],"right_children":[2,4,6,8,10,12,14,16,18,-1,20,22,24,26,28,-1,-1,-1,-1,-1,-1,-1,-1,-1,-1,-1,-1,-1,-1],"split_conditions":[2.0537898E-1,2.0365535E-1,-2.5588963E-3,1.0803324E-1,1.3184585E-1,3.2673267E-1,4.0625E-1,4.6153847E-2,1.1327732E-1,-3E-3,-5.4720446E-4,1.4414279E-3,3.8020834E-1,2.8115172E-5,5.121359E-1,-3E-3,-1.8719054E-3,-6.6492526E-4,2.0304017E-4,-1.1326035E-3,-2.5663804E-3,1.3529161E-3,-2.0913137E-4,2.204626E-3,3E-3,4.851332E-4,-1.2137061E-3,1.7894234E-3,3E-3],"split_indices":[70,51,73,70,70,70,70,70,35,0,73,48,70,37,70,0,0,0,0,0,0,0,0,0,0,0,0,0,0],"split_type":[0,0,0,0,0,0,0,0,0,0,0,0,0,0,0,0,0,0,0,0,0,0,0,0,0,0,0,0,0],"sum_hessian":[3.6022769E3,1.4398577E3,2.162419E3,9.0626404E2,5.335937E2,3.52274E2,1.810145E3,3.5220392E2,5.540601E2,2.7377496E2,2.598187E2,1.4967706E2,2.0259694E2,1.3445708E3,4.655742E2,1.150456E2,2.3715831E2,3.038094E2,2.502507E2,1.1955711E2,1.4026158E2,8.003085E1,6.964622E1,5.2856697E1,1.4974023E2,1.288844E3,5.5726807E1,2.4257353E2,2.2300067E2],"tree_param":{"num_deleted":"0","num_feature":"81","num_nodes":"29","size_leaf_vector":"1"}},{"base_weights":[-0E0,-3.5580528E-1,7.030532E-1,-8.5360044E-1,-1.2648793E-1,4.256101E-1,1E0,-6.263776E-1,-1E0,-2.727081E-1,3.49075E-1,9.9294335E-1,2.6782605E-1,3E-3,7.268592E-1,-2.207974E-3,1.2730184E-4,-3E-3,-2.3496815E-3,-5.416277E-4,-2.798087E-3,3E-3,1.6145564E-4,2.169725E-3,3E-3,1.1306105E-3,-5.167024E-4,1.2558912E-3,3E-3],"categories":[],"categories_nodes":[],"categories_segments":[],"categories_sizes":[],"default_left":[0,0,0,0,0,0,0,0,0,0,0,0,0,0,0,0,0,0,0,0,0,0,0,0,0,0,0,0,0],"id":41,"left_children":[1,3,5,7,9,11,13,15,17,19,21,23,25,-1,27,-1,-1,-1,-1,-1,-1,-1,-1,-1,-1,-1,-1,-1,-1],"loss_changes":[9.104414E2,2.754111E2,1.1053174E2,4.6371094E1,1.157498E2,5.9508926E1,1.0472473E1,3.463948E1,6.498413E-1,7.707344E1,8.16853E1,1.9703217E0,2.5774002E1,0E0,2.027855E1,0E0,0E0,0E0,0E0,0E0,0E0,0E0,0E0,0E0,0E0,0E0,0E0,0E0,0E0],"parents":[2147483647,0,0,1,1,2,2,3,3,4,4,5,5,6,6,7,7,8,8,9,9,10,10,11,11,12,12,14,14],"right_children":[2,4,6,8,10,12,14,16,18,20,22,24,26,-1,28,-1,-1,-1,-1,-1,-1,-1,-1,-1,-1,-1,-1,-1,-1],"split_conditions":[3.5887997E1,1.3017751E-1,3.9701492E-1,3.764486E1,1E0,3.707011E1,-8.313064E-4,1E0,1.0973837E-1,-3.896297E-5,2.9127067E-4,4.250969E1,-7.393789E-4,3E-3,5.927052E-1,-2.207974E-3,1.2730184E-4,-3E-3,-2.3496815E-3,-5.416277E-4,-2.798087E-3,3E-3,1.6145564E-4,2.169725E-3,3E-3,1.1306105E-3,-5.167024E-4,1.2558912E-3,3E-3],"split_indices":[69,70,70,43,71,43,47,71,70,57,57,69,47,0,70,0,0,0,0,0,0,0,0,0,0,0,0,0,0],"split_type":[0,0,0,0,0,0,0,0,0,0,0,0,0,0,0,0,0,0,0,0,0,0,0,0,0,0,0,0,0],"sum_hessian":[3.6310435E3,2.4113623E3,1.2196812E3,7.5809265E2,1.6532697E3,6.6643854E2,5.532426E2,4.6284433E2,2.952483E2,1.265939E3,3.8733066E2,1.4202261E2,5.2441595E2,3.844024E2,1.6884023E2,3.9813876E2,6.470558E1,2.362445E2,5.900378E1,1.1137162E3,1.5222282E2,1.11264565E2,2.760661E2,5.3449802E1,8.857281E1,4.214153E2,1.0300063E2,1.0253686E2,6.630337E1],"tree_param":{"num_deleted":"0","num_feature":"81","num_nodes":"29","size_leaf_vector":"1"}},{"base_weights":[-1.2624305E-2,-3.295611E-1,7.634264E-1,-9.4981194E-1,-1.20805755E-1,3.94967E-1,1E0,-6.3601655E-1,-1E0,-2.0480712E-1,7.264949E-2,7.870289E-1,8.419494E-2,6.054445E-1,1E0,-2.343447E-3,-2.97648E-4,-3E-3,-2.317545E-3,-9.606566E-4,7.5476913E-4,-2.6717383E-4,1.2184196E-3,3E-3,2.0047177E-3,-6.9610454E-4,7.144787E-4,2.7855595E-3,9.1314304E-4,1.9939372E-3,3E-3],"categories":[],"categories_nodes":[],"categories_segments":[],"categories_sizes":[],"default_left":[0,0,0,0,0,0,0,0,0,0,0,0,0,0,0,0,0,0,0,0,0,0,0,0,0,0,0,0,0,0,0],"id":42,"left_children":[1,3,5,7,9,11,13,15,17,19,21,23,25,27,29,-1,-1,-1,-1,-1,-1,-1,-1,-1,-1,-1,-1,-1,-1,-1,-1],"loss_changes":[8.848302E2,3.3043814E2,1.1740332E2,3.0662842E1,3.133032E1,5.9178284E1,1.5299255E1,1.9991653E1,1.9712219E0,7.0921295E1,3.1859854E1,5.0924377E0,1.3855162E1,1.050098E1,3.5863647E0,0E0,0E0,0E0,0E0,0E0,0E0,0E0,0E0,0E0,0E0,0E0,0E0,0E0,0E0,0E0,0E0],"parents":[2147483647,0,0,1,1,2,2,3,3,4,4,5,5,6,6,7,7,8,8,9,9,10,10,11,11,12,12,13,13,14,14],"right_children":[2,4,6,8,10,12,14,16,18,20,22,24,26,28,30,-1,-1,-1,-1,-1,-1,-1,-1,-1,-1,-1,-1,-1,-1,-1,-1],"split_conditions":[4.1161575E1,1.17056854E-1,3.8333333E-1,3.353215E1,2.3708927E1,4.287617E1,5.4845158E1,9.570383E0,1E0,1E0,1E0,-5.2748336E-3,4.8529266E1,-9.862946E-4,1.4554986E1,-2.343447E-3,-2.97648E-4,-3E-3,-2.317545E-3,-9.606566E-4,7.5476913E-4,-2.6717383E-4,1.2184196E-3,3E-3,2.0047177E-3,-6.9610454E-4,7.144787E-4,2.7855595E-3,9.1314304E-4,1.9939372E-3,3E-3],"split_indices":[69,70,70,43,69,43,69,69,71,71,71,47,69,46,44,0,0,0,0,0,0,0,0,0,0,0,0,0,0,0,0],"split_type":[0,0,0,0,0,0,0,0,0,0,0,0,0,0,0,0,0,0,0,0,0,0,0,0,0,0,0,0,0,0,0],"sum_hessian":[3.5899136E3,2.5502102E3,1.0397034E3,6.3978766E2,1.9104226E3,4.8445145E2,5.552519E2,2.591119E2,3.8067578E2,1.3337529E3,5.766696E2,2.121432E2,2.7230826E2,1.11659454E2,4.435924E2,2.0251654E2,5.6595352E1,3.015397E2,7.913609E1,1.0659038E3,2.6784906E2,3.88335E2,1.8833463E2,6.0379063E1,1.5176414E2,8.777157E1,1.8453668E2,5.104901E1,6.0610443E1,5.0655685E1,3.9293674E2],"tree_param":{"num_deleted":"0","num_feature":"81","num_nodes":"31","size_leaf_vector":"1"}},{"base_weights":[-2.3682632E-3,-3.0805993E-1,7.541955E-1,-7.9985416E-1,-7.019339E-2,4.49989E-1,1E0,-3.0997935E-1,-1E0,-2.1010746E-1,3.738058E-1,7.566831E-1,2.0549288E-1,6.7276317E-1,1E0,-1.3848951E-3,9.879734E-4,-3E-3,-2.3825876E-3,-4.4952313E-4,-3E-3,2.3673559E-3,-1.8224088E-4,1.3010056E-3,2.8799528E-3,1.1037855E-3,-4.301321E-4,3E-3,1.2473274E-3,3E-3,2.0785278E-3],"categories":[],"categories_nodes":[],"categories_segments":[],"categories_sizes":[],"default_left":[0,0,0,0,0,0,0,0,0,0,0,0,0,0,0,0,0,0,0,0,0,0,0,0,0,0,0,0,0,0,0],"id":43,"left_children":[1,3,5,7,9,11,13,15,17,19,21,23,25,27,29,-1,-1,-1,-1,-1,-1,-1,-1,-1,-1,-1,-1,-1,-1,-1,-1],"loss_changes":[8.3621533E2,3.0101373E2,8.034766E1,1.4540497E2,1.08502106E2,3.5768166E1,1.7527344E1,3.7801235E1,1.0452881E0,7.686629E1,7.603251E1,1.3002487E1,1.5889001E1,1.9972054E1,2.7548218E0,0E0,0E0,0E0,0E0,0E0,0E0,0E0,0E0,0E0,0E0,0E0,0E0,0E0,0E0,0E0,0E0],"parents":[2147483647,0,0,1,1,2,2,3,3,4,4,5,5,6,6,7,7,8,8,9,9,10,10,11,11,12,12,13,13,14,14],"right_children":[2,4,6,8,10,12,14,16,18,20,22,24,26,28,30,-1,-1,-1,-1,-1,-1,-1,-1,-1,-1,-1,-1,-1,-1,-1,-1],"split_conditions":[4.1161575E1,1.4035088E-1,3.8688526E-1,1.5434083E-1,1E0,4.3034607E1,6.025139E1,1E0,1.2280702E-1,-4.7739773E-4,1.6418937E-5,6.233525E-4,-1.8760313E-4,1.9050613E-1,-9.414879E-5,-1.3848951E-3,9.879734E-4,-3E-3,-2.3825876E-3,-4.4952313E-4,-3E-3,2.3673559E-3,-1.8224088E-4,1.3010056E-3,2.8799528E-3,1.1037855E-3,-4.301321E-4,3E-3,1.2473274E-3,3E-3,2.0785278E-3],"split_indices":[69,70,70,51,71,43,69,71,70,38,38,49,37,41,37,0,0,0,0,0,0,0,0,0,0,0,0,0,0,0,0],"split_type":[0,0,0,0,0,0,0,0,0,0,0,0,0,0,0,0,0,0,0,0,0,0,0,0,0,0,0,0,0,0,0],"sum_hessian":[3.6080442E3,2.5710508E3,1.0369935E3,8.359268E2,1.7351239E3,4.7873358E2,5.5826E2,3.791172E2,4.568096E2,1.3210205E3,4.1410342E2,2.0959027E2,2.691433E2,1.8341132E2,3.748487E2,3.0750934E2,7.1607834E1,3.8205057E2,7.475905E1,1.2492953E3,7.172522E1,2.1149304E2,2.0261038E2,8.432937E1,1.25260895E2,1.8454312E2,8.460018E1,6.2113907E1,1.2129742E2,3.2319522E2,5.1653473E1],"tree_param":{"num_deleted":"0","num_feature":"81","num_nodes":"31","size_leaf_vector":"1"}},{"base_weights":[-2.3446962E-2,2.804837E-2,-3.4137177E-1,-1.2891985E-1,4.6700007E-1,-3E-3,-1.1726338E-1,-4.6817176E-2,-7.774536E-1,1E0,9.724225E-2,-2.543328E-1,3.0909768E-1,-5.992081E-4,1.3876974E-4,-2.7366478E-3,-1.3117586E-3,3E-3,1.9149136E-3,-1.7439714E-4,8.0285216E-4,1.6240566E-4,-1.7249181E-3,2.2396038E-3,-3.3502304E-4],"categories":[],"categories_nodes":[],"categories_segments":[],"categories_sizes":[],"default_left":[0,0,0,0,0,0,0,0,0,0,0,0,0,0,0,0,0,0,0,0,0,0,0,0,0],"id":44,"left_children":[1,3,5,7,9,-1,11,13,15,17,19,21,23,-1,-1,-1,-1,-1,-1,-1,-1,-1,-1,-1,-1],"loss_changes":[5.9567505E1,2.1475087E2,1.2036075E2,1.2200452E2,1.6274673E2,0E0,2.6174843E1,2.9231632E1,1.08463745E1,2.347815E1,1.3284982E1,3.3678116E1,2.0650036E1,0E0,0E0,0E0,0E0,0E0,0E0,0E0,0E0,0E0,0E0,0E0,0E0],"parents":[2147483647,0,0,1,1,2,2,3,3,4,4,6,6,7,7,8,8,9,9,10,10,11,11,12,12],"right_children":[2,4,6,8,10,-1,12,14,16,18,20,22,24,-1,-1,-1,-1,-1,-1,-1,-1,-1,-1,-1,-1],"split_conditions":[3.8106125E-4,1E0,3.5864496E-4,1E0,-2.2714335E-4,-3E-3,1E0,2.3562212E1,2.5274727E-1,1E0,-4.1541442E-2,-1.8739328E-3,4.6866652E-4,-5.992081E-4,1.3876974E-4,-2.7366478E-3,-1.3117586E-3,3E-3,1.9149136E-3,-1.7439714E-4,8.0285216E-4,1.6240566E-4,-1.7249181E-3,2.2396038E-3,-3.3502304E-4],"split_indices":[73,71,46,39,38,0,71,44,52,72,31,38,38,0,0,0,0,0,0,0,0,0,0,0,0],"split_type":[0,0,0,0,0,0,0,0,0,0,0,0,0,0,0,0,0,0,0,0,0,0,0,0,0],"sum_hessian":[3.6045847E3,3.1023394E3,5.0224533E2,2.2853696E3,8.1696985E2,6.621717E1,4.3602817E2,2.031147E3,2.5422253E2,3.3088318E2,4.860867E2,3.314508E2,1.04577354E2,7.696701E2,1.2614769E3,1.7863E2,7.559253E1,1.3536656E2,1.9551662E2,2.533895E2,2.326972E2,1.689843E2,1.6246649E2,5.1096767E1,5.348059E1],"tree_param":{"num_deleted":"0","num_feature":"81","num_nodes":"25","size_leaf_vector":"1"}},{"base_weights":[9.650983E-3,-3.2827976E-1,6.636335E-1,-8.599416E-1,-5.1952798E-2,3.299091E-1,9.9010843E-1,-5.9424305E-1,-1E0,-1.8980007E-1,3.97505E-1,6.359337E-1,7.447118E-2,5.529781E-1,1E0,-2.1415525E-3,5.9830514E-4,-3E-3,-2.015676E-3,-3.766737E-4,-2.8928819E-3,3E-3,1.8315042E-4,1.1624015E-4,2.2996042E-3,4.7129337E-4,-9.4232993E-4,2.6502875E-3,1.0501492E-3,3E-3,1.9816945E-3],"categories":[],"categories_nodes":[],"categories_segments":[],"categories_sizes":[],"default_left":[0,0,0,0,0,0,0,0,0,0,0,0,0,0,0,0,0,0,0,0,0,0,0,0,0,0,0,0,0,0,0],"id":45,"left_children":[1,3,5,7,9,11,13,15,17,19,21,23,25,27,29,-1,-1,-1,-1,-1,-1,-1,-1,-1,-1,-1,-1,-1,-1,-1,-1],"loss_changes":[8.073247E2,3.533049E2,1.3479962E2,4.608557E1,9.878304E1,4.8283653E1,2.6935974E1,3.8033188E1,1.2440674E1,6.0574547E1,9.01785E1,2.1565613E1,1.1343042E1,9.322788E0,4.413025E0,0E0,0E0,0E0,0E0,0E0,0E0,0E0,0E0,0E0,0E0,0E0,0E0,0E0,0E0,0E0,0E0],"parents":[2147483647,0,0,1,1,2,2,3,3,4,4,5,5,6,6,7,7,8,8,9,9,10,10,11,11,12,12,13,13,14,14],"right_children":[2,4,6,8,10,12,14,16,18,20,22,24,26,28,30,-1,-1,-1,-1,-1,-1,-1,-1,-1,-1,-1,-1,-1,-1,-1,-1],"split_conditions":[3.5887997E1,1.4035088E-1,3.8020834E-1,3.4867184E1,1E0,4.3034607E1,5.4845158E1,1E0,1.0619469E-1,-3.7895012E0,3.0561376E-4,2.3943663E-1,3.4953272E-1,3.715343E1,5.04224E1,-2.1415525E-3,5.9830514E-4,-3E-3,-2.015676E-3,-3.766737E-4,-2.8928819E-3,3E-3,1.8315042E-4,1.1624015E-4,2.2996042E-3,4.7129337E-4,-9.4232993E-4,2.6502875E-3,1.0501492E-3,3E-3,1.9816945E-3],